1.415410050527207697e-01
-1.355432360276386493e-02
-9.100916349879650119e-03
2.863083777467445579e-02
-2.818062502181703163e-02
2.319996741870029508e-02
-5.009569944172679451e-03
-5.051549528523709837e-02
-2.499569325175572329e-02
1.655551236984987781e-02
-2.625041740083088396e-02
4.512501995444025832e-02
3.078098117863417929e-02
5.218660105415772604e-02
-4.094183303778823474e-02
2.816433447415251506e-02
1.177756886905391431e-02
-2.577189631911788389e-02
-3.563036700483657171e-02
-2.092179069684779649e-03
1.117509215402002262e-03
3.456015015757197412e-02
1.968332010528043782e-02
-3.397254944435779134e-02
-5.188430753241412424e-02
4.653371950992964828e-02
-3.845700557530273844e-02
-8.721715329777241649e-03
-3.269296955415940120e-02
8.736282647787236774e-03
-4.971691389457196658e-02
-1.974779441781853925e-02
-4.451855564186513181e-02
4.863186170113385776e-02
-4.809682745225834360e-02
-4.223225422448461525e-02
4.708801835470755037e-02
7.234285524203180884e-03
-1.919289298781833367e-02
-5.032873289226887786e-02
-3.864046910477419994e-02
1.046210039272146624e-03
-1.898146134624822956e-02
-3.269325093623969697e-02
-2.869350235095558324e-02
-7.931506723360570721e-02
-6.532531025877856556e-02
-3.435992012919917432e-02
-2.561010100498910258e-02
8.719314971510383483e-02
4.273220242313088141e-02
2.081923283152287488e-02
3.967125987917057006e-02
-5.464012064240145877e-02
-1.490874873799765687e-01
-1.044026457920437800e-01
-9.039894035135304096e-02
-3.464198947155894270e-02
-2.628422731341413174e-02
3.054042133150529706e-02
-3.796051326199954834e-02
1.882087452269340030e-02
3.880531741831973885e-02
-2.367990778437387145e-02
-4.747084731796941126e-02
-3.193021630318403081e-02
-1.292033213368849187e-01
-1.351017534561010369e-01
1.550551172434153080e-01
2.842699692710046189e-01
1.980372905720474974e-01
-5.449415082157055973e-02
-1.639047354886513097e-01
-1.915460519980891618e-01
-2.500243433552149508e-01
-3.753978125816508915e-01
-2.257352807966513664e-01
-1.749231007561735940e-01
-1.154738301414540147e-01
-5.192448244635396865e-02
-2.205243425177967273e-02
-1.190076401964904919e-02
1.742542232745816896e-03
3.408281695582680154e-02
-1.649846555155133343e-01
-2.489992413079407108e-01
-3.857702542659159350e-01
-1.022464311133805120e-01
1.976307933923178717e-01
2.178083811019110028e-01
1.069009224448971423e-01
-3.090852617333018915e-02
-1.327122448154756384e-01
-1.603930498902665369e-01
-1.350148600139397803e-01
-1.998327968613353156e-01
-1.844444901708327256e-01
-1.331356110665490033e-01
-9.853008006426154652e-02
4.017151227198715452e-02
-4.655664751296467035e-02
2.379437443241303254e-02
-1.326585600006191523e-02
5.832116550561997938e-03
-1.904436968025641219e-01
-9.762267957634469806e-02
7.566894605037483013e-02
2.258759007191487311e-01
3.088356838930074177e-01
5.755798220994565728e-01
4.364299062250702188e-01
4.363967223309488802e-02
2.208491950727144715e-01
1.846296271876391726e-01
-2.808972418421935568e-01
-3.042112484671278261e-01
-2.582721953815035887e-01
-6.155599498293176652e-02
3.403050227488942786e-02
1.050748886764075324e-02
-2.802736676188729778e-02
3.615825862243869648e-02
-9.860398991199526009e-02
-7.746793513999598868e-02
3.263770541301056968e-03
-6.357627866632326041e-02
-6.572032888982608234e-02
2.664818692403771172e-02
3.700942663769528074e-01
5.263456416121058412e-01
3.083060286361307134e-01
3.626801545658456943e-02
-1.371593296999997214e-01
1.779110983347908792e-01
-2.294779186223735445e-01
-3.775039262814481877e-01
-6.272808163643434076e-01
-2.809873413215963067e-01
2.546962480935319184e-01
5.843406153935749164e-02
-5.511292658171365599e-03
5.042799689102437158e-03
-3.213077544883585074e-02
-1.254403976407024446e-01
-1.576533638573565099e-01
-4.036713831942954078e-01
-6.242330190159040004e-01
-2.808733683386838327e-03
7.006073154094196731e-01
3.283141627328372558e-01
-7.261737072150878380e-02
-1.743684858349968114e-01
2.448639857742562591e-03
3.138022258815049148e-01
-1.852616350326722894e-01
-4.088194291290208060e-01
-6.932504269422773424e-01
5.113019379484461276e-05
2.869753748496586265e-01
-6.421011903817054611e-02
-1.568781115531369882e-02
-5.108576348061415889e-02
-1.490707124962424059e-03
-3.583231807939408348e-02
-1.638154349112167230e-01
-3.487092489608941137e-01
-1.683721662867679048e-01
3.035397548221935859e-01
4.758780723683826985e-01
1.504188489024085515e-02
-2.366890095118721338e-01
-7.315315923219524452e-02
4.409367916969107737e-02
6.979630973849251796e-02
-3.112528670334610559e-01
-5.641008992737915895e-01
-6.524610897382528973e-01
4.078222706442363177e-01
2.821566462528292130e-01
1.096633133941653931e-02
7.763127673361335315e-03
3.150954306161365265e-02
-7.620531454785489656e-02
-2.094583183137907201e-01
-3.990834371598527830e-01
2.124394517900674711e-02
1.098010514104648533e-01
2.191166896987825075e-01
4.606589274184231808e-01
1.183230784139987640e-01
-1.371620226031002865e-01
-1.731272692690013215e-01
2.125152738882213899e-01
4.463612890236193786e-01
1.822572256542816585e-02
-5.426566941741124417e-01
-4.313743952823523853e-01
6.719508347714893415e-02
2.126845068698807462e-01
-9.733586187537041079e-02
-3.895835988090410457e-02
1.281850787262859247e-03
-6.031955893454730988e-02
-3.573796544195302349e-01
-2.629783397361932784e-01
1.009310625369661540e-01
-1.011502303609165265e-01
1.201065696828844918e-02
-6.863718750583686773e-03
3.483982204018925555e-01
4.885729583998825176e-01
-1.806084501512515011e-02
2.528550416099698550e-01
4.367752197520123891e-01
2.408603751044757768e-02
-4.097227377088750733e-01
-3.791825536374483496e-01
-4.457450766122847963e-01
3.037616770877588079e-01
3.041496059034884056e-02
-2.245819990123068891e-02
3.935638192662794382e-02
-6.232902433537395454e-02
-2.105047928459236328e-01
-6.657559479279591408e-02
2.190617269466856379e-02
1.504983592874467591e-01
5.362735085310973981e-02
1.001053225882757303e-01
3.548374005340624304e-01
4.857234306861704098e-01
4.379421089288194069e-01
1.654636837808891869e-01
3.878043334001003428e-01
6.762533546996825351e-02
-2.515102067941162312e-01
-3.770579070248152309e-01
-1.840220067369418289e-01
1.785817942908602129e-01
3.353900681205455175e-02
3.306503487441839889e-02
-3.579626480940701488e-02
-6.724306431511807569e-02
-2.823617162628914712e-01
-1.706510863883098916e-01
-5.390414005246657592e-02
1.238371731398299619e-01
2.783760605683802680e-01
1.142405375959027747e-01
-4.897314597043668505e-02
2.788390130402985667e-01
6.797978271882965107e-01
2.003227360601930185e-01
-9.754310143562422430e-02
-3.934711516203115433e-01
-3.218942554152791069e-01
-3.781527963709351847e-01
-2.879389213396539304e-01
3.138944900964019125e-02
-3.270378140041435566e-02
1.080458598283413375e-02
3.646489343137872003e-03
-1.277760126130423647e-02
-2.782607437972817732e-01
-1.651512983129083401e-01
-2.608080379980412533e-01
3.163171567980503918e-01
3.942124195992857127e-01
-1.041721909217550868e-02
1.386987345501241031e-01
3.773569738331072898e-01
2.549890884025671212e-01
-2.331631801519302161e-01
-4.645828746523963382e-01
-4.424431225030899251e-01
-3.856384154585721369e-01
-4.432140511341114975e-01
-1.630202798036965162e-01
-1.263771164121285095e-01
-7.054858618418582972e-02
2.500120924714758358e-02
-4.899297477993603406e-02
-4.986675360227846299e-02
-3.168986955704582442e-01
-2.382155384042488333e-01
2.401280782857171114e-01
2.175529868530984012e-01
1.726816434496674102e-01
-3.516405652116347952e-02
-3.824577107075947079e-03
1.227439374332393446e-01
-3.016035846035350354e-01
-8.774956377184309209e-02
-1.248764894097867950e-01
-4.533309912102021638e-02
-1.738192641263316129e-01
-6.096168573504021776e-02
9.174731682194454951e-02
2.303251466969073388e-02
-4.922759680183296654e-02
-9.261527324682716777e-03
4.452112145643395691e-02
-3.145649378163899168e-02
-9.067276908989023443e-02
-4.215684791315894853e-02
3.407995033044374789e-01
4.607976207851652295e-02
9.107829916407488013e-02
1.111529666169609187e-01
-1.317456000155833862e-01
-1.094306906210425478e-01
-3.394943283615697860e-01
-1.906513654941129343e-01
-8.188070736567409913e-02
-2.183949128580016386e-01
-1.207650547545544573e-01
1.191929508426833456e-01
1.340861044430312343e-01
-2.355179844450589963e-02
-9.108608510968764505e-02
1.361829164703858876e-02
-3.957076594820066462e-02
1.569890352814352604e-03
-2.130002165183161877e-02
-7.961668689874551452e-03
5.408230812771588902e-02
1.000679058386223785e-01
3.598204046577491710e-01
3.540703737994732592e-01
9.183189219729116781e-02
-1.969233425098967927e-01
-2.463580698118410517e-01
-2.495732709275925720e-01
-5.419436155433079300e-02
-4.690658110429335448e-02
9.515204128924892313e-02
2.206972299275582750e-01
-2.886525361210952670e-03
4.184767913381416335e-03
-2.605208193930264125e-03
-4.977678031569708617e-02
2.371400574564364906e-03
-5.266093728255242384e-02
6.324911752476689020e-02
-3.574303838702426461e-02
-1.780622348739576144e-01
9.695181750749325145e-02
2.585246890415540677e-01
7.404319857198317367e-02
-7.237299747585929088e-02
-2.566225365332568953e-01
-1.476054264890130363e-01
-6.491114571983491732e-02
5.731117001030711089e-02
3.042146596215084681e-02
8.233995203488272963e-02
5.664766307614099022e-02
1.979816444110643354e-03
1.977070521022201641e-02
2.457411840270425432e-02
4.672014516565686781e-02
-3.534691104319952204e-02
3.755617874955598928e-02
-3.334936206251591477e-03
-2.585873849440276095e-02
-1.674464384301900810e-01
2.393614001526398957e-02
1.241091786395708968e-01
6.704852300990751801e-02
1.670941918231446874e-02
-3.023757842399903140e-02
-9.103597394372803242e-02
-1.164823648094050340e-01
3.305303286578402822e-03
-5.583813142644867417e-02
4.594276723999965450e-02
3.737038770337838822e-02
7.195126668829593744e-03
-2.648455377863314156e-02
-5.020284880607265438e-02
2.755351162338257401e-02
-3.986661780796473681e-02
-1.988750668621926815e-02
5.068202370576106730e-02
5.661676355608224326e-03
-8.525085533831953943e-02
-1.826127197867349547e-02
-2.859918420164067610e-02
-3.867534137886449730e-02
-2.444424127432374971e-02
5.415893089256046400e-02
4.794781702667851725e-02
-5.539485423965419958e-02
1.094422732481983981e-03
-4.268207533475149029e-03
5.225011801805908712e-02
4.728884000675070975e-02
4.900269217960838419e-02
7.792237888836798035e-03
3.538779131701697694e-02
-1.481765839889115713e-02
1.751700394581408478e-03
1.244838530383717695e-02
-3.090346565086104016e-02
-3.019294497023029822e-02
-2.543510863405499395e-02
9.259544049846010760e-03
2.442889571043021721e-02
-4.315760196353730926e-02
-3.428035595066544761e-02
-4.681958641651713660e-02
2.428510023246435376e-02
-1.280306451076447874e-02
-4.136539005051890344e-02
3.582118665204939850e-02
-4.220229692579340747e-02
4.614901528459113000e-02
-4.874343562070022201e-02
6.728041907115596756e-03
1.103011015816175895e-02
-3.607570321491419818e-02
2.215823502749295418e-02
-2.111921133697171674e-02
9.391776406815599554e-03
4.546666627197770011e-02
-1.286293161451837128e-03
1.608104544420061593e-02
4.068524275097051834e-02
2.666035142339907849e-02
4.456547350631050175e-02
-5.306101065810720635e-02
3.171161262319815294e-02
9.225330227141529879e-03
-2.151640236012016677e-02
2.277947045755856006e-02
-2.498353951131025014e-02
-7.409627988904116114e-02
1.900068965401473242e-02
2.071013018917341672e-02
7.093891752217669835e-03
1.257946956828896040e-02
-3.063357382368016649e-03
-4.384941367064568163e-02
3.805666222759627321e-02
8.547338953880233292e-03
-5.895313384672780724e-03
7.686380873956790219e-03
1.015378441127526149e-01
7.906099207079604618e-02
4.325527555897159399e-02
-2.636854570380730775e-02
4.658341383734788260e-02
-2.914644233296292096e-03
-2.621908469681580138e-03
1.095608565395945165e-02
-1.265850942911796451e-01
-6.995577311931731879e-02
-1.499865524647880878e-03
-1.566058922004323270e-02
7.208502100529104450e-03
1.282636644595755611e-02
-3.213669928167508377e-02
-1.777451629965441302e-02
3.962522388948822027e-02
3.546343521613083000e-02
7.199710354075031238e-02
1.397724096727013809e-01
2.027618258147755037e-01
1.777224746445693337e-01
9.866734676873435694e-02
6.413490086778245169e-02
-4.441533011210013759e-02
-3.606727609143638852e-03
1.609068794079775155e-02
7.995078112279008220e-02
-1.849511311972960783e-03
-2.022018035242596767e-02
-2.299924587569783518e-02
-1.115335576741171425e-02
-3.724625645619485809e-02
1.575886251896803023e-02
-3.737007492796947522e-02
-3.352488305750496445e-02
-3.832107651089711187e-02
2.575254709790827587e-02
9.996864118564909030e-02
1.619481528271226878e-01
7.995729140881019381e-02
4.034245895763943768e-02
-7.263384560402801060e-02
-1.564534252715839846e-01
-1.102166605070257072e-01
-9.688014109168933963e-02
1.194791721221224621e-03
3.117645842725957905e-01
3.254877145649205938e-01
1.254139473489713497e-01
3.300394421355437591e-02
1.035871577881085498e-01
3.959966218133106203e-02
3.215231862505867066e-02
-3.127904043264317924e-02
-3.800641018609605959e-02
-6.575225772025357351e-03
4.453899003231393677e-02
1.271711447617419055e-01
-6.642927293498762653e-02
7.037227015447948542e-02
1.202728922213591456e-01
1.378755406661716842e-03
-2.770388558391087552e-01
-1.502230383692831350e-01
1.122423203449878226e-01
1.994264398439256902e-01
4.701454837036989770e-02
2.171978906638181162e-01
7.328550472543685079e-02
-1.230649338385091524e-01
-4.123968949688711083e-02
1.726640396393000834e-02
2.030536181979150992e-02
-1.857964223788203389e-02
-3.624375719901894860e-02
-1.071687540353463870e-02
9.346390004593457812e-02
1.580433596803161589e-01
-1.617992737499389377e-01
-4.769037018239145886e-02
-1.660063752271609188e-03
-6.823901969721062055e-02
-2.071272426775209452e-01
-3.330108610629062531e-03
-3.178114973690438633e-02
-1.831449999018355257e-01
-1.087078924902216553e-01
1.954018414676350901e-01
7.973643275474416592e-02
-2.342642314565707498e-02
-4.387588217574079491e-02
-7.159931010583912847e-02
-4.951103981732607635e-03
-1.212915895853874243e-02
3.042950599050692206e-02
-5.510715789724136143e-02
1.891183917642542123e-01
1.945641095602099468e-01
-1.062448709337264208e-01
3.284578736661421250e-02
1.555644372807734044e-01
-1.569607151997093053e-01
-3.063032928687692280e-01
3.581274810323067243e-02
7.458366678432909458e-02
-3.225708335899528378e-02
-6.191238029086672950e-02
1.840975142861958347e-01
2.184195660677787920e-01
7.663134236253869858e-02
1.917104470584032883e-01
-1.427015015059128651e-02
1.596175353584642492e-02
-4.509634699427344379e-02
-1.828003930533945304e-02
4.500802433432754546e-02
1.680393541591793938e-01
5.318433837015538318e-02
-2.566276547263534602e-01
-2.814302070598119765e-01
-3.834979948255047288e-01
-1.302378633143932152e-01
-9.072956976240760529e-02
1.420231592189338532e-01
4.195392254877098881e-01
3.382627598414649772e-01
6.523004875273502590e-02
2.404912856466170368e-01
4.734742795612361110e-01
1.849262302385809298e-01
2.954535961457785964e-01
9.702490071553834805e-02
1.778766072395141645e-02
-1.955163356582447984e-02
8.106246490651466616e-03
-4.242082221811334375e-02
1.891494234791778542e-02
-1.288550840318050394e-01
-3.705752557624795718e-01
-3.795554340237485835e-01
-1.342796747052348028e-01
1.655403149758310766e-01
4.476835126460689263e-01
4.392608448312417257e-01
2.369513837420780533e-01
2.736858189059123148e-01
2.867597093550771636e-01
4.362786853384089669e-01
2.865512784159983117e-01
7.534173539786075124e-02
1.289004794730340131e-01
1.130008691116824726e-01
-5.195844539945215085e-02
1.028192348747795437e-03
-1.416284146030850032e-02
-2.565526099492768802e-02
-2.790934809322649923e-01
-2.412357134672013514e-01
-3.822034727564434520e-01
-4.270707932605365409e-01
2.609111094258095842e-01
6.112546225883354056e-01
3.592453095268869356e-01
2.979308825552833828e-01
2.058105294806494567e-01
1.221745251033630464e-01
-1.484422578983095840e-02
-9.445352408702956115e-02
-1.370556086486701963e-01
-1.897198853982209887e-01
-2.222680354038700234e-01
1.215000951052836071e-02
-3.487801891659481762e-02
2.579103192789811150e-02
-1.840909354808597728e-02
-1.029801961028771057e-01
-2.695597982015113803e-01
-1.942326208669835075e-01
-2.560345718473810428e-01
-2.210455633343970105e-01
5.865086283841938197e-01
7.296079965894405328e-01
-9.450128469842505874e-02
-3.232199830313620126e-02
-3.848428342942963876e-02
2.175941398736025989e-01
1.859821498971048204e-01
-1.646004500012890615e-01
-3.109719083411411900e-01
-3.293091556146924281e-01
-1.892587674190786273e-01
3.693118774320033187e-02
-2.735230346603961457e-02
6.752968517517400626e-02
5.822039029822181216e-02
-1.069536218914316633e-01
-1.991858661533492392e-01
-6.311162601005816664e-02
5.176292364289968723e-02
1.667394084332763093e-01
8.264757735822580997e-01
7.172855137516580548e-01
-2.751257402425253545e-02
2.482501210372417208e-02
-1.943608236190826066e-02
1.962706663470389079e-01
1.244771878145928407e-01
-4.153601480832107007e-01
-3.630089752168638717e-01
-8.229477801154166938e-02
-7.267525946923625302e-02
4.798586172010339129e-02
5.776657178683138744e-03
-1.034689451397253004e-02
-4.072508695271132018e-02
-1.947094078415717230e-02
-2.857203406996864925e-01
-1.480205572884063792e-01
-1.689713395960595541e-02
2.581608780676954984e-01
5.384268386491484204e-01
5.244155145129465456e-01
1.871400938381833079e-01
-3.171421393433913882e-02
1.338324721763860803e-01
4.801100736398139501e-02
-5.260313024647071678e-02
-2.609783085882197984e-01
-2.403900010844707835e-01
-2.890334085091738614e-01
1.368124443311187662e-02
8.684130325486706659e-02
7.947723792128612297e-02
3.330890972114816662e-02
2.129631547607174769e-02
3.004237114067854000e-03
-2.043120953476963431e-01
-2.407072931195849697e-01
6.495044668654406661e-02
5.172855720870097457e-02
4.186611419538673884e-01
7.025876722203669988e-01
2.675796647308679166e-01
-3.001731906791918481e-01
-3.543448937299965573e-01
-1.711056964597981456e-01
-2.951486824234491116e-02
-1.817727570645507051e-01
-2.221480923697173593e-01
-1.034186265695764134e-01
-5.646599847296748104e-02
3.725259053679185958e-03
6.449942977210665861e-03
1.321182182244977181e-02
-3.482168869465496197e-02
-3.980765143413751012e-02
-2.301271659869346536e-02
-7.013748822820221884e-02
-1.355375183023908685e-02
2.452041471229314106e-03
4.664885739055633085e-01
8.015572556632174495e-01
2.481239034726414883e-01
-1.813448947726308269e-01
-2.766132153697982154e-01
-7.366649980976031076e-02
1.922594264387898211e-01
1.287898448747679461e-02
-9.334210356813756049e-02
8.433565675166275477e-02
-3.132922100143591820e-02
1.945053175766580083e-03
6.433381562126309905e-02
2.594733917278398486e-02
-1.547916582876963931e-02
1.469722199595745356e-02
2.644580124948412922e-02
-1.449203336604643899e-01
-6.582170427704257809e-02
2.079911705895587104e-01
5.118523972208363082e-01
5.598862315361181619e-01
3.350827551016507533e-01
1.572554715329041175e-01
1.192496671766598848e-01
6.596642814101323637e-02
-1.963948421124602980e-02
-3.291050467900663579e-01
-2.490125269607925962e-01
-1.728226438637446849e-01
-1.387127568647817111e-01
1.290339209436820213e-02
-1.109825786172956123e-02
5.188597768784775771e-02
-4.614163467576782446e-02
-2.375266453398227132e-02
-3.993653002418724729e-02
-6.974768776479949028e-02
-1.275016106207492450e-01
-1.509885327689046985e-01
8.833917703281640721e-02
2.311314512248893727e-01
1.309965210261524182e-01
1.146574786826078662e-01
7.194666749246687865e-02
-4.948078343565638637e-02
-8.061223410505007070e-02
-2.109793508932812367e-01
-2.146946619935574396e-01
-1.502160933599868409e-01
1.073235611570376447e-02
4.389829696679604931e-02
2.383597267090096020e-02
-2.466025356060568777e-03
1.431861313631380833e-02
-5.017344188964981827e-02
3.982354840814271435e-02
-6.916956433480024591e-03
-6.996969284942670952e-02
-4.788557610959982141e-02
-1.037339595608007814e-01
-6.451698120591314346e-03
3.094519694847489445e-03
6.168562784760295292e-02
5.099902136892493776e-02
1.397196862761293235e-01
4.516251474818371026e-02
-3.617665454955562576e-02
-1.227213869189773196e-02
5.017812405938749248e-02
1.495908997559073110e-03
1.146731646717506162e-03
-2.954763721187075864e-02
-1.481403879367836074e-02
6.093182478697382887e-03
-2.754958303036243727e-02
2.630347207890194536e-02
-4.265739294928922593e-02
1.536887275713547454e-02
3.949008032158416587e-02
-2.197365568215532521e-03
-3.921914770190403771e-02
-3.341808027843314044e-02
3.456535106037558758e-02
1.129820659203888134e-02
-1.246006341159399192e-02
1.923278228623572644e-02
-4.726563076514398581e-02
3.208921590983285915e-02
-1.511348247180553141e-02
4.457692612269899268e-02
4.870009550400483667e-02
1.017521663803538923e-02
1.972863830921414360e-02
-1.739985365635841885e-01
8.682297860512175683e-03
2.519792942226993168e-02
4.414336252006179073e-02
4.888743347290844254e-02
4.084815861451855656e-02
-3.534744024839861498e-02
3.208320229123492323e-02
-2.090366095844503960e-02
-5.002818614343044340e-02
-1.420685608776839359e-02
1.541969560517437998e-02
3.867304500304087015e-03
-1.968804631938503649e-02
-4.256966038703178384e-02
-4.367955055597270986e-02
4.690548839892016292e-02
-4.760965522752217544e-02
2.046565342143080377e-02
2.734485818096995050e-02
2.837732876270654750e-02
4.421622607337199334e-02
-2.060751132385143028e-02
-1.794574880405180525e-02
-2.437839247529051748e-02
3.033520981250694033e-03
-2.617668365718714418e-02
-2.945048046082631918e-02
-5.328938644750993991e-02
-4.798685957878263270e-02
1.438118761977468830e-02
2.906119459734065116e-02
-1.106578037579665280e-03
-3.060731740175796564e-02
-1.002760602374204967e-02
1.265249797365554200e-02
-2.908383011186604916e-02
1.261728674961442621e-02
5.503360066828176349e-03
2.900245632159565920e-02
5.247390879720734841e-02
4.988074385719930975e-02
-3.723071118568876958e-02
-2.727377219751696280e-02
8.512268021858209605e-03
9.322325346023726395e-03
3.038522611787350391e-02
-1.126497731881897710e-02
1.421672471166648619e-02
-1.048876423638094857e-01
-6.306732973462166048e-02
-3.748307658624796396e-02
-1.182472096575113048e-02
7.898501836275106935e-02
1.257526841936463247e-01
4.175698107032280865e-02
5.902049349829899261e-02
3.548479090730401186e-02
1.056430005524298804e-01
-2.685801403297066042e-02
4.197365160083396662e-02
3.302341338729902070e-02
3.967375094720938800e-02
2.217133827077794744e-02
-5.274299220517447706e-02
-2.618745642814940960e-02
-4.413107624936044027e-02
-2.539411473067482161e-02
-2.305986051383338703e-02
-7.083124109315291905e-02
-7.993408020470421649e-02
-6.133357778960792095e-02
-1.060213918920106801e-01
-6.904549484052394104e-02
5.821732783518134696e-02
7.702324555872022693e-02
7.264739313373375085e-02
1.142680303618411886e-01
1.818822130812373927e-01
-2.700259288599614338e-02
3.692196225807209409e-02
-4.426096326692537108e-02
-2.759200384801404823e-02
3.160436757432310423e-02
-2.169962862471860529e-03
-3.926497249740746459e-02
-9.338814909285528265e-02
2.255610434025979300e-02
-4.842996962258232924e-02
-1.684210306169882376e-02
-3.249149073734332316e-02
-1.453811211510584178e-01
-2.160270564839059937e-01
-3.479894829137356038e-01
-5.401842856294201273e-02
1.523147151670628252e-01
-8.645556293232607714e-02
2.409601797352834904e-02
1.452829216522940614e-01
7.740498366097123273e-02
-3.549214175291896117e-02
-3.247804940913201488e-02
-4.638138549761599422e-02
3.061675478622907787e-02
-3.229034595704523281e-02
-6.526366234047450976e-02
-1.518329647892943668e-01
-3.752069789099625463e-02
-1.242218097047610888e-02
-1.293130764925232157e-01
-4.136926677440904560e-02
-2.051654271387182982e-01
-3.270225018723655896e-01
-2.287890291899553619e-01
-1.245996565989696547e-01
1.544631742012232689e-01
-5.451966758167995503e-02
-9.465499700914652148e-02
1.730412042559446584e-01
5.934242760412251905e-02
-3.038898852185064475e-02
-2.767672923550397110e-02
1.527606614519779610e-02
-7.003305701432124657e-04
-5.393960240598288242e-02
-5.953565856589449617e-02
-2.521766414616308238e-02
-3.200204994864940672e-02
-1.381201615404782368e-01
-1.359411583993276051e-01
-8.206742735164147817e-02
-6.288071249757126724e-02
-8.555048797008139860e-02
-1.742712625438566920e-01
-1.836953549191117918e-01
-2.669776672741585796e-02
1.129812315722451416e-01
2.279914557645825179e-01
1.251755868387261494e-01
1.576474796778708221e-02
-2.002628614663661336e-03
3.408204256027157902e-02
-3.111870890879575927e-04
-9.858544799918673301e-03
-1.134978680280861602e-01
1.010844077113321471e-01
-9.270246775540923190e-02
-1.797153678985396741e-01
-2.857220017706679771e-01
-1.797237267214352729e-01
4.690965785692110396e-02
1.260245003272465192e-01
-3.332881566794613191e-03
-3.211583260192342193e-01
-2.345783711641949987e-01
-1.993573244051736748e-01
4.796141196532996420e-02
2.258185436570888383e-01
9.987222574233949046e-02
3.216265355328245396e-02
4.475349179541400491e-02
2.958294863485464235e-02
-4.821740816444740341e-02
-1.022093390175822930e-01
-4.019925428700787950e-02
-5.011533854430959278e-02
-1.815036988142329499e-01
-2.676970508528092041e-01
-4.009033588389148139e-01
9.534885117444971692e-02
2.478297657393534748e-01
9.345787948313845350e-02
4.214241484330301379e-02
-1.147848366697448025e-01
-1.094339211921820099e-02
-1.533434884814160459e-01
-1.742117641047100651e-01
-5.797829016027373009e-03
-6.241897444504976300e-02
-3.049917033363012259e-02
1.081424687901744001e-02
-2.537980202453074541e-02
-2.260122072436426821e-02
-1.446098828876728887e-02
5.538911937290020432e-02
-3.574258467326855981e-02
-1.686144729134424203e-01
-1.986258649584772551e-01
-1.859702089996850272e-01
1.787770972720432450e-01
2.485768490328069957e-01
2.535032670426824036e-02
-3.055423757831140716e-02
-5.583184676318561634e-02
3.626352693837754659e-02
-7.150839265721545268e-02
-2.031491423073045754e-01
-3.976188393169814705e-02
5.200896600304710793e-02
-2.159424939765348592e-02
-2.218334146118340275e-02
1.436181315931455219e-02
-4.198554394305249043e-02
3.661837964488365293e-02
5.580892130206760449e-02
-1.358153829897837950e-01
-4.994261213653364978e-02
-1.471694825234580450e-01
3.670516374163735988e-03
1.171537326602888479e-01
6.354858247851381814e-02
-5.960188883871582466e-02
-4.669842515193909499e-02
-1.527380728284722655e-01
-1.096167231075884660e-03
5.341028010200740694e-02
-1.174331370123578994e-01
-4.162683305969291925e-03
-9.280185708345936590e-02
-3.222707186700056459e-02
-6.543718695862785206e-02
-1.931285114154155866e-02
-2.922358673974992729e-02
-3.581101805719773181e-03
9.010223086588270425e-02
-4.895581829843943800e-02
6.900645307717321632e-03
2.083834088440194299e-01
2.360504419417015082e-02
-2.970026830049856542e-02
2.199225191248471017e-02
5.294794336994233797e-02
1.050987595571888089e-01
2.059209829180429496e-01
1.438096723514169506e-01
4.298081362024811641e-02
-8.750312242265016749e-02
-4.790749480357398699e-02
-1.218725907353759436e-01
-8.139811292129141285e-02
3.375333167624881836e-02
-1.671521345501330441e-02
1.914342548203960132e-02
1.237126838688788893e-01
9.396980266218989131e-02
6.850938518308910541e-02
1.444810621767445846e-01
4.631368519006557466e-02
2.649894990927918054e-02
1.018874248580552977e-01
1.025626676336044429e-01
-8.641611020455315650e-02
5.703100071704339524e-02
1.830004497350776471e-01
2.981177359250801809e-02
-1.019709678125619162e-01
5.249415765883573559e-02
-3.248941985958957862e-02
5.664998193666591526e-03
-7.845838649579428559e-02
-2.574764137132519795e-02
-2.313440080066356958e-02
-3.346099611067360202e-02
6.774786159112880513e-02
1.041450731273582536e-01
1.008417651243499885e-01
9.146783026991307797e-02
-6.052115422872086231e-02
-1.193989516476894226e-02
-6.637747563763354841e-02
-7.534946598648267768e-02
-1.317677937048999104e-01
-1.063899914879270769e-01
7.912036576743425309e-02
-1.089926525218770648e-02
-1.235592598255662866e-01
-6.191586347994265660e-02
-1.064462459836765934e-02
8.954075154768501021e-02
6.445075098867669716e-02
-4.397955194701098913e-02
4.082363495815899412e-02
5.024100296527026117e-03
6.017619739228022638e-03
-2.704744875463534204e-02
6.052645257701836506e-02
4.563319788916649078e-02
9.666656418701234307e-03
-7.066735836448395647e-02
-1.852847189106265058e-01
-1.810428898733006386e-01
-9.585117425913247668e-02
-1.624740425891681994e-01
-1.187396593246439341e-01
-4.349659007344022082e-02
-2.010678367313448456e-01
-1.875618038532538001e-01
-7.196114277765991440e-02
-2.620910619578402379e-02
-1.792110672893085926e-02
-2.145387645250249400e-02
4.291887781122833562e-02
4.141485543636511113e-02
-4.081112690284753597e-02
-3.995665843688938484e-02
-6.956860182279960003e-02
-3.099109218499186691e-02
-9.616984322441320468e-03
-1.432817398811560110e-02
-1.486354310754206820e-01
-1.168830917287032589e-01
-4.037297150990196148e-02
-9.203203994286444922e-02
-1.502287707034239694e-01
-1.999488669664271079e-01
-1.471258318796973830e-01
-1.336293187336092814e-01
-9.538364002561854071e-02
-2.515643887957593611e-02
8.333984170775880426e-03
-4.301442705920972137e-02
-4.151486126896619666e-02
-2.242579613700544563e-03
-4.083579557106722935e-02
6.573073975916782739e-03
-3.639783791320527762e-02
-3.876929296799438984e-02
-7.299092057639458564e-02
4.415723477694192232e-03
-5.206734796415601885e-02
-4.738049023450135316e-02
-9.436399157335402521e-02
-4.971310918669721510e-03
-1.272798029484175086e-01
-1.333619561408826149e-01
-1.585545708536359177e-01
-3.630520558922321894e-02
-6.716276845495067205e-02
4.762989127678277090e-02
6.283165678452462544e-02
-5.689739278356938101e-02
4.305535667140254763e-02
-6.098731128285636051e-03
3.022341981031454253e-02
5.773404223832003489e-03
2.064126620700443629e-02
-5.277394814117692540e-02
-1.104643592262235102e-01
-5.724171085893790117e-02
-8.052171675498254189e-02
-1.894646954764545380e-02
-1.364031251392780822e-02
-2.223670400802146493e-02
-1.217601262608085794e-01
-1.395495677398767009e-01
-3.344325068963066583e-02
-8.028153516331026918e-02
4.584525520650273647e-03
-1.768491488449876756e-03
2.202378291108194903e-03
4.523976603253766771e-02
2.313139665160212841e-02
-2.140135519465629407e-03
4.519225436892301828e-02
7.236301622794255942e-03
3.661217952380862138e-03
3.665438844067838570e-02
3.447942591954478858e-02
4.400659041858633741e-02
2.287447498335066359e-02
7.542009940134082255e-03
3.443459855475917292e-02
-5.317631857772527754e-02
-8.619159101337328655e-03
2.506020389900497428e-02
3.823554504419948014e-02
-1.113956052514024700e-02
-1.925173196721141839e-03
2.884913262512813978e-02
-4.828855655980031358e-02
3.318132181321052643e-02
4.191872800053204895e-02
1.456280430193487938e-03
-3.248297961041501231e-02
4.009951822453407949e-02
4.618610829092856945e-02
1.155566508801819919e-03
2.055126943190813474e-02
1.115918310698586031e-03
1.176407727721618356e-02
-8.974381974062457454e-03
2.521980516546559054e-02
4.868044133995231421e-02
-9.643010665360281231e-03
4.911053137852579298e-02
-5.141703148988990141e-02
-1.820245220277357315e-02
-2.069528758311195427e-02
-7.692710899058815416e-03
-2.356958473033294449e-02
-2.349459296566702368e-02
-2.306193164997502598e-01
-2.264538657704106856e-03
5.531077204134317651e-03
-4.268386690809900658e-02
9.817989037618424925e-03
-5.345571085398210381e-02
3.988499389812317358e-02
-1.685489756186404897e-02
2.733014266588837393e-02
5.312163188976355699e-02
1.022277911614307214e-02
3.295703767195209272e-02
-2.223386058078241287e-02
-1.341777503344883295e-03
-3.315702828646476669e-02
-2.043267130160408146e-02
-8.967603433525754564e-03
3.836497531163914759e-02
-3.752505230073844428e-02
9.431597127539163156e-03
-1.992889555819099545e-02
-5.195778407721685088e-02
-2.019742623871824752e-02
1.797743715341041174e-02
1.949844180796589388e-02
1.038315991126559021e-02
-3.188020940487845678e-02
-3.038112940624165120e-02
4.661331489954889662e-02
-3.984748131951923455e-02
4.932124937366041267e-02
5.099469545035925644e-02
8.468036274540865702e-03
1.093275585023167039e-02
4.083346475106430090e-02
3.941841525072498076e-02
-3.371216368867354513e-02
-5.342931933111218917e-03
2.196398054216452955e-02
3.028590565753439337e-02
3.683478308552031594e-03
-5.630685366819156504e-03
9.464328162469884051e-03
2.345357103628209830e-02
-8.884619929253921924e-03
-1.009394915364332512e-02
1.268480015801606506e-02
1.189321861399338966e-02
7.746754427908258966e-02
7.415226700849496255e-02
-1.685072489435557666e-02
-6.155853686945567810e-02
-5.569850107539123935e-02
-2.742648232993112611e-02
-1.618240646469487620e-02
-1.860929854128450314e-02
-4.334511653337139864e-02
4.188513793577203909e-02
3.051116176957444429e-02
-2.711074063456631392e-02
-1.598422974030717578e-02
2.976739849234812194e-03
-4.469927229709119015e-02
-1.467145398368473533e-02
-8.435172508819043652e-03
1.480798365306336753e-02
-9.167406240768503564e-03
2.367277847800170268e-02
3.111493377344324435e-02
7.949115462935457677e-02
1.132197707235090001e-01
3.918833876614147976e-02
-3.641709972919173616e-02
-5.067787935705566488e-02
-7.611994460942904384e-02
-1.201879179021149435e-01
-6.583929412243308410e-02
-9.457201210921885315e-02
-3.392307743348576404e-02
1.191464403198407365e-02
-3.655697786986724512e-02
-2.463742230301043962e-03
4.184479804603659370e-02
5.404980411978446003e-02
1.797175276049389411e-02
9.772609008319617374e-02
1.623018375180847184e-02
-1.881675049488195153e-02
8.146814560345257139e-02
7.257432518835295332e-02
2.966709660645782537e-02
-2.776478901886706221e-02
-2.406481004668533166e-02
-1.815754728840156540e-01
-3.977675191621465323e-01
-1.976482233119160048e-01
-5.732730107568412628e-03
-1.128404205148813844e-01
-6.523292420750786968e-02
4.557403961932422060e-02
4.909190017990757576e-02
6.680161837567294598e-03
2.786178561300148640e-02
3.839954419724905116e-02
2.785194736990562279e-03
7.212815020794351162e-02
-3.228334957185717558e-02
-8.444090546194983615e-02
-6.357433243313018179e-02
1.005817391112173720e-01
-5.942668194643835680e-03
-1.061346825878267813e-01
-1.536926308576366806e-01
-1.028306140096600929e-01
-3.883738812360216230e-01
-3.018285289082771605e-01
8.296288557279980769e-02
-7.699859907480466337e-02
-1.673010347096442196e-01
-2.109069634346161584e-02
-2.401945895692191024e-02
3.515969377504763599e-02
-1.198067003487312057e-02
-3.056496463156348209e-02
6.903645112629505642e-02
4.043243120524881579e-02
-8.956776427763273041e-02
-4.730987599209137556e-02
5.143613536410283904e-02
3.177399928392233841e-01
1.050219419098150087e-01
8.548366262698751938e-02
4.648451507172841890e-02
2.056719887807312575e-01
1.044280349586114015e-01
-1.879015633306072713e-02
5.083509056622030620e-02
-1.574583554144073361e-01
-1.067087413580939531e-01
3.605397085291229403e-02
5.130546813835410586e-02
-1.992569343366783208e-02
-1.294491801917701558e-02
6.436940621913830700e-03
6.126850967989855290e-02
-2.299734247791298744e-02
-2.487345428721343121e-01
1.806455751107830313e-02
1.530697280320557074e-01
1.614499625609652211e-01
1.059625968237735104e-02
-1.181802535610178423e-01
-1.612007185639219020e-01
-9.247108205810883330e-02
2.013652951227898336e-01
1.001257155702494905e-01
-1.169185485979628708e-01
-1.489559962643118574e-01
-5.002379475367255135e-02
-6.674724715332339131e-02
2.170889439423039774e-02
-2.784558769724677918e-02
-2.058496458071848445e-02
-6.133625715062040150e-03
7.247413576635399445e-04
-3.090119644369416774e-01
-2.947301157214667899e-01
-1.745002841832667129e-02
1.350822487664153082e-01
9.519634604629689800e-02
-1.255387199899613004e-02
-1.513945515800549646e-01
-1.353606144935037836e-01
-9.507049708218724693e-02
4.845689742190685545e-02
7.720485978012700534e-02
-9.884249838643142938e-02
-8.592189667756400251e-02
-4.299804396864544825e-02
-1.231992196508240323e-01
1.641079401053249787e-02
5.508243809839489386e-02
2.653123863442263461e-02
5.547965319959222846e-02
-1.391320345146688231e-01
-1.942335049804417846e-01
-3.234804168822033033e-01
-5.694341788367952156e-02
1.459006575132315853e-01
2.257682375369441941e-01
7.787220035305196519e-02
-4.567880050774674600e-02
-2.624747575154910348e-02
8.835977431624567058e-02
5.793717073998877476e-02
9.133159300121128366e-02
-1.997496828639748825e-02
-5.969457356921564761e-02
-3.889892682609565923e-03
-6.459019477475781701e-02
6.530571849793512240e-02
3.677671697212760160e-02
3.311356887098315660e-02
1.697170537340865482e-01
-8.330760465692120531e-02
-2.191456919123998259e-01
-1.437843302516852995e-01
-2.627159779390335695e-02
3.208602372889615695e-02
1.401720205656983298e-01
3.202185524966970620e-01
2.427832857501350250e-01
1.166553218284045873e-01
-6.264098784610672155e-02
-3.387317307317252307e-02
1.542998451672908944e-01
1.170742056537485698e-01
4.302571572274978967e-02
-2.537168438604587434e-02
-6.904067716699202606e-02
2.288323652833065477e-02
-2.251103619526099650e-02
2.079376162288028643e-02
1.689518927444009500e-01
9.035369341805585264e-02
-1.742895166795559170e-01
-1.938564273978918007e-01
5.385874409121273881e-02
-9.505977355235155357e-02
-8.156115721947189423e-02
1.896627363940577571e-01
-3.395749283031412099e-03
-8.521592441797401496e-02
-8.713769818326470851e-02
-3.665070018704378457e-02
2.246696373141454650e-01
2.980631052749953547e-01
2.701896055364014781e-01
4.878888482172826467e-03
-4.947062467399558627e-02
3.626250462387325957e-02
-4.569100755465726332e-02
4.275762415380571918e-02
1.252985311100012489e-01
-1.481036477534672102e-01
-1.386076675955977833e-01
-2.215688051594845442e-01
-1.825204464549726735e-01
-2.237658514980031821e-01
-1.065752990224190927e-01
-1.718215697619805138e-01
-1.755458674502928806e-01
9.308481943284275736e-03
-1.097101904878341472e-01
1.694975130706715891e-02
2.071712040504234964e-01
1.444393346442722770e-01
8.533008863065119631e-02
5.217613324375535572e-02
2.182393528881309760e-02
-6.908153180270149712e-03
4.475660051525655325e-02
6.396228322859087712e-02
2.532856611118177725e-01
1.354929080478466386e-01
-1.180731436387167516e-02
-5.025253299164267329e-02
-2.946488339279429436e-01
-2.084960748023351740e-01
5.234827711636080155e-02
-5.989367883248172125e-02
-1.831939675536807810e-01
-5.357318851337317285e-04
-3.761015271137689575e-02
1.509710528625677894e-01
2.237109262253420272e-01
5.575822957225167603e-02
-7.616726039961020656e-02
-9.499295690134076930e-02
2.778397340985910673e-03
-2.582557545729122564e-02
4.017197521174405150e-02
9.158189643628650289e-02
1.707866381300259251e-01
1.291144507327608437e-01
-5.341639986551901392e-02
-2.158482264653489857e-01
-1.523420555299540569e-01
-3.323135672639300486e-02
-3.076396194269634052e-02
-1.137210353652574751e-01
-3.699135858415852213e-02
-4.801142468978836925e-02
1.201992730017530653e-01
2.315429994741583231e-01
5.268887837064235163e-02
-8.658324681000899303e-02
-8.765753941199000421e-02
-1.556350170837323410e-01
-1.297213642854273125e-02
-2.212476210637186191e-02
-1.115891585009733990e-02
-1.911258039478268625e-02
8.098206048402321888e-02
4.231253955845491049e-02
-3.547988605762514291e-02
-1.867073183505177716e-02
-2.482646386633846902e-01
-1.907234892567164497e-01
-7.888477403724881987e-02
-1.071528058286861686e-02
-1.873600712088478726e-02
-2.267399088413231747e-02
-4.825016457421021920e-02
3.137948284300978719e-02
5.193032137867559933e-02
-1.286314683484644505e-01
-1.289914001909198971e-01
-6.671633876041038747e-02
-9.342548708609382108e-03
1.801494176149882540e-02
2.024660623310536867e-02
-7.550132635944569771e-03
-7.392020280357709805e-02
-7.103563363338264445e-04
6.136739844591109633e-02
-7.169566276829922313e-03
-1.857411589070735725e-02
-2.657812877168246393e-02
5.597056446607853730e-02
3.749235296349161944e-02
4.543102858020852536e-02
-3.770794862114462340e-03
-1.755311980520741777e-01
6.423382125837109879e-02
3.982068841521956004e-02
-1.363894117230946279e-01
-5.023686658523175697e-02
-1.950036386166086738e-02
-3.635119049759831522e-02
2.977631914846057617e-02
3.022876095428771864e-02
9.618862567903717700e-03
-8.850857194715659737e-02
-4.307684372844387821e-02
1.448302184097683548e-02
-4.418435285970056386e-02
-1.243376820819555445e-01
-5.210067209982341407e-02
3.839850520721813099e-02
6.544872731500168787e-03
2.324714083380995805e-02
-8.140438545747814836e-02
-1.513448885968536328e-01
5.843091705663637503e-02
8.213377489527630415e-02
4.856423236673131083e-02
-1.588262636994164020e-02
-2.350050170426945528e-02
-2.098121745058818474e-02
1.799358492148630737e-02
3.586774835345051676e-02
2.566156700042852151e-02
3.014489581117769240e-02
-5.845306456653630300e-02
8.464112481984673031e-02
-5.013376199404450534e-02
-7.036445979319533306e-02
-2.717206088859126095e-02
-1.265236924500377225e-01
-8.790754959655080678e-03
-2.257629717488925103e-02
-3.589575934909579324e-02
-6.307750888011842694e-02
-3.028960321876995876e-02
2.028689969462188838e-02
5.642895485324066207e-02
3.883993991640679461e-02
-5.060737618524367709e-02
-3.259692888405923278e-02
-5.133065826669063608e-02
-1.619071128895566841e-02
4.027093486213961099e-02
2.147435369455875584e-02
-4.483841684565365027e-02
7.619255693616606984e-02
7.975289771346050216e-02
1.894408972584415984e-02
-4.544129193672431788e-02
1.065284825713511130e-02
-5.102748984223982529e-03
-4.036821717970599105e-02
1.529472746848598193e-02
-5.734669842761891401e-02
-2.165919618575757807e-02
6.114158593356863389e-03
1.953687408864809849e-02
2.766888998151113832e-02
-4.813260730202147120e-02
3.523386754082090400e-02
1.403280971920298562e-02
-4.221918019980311909e-01
9.941314219725909049e-03
5.071225923057758739e-02
-5.067473097590810549e-02
-1.009536774258374542e-02
-4.781569951736175383e-02
-2.765935795023141686e-02
4.816945589172499237e-02
3.772018693243154447e-02
3.296400403966987663e-02
1.562543052260473297e-02
-1.447543789774320515e-02
-8.366981728913690589e-03
-4.192257373635273343e-02
5.336483877531861264e-02
2.023228384781264669e-02
4.977303267644966889e-02
4.352298967316953898e-02
-4.103982298949035434e-02
-6.944336424944846410e-03
3.453200831283943090e-02
-1.849482088372732605e-02
2.731351456039462014e-02
-3.604319201241538290e-02
-4.255748893129460836e-02
2.373549823429509792e-02
2.976096031993187216e-02
-3.212371586550021030e-02
4.731456467847704878e-02
1.004645402441011783e-02
1.666759748821924902e-02
-3.430153685743288910e-02
3.058659962805678617e-02
-1.947292963657095560e-02
5.795401493477399940e-02
5.685608180795333330e-04
-3.094947820685665235e-02
-4.720581735589162581e-02
4.461971741823678173e-02
2.086012478933255143e-02
-4.540007919473015852e-02
4.611521494480652628e-02
3.729777667514668632e-02
-8.926953407765602158e-03
1.817349271499197824e-02
-3.563092701221264036e-02
-7.905006137827765011e-02
3.637070560981593009e-02
4.189012785142066583e-03
5.842381557041020912e-02
9.556672223417125292e-04
1.283309130787803603e-03
3.253082975761458634e-02
-6.432594905831097443e-03
-7.169850366290458910e-02
-8.524312119925303577e-02
-6.362268203211032813e-02
-2.809319603522587167e-02
-4.440261018881062893e-02
-2.626250828171036028e-02
4.696810933331059534e-02
-2.943186325995427594e-02
1.806159878927604198e-02
4.666776356520919988e-02
-6.101368542422866414e-02
-7.729406690424577009e-02
-6.183244792859565048e-02
-2.080125739935199253e-02
-4.913013866403194430e-02
1.152675343598675572e-01
1.232055915479906560e-01
1.215628131510338300e-01
2.438821087711310134e-02
-6.521168556066520017e-02
-2.560976563103105064e-01
-3.205836296793742601e-01
-1.547430096160237745e-01
-1.690198638314797386e-01
-7.084586142090326666e-02
6.933568369355392171e-04
-1.712918871393387388e-02
4.769512808077451538e-02
1.372574818506199640e-02
3.435183612653729124e-02
-7.794933918812711748e-02
-1.437269960257225865e-01
-1.066774166330695800e-01
-1.835413722877786424e-01
-3.201486041103220048e-02
3.042294120494321019e-01
2.800155707561757801e-01
2.286723608257268670e-01
1.915059456780215108e-01
2.317536502860218298e-02
-1.195442398871829626e-01
-3.561804133621548352e-01
-1.746471298400619487e-01
1.778678392828901209e-02
1.128396315089800483e-01
3.671903457793772307e-02
-2.495318613716922956e-02
4.219496266160251141e-02
2.479631621145269790e-02
-5.982676014439788220e-02
-1.419445426754653294e-01
-1.526008306847129181e-01
1.549389816295476154e-02
9.687425955887887796e-02
2.130288202489467320e-01
4.306152944183010978e-01
2.260689910559755544e-01
1.127181962328658443e-01
1.745483525067292041e-01
-9.668950346414030561e-02
-4.410959269928790838e-02
-1.555093790684482224e-01
-2.017166887518088703e-01
-6.696322463274949344e-02
1.710493734281697542e-01
1.189025736446992776e-01
7.555121650866536420e-02
2.972419237295595776e-02
3.665020046188469799e-02
-1.019338494022170860e-01
-1.097760825018091191e-01
-1.424090279523328728e-01
-3.904957323939546587e-02
9.934504030178308021e-02
2.299674503951518456e-01
3.654087711052182441e-01
1.057217744514557106e-01
-1.514208261166039293e-01
-1.004153783568403346e-01
-8.255618276352548468e-02
-2.304556545644275145e-01
-2.554905483431887392e-01
-1.633362499933835865e-01
-2.936285612317179189e-02
4.681064788048685393e-02
2.123198593820616736e-02
7.843739110725572066e-05
-8.463643219534890128e-03
2.910455139718523543e-02
-1.432728209931629637e-01
-1.576283532493603923e-01
-4.943117976774894645e-02
8.236788378391793342e-02
8.447128912128006040e-02
2.770045520074681522e-01
4.086713973897065921e-01
3.928149417615264261e-01
1.910839928533808740e-01
9.404477598757973733e-02
1.243752224083963243e-01
-1.714158474166864454e-01
-2.720258352445552655e-02
-8.934516750362157811e-02
-1.288740424809843299e-01
1.042723592539379074e-01
2.616195856258778443e-02
9.434647777857366191e-03
-4.483454720832341645e-02
-1.253400365755080910e-02
-2.400195500695944673e-01
-1.474849044150721711e-01
6.050907863370062062e-02
5.437045827882693722e-02
1.043366358387129988e-01
3.663791467874054075e-01
3.872161046816887664e-01
1.688794459589943453e-01
6.153588960805141117e-02
-1.099935310238704805e-01
-1.419094110641314424e-02
4.581134013459720045e-03
8.654497977598925307e-02
3.745263726992350412e-02
2.051976346261543960e-01
2.170032839720272277e-01
5.437913505915074885e-02
-3.054888312817236745e-02
4.902394588228746464e-02
2.290970451823367074e-02
-3.826187104748837164e-01
-3.200026813617855570e-01
1.857845064839517835e-01
1.420446561343914338e-01
-1.332517631158426918e-01
3.124763937662525248e-01
5.665935548251246900e-02
-1.990645685734744041e-01
-2.738975175747089819e-01
-6.219866309084914890e-01
-1.763824933199840128e-01
-1.769567628325882935e-01
-1.528720922318606290e-01
1.634406764815580712e-02
3.607320955861940126e-01
-1.108053519776836145e-02
-1.335153545211686665e-01
1.953013220803112918e-02
3.436987960254466595e-02
-6.658524977056384797e-02
-2.248046899982185931e-01
-5.399146459354221134e-02
2.171362111773866566e-01
-2.444216033012875516e-02
3.648149919849325885e-03
-1.571646196058562595e-01
-2.506201244597329181e-01
-3.813019150870683438e-01
-7.299474556712299833e-01
-6.698649050665741456e-01
1.987191327836009269e-01
-8.826471628509713341e-02
-5.883087111493930932e-01
-1.680174330616739653e-01
1.234122608680393030e-01
1.201989210308939959e-01
6.023249250941803412e-02
3.981063480623307782e-02
-5.414203561181806651e-02
-3.858777893329078112e-02
-1.431820987460431516e-01
-1.394665357264172345e-01
4.780969525022176619e-02
1.659483293009769711e-01
-6.600871142284092663e-02
1.119725143898825381e-01
1.311967172346756860e-01
-2.361687916796059439e-01
-2.846764097852260700e-01
1.125539102463768565e-01
1.269773297730854289e-01
-1.916493886772270838e-01
-3.376086823400143988e-01
-3.438859718122992404e-01
-1.582252246726119360e-01
2.115346782017032967e-01
6.074787489733862733e-02
5.104148215929327562e-03
-1.547390897331126121e-02
7.774014915069234243e-04
-1.227484207206426675e-01
-2.483022602051805083e-01
6.340528367382049224e-02
4.339351059872502137e-01
4.550744240151218256e-01
6.466779887331546295e-01
4.859501544011803897e-01
-1.442652814032845676e-01
5.139297997641150556e-02
9.517836055759457126e-02
-9.254076497678147273e-02
-2.845436570119599246e-02
-3.926415531242061219e-02
-3.731140212514814092e-01
6.636301915026279405e-03
1.392795811239600223e-01
1.682556326110814793e-01
8.999885706161765697e-02
4.158220761080690109e-02
-1.891846753552675533e-03
-9.606636785288691360e-02
-1.728297797152463788e-01
-1.594806638162195589e-01
1.786871065588238605e-01
4.227374436026944959e-01
2.890491743428785787e-01
2.152253165003082946e-01
2.112706352100794938e-01
1.499418489357699502e-01
-2.805745613257319693e-02
-1.777544745991986863e-01
-9.393326904779686348e-02
-1.472131638939848663e-01
-1.799067184901909089e-01
2.743631202919230225e-02
-1.604655179146567134e-01
-2.185888712896332658e-02
1.394588337737505575e-02
3.412206909292821166e-02
4.379575828309969360e-02
-1.395476746068097518e-01
-1.515035909573393680e-02
3.078552066899153949e-02
1.354978830674842538e-01
-2.467722588991237351e-02
-2.812908938885489568e-02
2.454813943469040527e-01
1.614786931996270436e-01
1.218478827021911709e-01
2.819398490700172552e-02
-3.604761782705542122e-02
-2.996937230178490369e-02
-3.278485764530891799e-01
-4.845511670661748621e-02
2.856197108582353081e-02
2.537987364201266596e-02
6.370121285107656350e-02
-4.636896916738678792e-02
4.686560142132020768e-02
-2.111508624603693554e-02
-1.952353060840337010e-02
1.203131225378823860e-01
1.853558860461657076e-01
5.495816081266797354e-02
4.406523025877120275e-02
1.998750439066196982e-01
2.393308928070860264e-01
6.212696968809238579e-02
8.585114529233174585e-02
-7.205491459444449132e-02
-1.765010049331455777e-01
-2.737355964975186629e-01
-4.950911502719784196e-01
-2.140298282188861645e-01
-2.312050147404353523e-02
8.780706731427311007e-02
4.091985529521602327e-02
7.524309887475461034e-02
-1.321610089884102217e-02
3.552583681644979480e-02
-3.951342581537524434e-02
9.892021388903694812e-02
4.489707511352381691e-02
-1.201598059377032013e-02
-1.520515484881479473e-02
1.830931360537258190e-01
2.075432775006756936e-01
1.174924652618974663e-01
8.288296311224284396e-02
-4.884953311605343823e-02
-1.834673498813129688e-01
-3.917726861437595964e-01
-3.342187652346447213e-01
-1.947823206684722308e-01
8.372216224746558202e-03
1.383908803471210237e-02
5.973068774488740629e-02
-4.002405524321678981e-02
2.239329934234913361e-03
-4.976207540048506461e-02
2.211920324294431098e-02
5.490337633565620101e-02
8.239314078900712712e-02
8.889854687021676860e-02
4.248774964118491593e-02
1.702819054655337928e-03
-9.665374064745181626e-02
9.638610339499038837e-03
-1.320521942279879665e-02
-1.225604512875437535e-01
-1.508350398376402113e-01
-2.178676506699969151e-01
-1.086313603313448645e-01
1.537236164869830619e-02
-3.126264847569781152e-02
-7.581429242754497699e-03
5.742759863443677032e-02
-2.056447696940437529e-03
1.656239642422972433e-02
2.749222951887258376e-02
-3.542424409569364802e-02
-3.740371252291996296e-02
-8.236654841526606929e-02
5.073331340160442543e-02
-8.551311385891498251e-03
-9.224045306587000739e-03
-5.736983834848150693e-02
1.328462204511571786e-02
-3.829906774453947088e-02
-1.026390591156992188e-01
-1.105651965816424886e-01
3.016060632645092485e-02
-2.326996707843913964e-02
-4.287285761487138330e-02
4.961864238012868994e-02
-2.031614011577017459e-02
1.761573015113445870e-02
7.412906445690677429e-03
4.557448364823123849e-02
-1.712985678959972127e-02
-4.906597797232472441e-02
-5.072074027891086689e-02
-6.383353215934663150e-02
-2.108070740181641409e-02
3.016404254938196208e-02
1.749483060518940841e-02
-4.133703930135393390e-02
1.231030402508788944e-02
2.407176370018294584e-02
-1.431247044779839807e-02
1.128854974617911518e-02
2.591727531227467837e-02
-3.574647632310985756e-02
3.966201056399006747e-02
-5.028990120571244504e-02
-3.148128216408500879e-02
2.902409315848712354e-02
1.217526731610489392e-04
-1.495391493662618643e-01
3.721852440971259307e-02
2.973041313488562418e-02
5.189216699737926597e-02
-1.693333271736564881e-03
3.289017645020784336e-02
-6.116926880653523156e-03
-5.310184922259470613e-02
9.105314771527477091e-03
-2.487093441877931063e-02
-4.421014036988530488e-02
1.069139934035170936e-02
-4.091359381194034639e-02
-4.870537946296872589e-02
3.861868063366407679e-03
-2.215630264179742695e-02
3.509205149163851373e-02
-5.354265946010796501e-02
3.260250545548962903e-02
3.753026519623481327e-02
-1.547412213915588981e-02
3.268163794868401278e-02
5.304015697740629282e-02
-3.369213980289037513e-02
-1.173683946060647548e-02
-2.084523496981978419e-02
-5.141108367210955876e-02
4.251020900461137397e-02
3.158921476356819219e-02
-6.523055461450264977e-03
4.450458455766131277e-02
-2.922418876902322868e-03
1.385948795817893917e-02
1.856212737196964724e-02
2.231284415803638788e-02
3.202627164579962410e-02
1.313674578239292998e-02
-3.241178489001404761e-02
-3.179775980639028971e-02
-5.319723491028047896e-02
1.084897983168569766e-02
-7.729782424449408058e-03
-7.983226220492561226e-03
3.441500577860648336e-02
2.092450080487942218e-02
4.732243151115808621e-02
7.059193127605767337e-02
2.891621340742635098e-03
2.819586539638273531e-03
5.299242080171621266e-02
2.980512941339495334e-02
-1.570357452979418214e-02
-1.786948138467338298e-02
-4.713702759124620972e-03
4.753314612051204313e-02
5.197062177691505469e-02
8.705084613480330857e-02
2.201088874296124043e-02
8.240488412006138907e-02
-1.384507544758463785e-02
1.884984267981537967e-02
1.048429441395287709e-02
2.237137267807723026e-02
5.288555143567810757e-02
6.266068535339330836e-02
1.016569617463115166e-01
1.313344040084298003e-01
7.118123993617685163e-02
-4.722144173818118573e-02
-1.529507245334492116e-01
-1.594812416109154529e-01
-5.188181908382599739e-02
-3.627106503289758126e-03
1.746944670895709054e-02
7.252248908585427756e-02
5.278325180206392547e-02
6.620904841739426450e-02
1.178142195465988890e-01
2.073070515346374654e-01
2.517264079918913461e-02
1.727410582726129212e-02
-3.737416258185567719e-02
-4.809040490162139712e-03
-3.220381824483968536e-02
5.579122145246882825e-02
1.437875844344947140e-01
1.061201445418975819e-01
2.456991570956763155e-02
2.930541199196925670e-02
-4.515476494015051301e-02
-1.229724196477051910e-02
9.211382712701485231e-02
-5.297554785356792251e-02
-2.486566516693892170e-01
6.782230459807704268e-03
8.198918807200410164e-02
-5.447909086954619978e-02
1.722461607254975047e-01
1.344593978762516906e-01
3.939803607695918641e-02
9.794978809294143122e-06
4.441820456800962824e-02
-2.854007297160688836e-02
-5.723054900691700725e-02
1.293371317817840482e-01
2.851089754855639646e-01
6.142423665900927782e-02
4.550522632685610747e-02
-4.168847302160591517e-02
-4.859155002220030134e-03
5.142842284207943537e-02
-1.286648160767644711e-01
-2.335925244501625142e-01
-3.020697492459140654e-01
4.231647840181668174e-02
3.396106990215370658e-01
-4.714902073451786302e-02
5.842410491446707599e-02
2.226745034182471550e-01
9.748111416931869166e-02
-8.304558072535972099e-03
2.708751311654838262e-02
-2.316864890975579849e-02
1.181798694193410965e-02
3.138076855663197301e-02
3.013155224532821364e-01
2.504851716236688453e-01
-5.386718332007057325e-02
-1.923786157482322567e-02
-1.993337838292555050e-02
-7.785614314009500769e-02
-1.736641919159097325e-02
-2.902123511655646526e-01
-5.256799296963550194e-01
-3.015376001767404168e-01
1.115011434118703126e-01
1.567016243694749067e-01
1.561254250174536895e-01
2.953416858718949101e-01
1.165436402915735747e-01
-1.932313625020316925e-03
4.588993340862387166e-02
-3.819557176866254788e-02
-6.925840019399520653e-02
4.276481259827768187e-03
2.744310270058663570e-01
1.211640656772004637e-01
-1.683009953106538725e-01
-9.921579483122100473e-02
-2.637358358341078055e-02
7.682818238701344393e-02
-3.017339483879943191e-02
-1.396448839746700088e-01
-5.453199815940119599e-01
-4.342717805886648907e-01
-1.017816919705594181e-01
1.952404344350997245e-01
3.550932211011310624e-01
2.910523616623740262e-01
7.424490617193962860e-02
3.245422024401234395e-02
3.534603300700148859e-02
-3.971228831451628638e-02
-6.732855673025735233e-02
-6.342610288373275174e-02
-6.488215012493126627e-03
7.593969989795823494e-02
4.327289840431123441e-02
-1.977638650368996817e-02
6.123635280791055180e-02
-4.306864561516935558e-02
-2.470991428620780139e-01
-3.615592470565205385e-01
-4.894539982809440470e-01
-4.874723554440438256e-01
-1.451566268021733108e-01
3.840423765325856609e-01
3.515669946916028521e-01
2.629547184870063004e-01
2.940884699652170434e-02
6.589576168289299797e-03
1.492691171875889546e-02
-5.280945033309659281e-03
3.594676106657622439e-02
1.518597807257517640e-01
-4.800861657950088179e-02
3.395222195312676550e-01
1.028901568151582707e-01
-1.505581436088989922e-01
-4.969334827869956867e-02
8.651824523467853412e-02
-1.797175964043156993e-01
-1.754918078501257195e-01
-4.687619205208740092e-01
-5.595400579561866650e-01
4.387555848281207010e-02
1.795173565743940491e-01
1.445800884794019303e-01
1.483752263923520942e-01
8.076976925527874773e-02
-4.096178993920428224e-02
-3.306777036833724592e-02
3.483512931357561626e-02
9.089208458239930732e-02
4.287411225068168269e-02
-2.452907870604436810e-02
2.616547638676837706e-01
7.637177243642376268e-02
1.240916112620768647e-01
1.096590491704240583e-02
-1.466370847021046808e-01
-3.577519640756362529e-01
-1.733123922398168981e-01
-3.680586369539821101e-01
-1.587059184236344067e-01
3.189946368948397559e-01
2.722506755710020765e-01
2.250652892358985802e-01
8.113286212822962140e-02
2.304192899002844436e-03
1.205272294978621157e-02
-2.255134348583594586e-02
3.378570619000444142e-02
8.101708331413691455e-02
1.046785664677691713e-01
8.448504176423281276e-02
1.737490160940558248e-01
7.873166695661691639e-02
-2.759884598601516359e-01
-3.324698727649017527e-01
-5.149160890488150288e-01
-4.947766475743550774e-01
-4.285927428498110814e-01
-1.680032622781081897e-01
1.472027712493598206e-01
4.091698664328659030e-01
1.350279614671148765e-01
1.050710784045200546e-01
-8.131703775534857015e-02
2.395310964598549794e-02
-9.036135365516596851e-03
3.323897381310541438e-02
1.699294930250021957e-02
1.080405631876797390e-01
1.619505574296620509e-01
-9.384636717128656824e-02
8.611591311294869433e-02
-5.979915589175279628e-02
-4.362394630713016808e-01
-2.746347004888665122e-01
-1.252782324963863103e-01
-3.600295713512252638e-01
-3.443485440511134255e-01
-1.326993890438241119e-01
2.517635802615574847e-01
2.509829223316960012e-01
-8.907341689973713450e-02
1.759701175216124014e-01
1.600302837031593595e-01
7.581852263169484851e-02
2.873988968573424826e-02
-6.422632415720884967e-03
4.559958978985722416e-02
8.437479085448111593e-02
9.979777109148520176e-02
1.368507409977368638e-01
9.552657384931839690e-02
4.250336423886692805e-02
-1.804975922144004263e-01
-2.492527958737916494e-01
-9.766792673081367560e-02
-2.474667424674544258e-01
1.512701056045283148e-02
1.237880063888424365e-01
2.017759276753931519e-01
4.709813426011009302e-02
5.171087648885964311e-02
2.336960381223741889e-01
1.722629797522637896e-01
2.307871069011146331e-02
-3.220695480785619458e-02
-3.568982383834538169e-02
-1.057129500937184323e-02
2.729136236510076516e-02
2.543417365784885528e-03
1.804869972467001982e-01
3.041300494113103881e-01
5.776494112442172313e-02
-1.025438274941207900e-01
-3.062755598900620546e-01
-2.069857561149290870e-01
1.068943191212999577e-01
6.863520836806406844e-02
-6.854201342384128731e-03
-6.136649422520444597e-02
5.774123032013804557e-02
2.257209121290955633e-01
1.787767203464917243e-01
1.295534842106644269e-01
-1.051844719094816027e-02
-2.424507320870912530e-02
3.913156287223666652e-02
3.310268992605974042e-02
1.147924798634946189e-02
-3.136114684106282996e-02
7.294000913019728360e-02
1.900934810242849993e-01
2.372601406281360514e-01
-1.312751524946923209e-01
-3.274754379803447857e-01
-1.706967709967036062e-01
5.519437238950804236e-02
2.109004493956985193e-01
1.316478775967844517e-01
4.271086979234960807e-02
7.208948218683822184e-02
1.604276330483664637e-01
1.388029627133059996e-01
5.831635276929677397e-02
-3.533084474216528076e-02
1.673658353053132652e-02
-2.134937772352487467e-02
-3.742154461967145407e-02
4.917347355146528542e-02
-1.812748241191635204e-02
3.329751858862185082e-02
1.255257658624434336e-01
-2.710175151690923101e-02
-2.300886981376394913e-01
-1.990559362347877059e-01
-1.070798306827095148e-01
-5.281396124872918263e-02
3.141722813531691583e-02
5.128513240000451279e-02
-1.385590955381705777e-02
8.973206497106873958e-02
2.120234425211244833e-01
7.411770826085165020e-02
4.211753003353592428e-02
2.563804033453446693e-02
5.003085597115843747e-02
4.980808490364758978e-03
-4.360241409978411753e-02
6.715449644348325635e-03
6.996838098500618441e-02
1.062967203018693046e-01
2.187524790547712983e-01
1.662094765974711785e-01
2.028184497831825826e-03
-2.281452228929571960e-02
-5.047496362437009498e-02
8.119707580667750307e-03
4.812328036824838756e-02
-1.684272441795997208e-02
-2.277332087641552663e-02
5.876971857790968395e-02
1.178283953956779824e-02
5.990774281311382968e-03
-2.422413201377364433e-02
2.405337366920299452e-02
-2.534560017067878646e-02
2.984782985543511444e-02
1.450717531191043040e-02
4.306783547915628459e-03
5.663958581874139336e-02
3.738695504856531099e-02
1.412384797469820874e-01
1.115311274718627788e-01
4.374691126891758902e-02
7.985355227801303746e-02
-3.492692337544740788e-02
5.961642658108457990e-03
4.320192530770980421e-02
6.569693696100145641e-02
3.497166192633870130e-02
-5.440591260980622360e-03
8.156391472564647818e-03
-2.314256872705216378e-02
-4.267309686966389709e-02
-7.780744887023667870e-04
1.708694858481233508e-02
-1.826355221159921965e-02
-2.762692042659944253e-02
4.693388432734050403e-02
1.689416351177010570e-02
-2.099061337646491651e-02
-3.738881452926175880e-02
-9.977636404645100210e-04
-1.379764443846285930e-02
-4.741999027966983804e-02
2.824880552425852384e-02
-7.995087341852670851e-03
3.326307031087367277e-02
-3.903934780890156581e-02
4.027237331406163107e-02
-1.994617492765355174e-02
-3.962556001247629061e-04
1.329870371432507851e-02
1.301779412211478450e-02
3.222644185668126150e-04
-2.209151677112587003e-02
-1.168860260419671837e-01
-4.302113193303226668e-02
1.249428704991739983e-02
4.304042819237868106e-02
5.254575078015110562e-02
3.001981675439795161e-02
2.637359901505326176e-02
2.686232565307734507e-02
4.431076295428349604e-02
-1.099720945283722169e-03
1.265462082036309874e-02
3.133654204349842903e-02
-4.156593396797772511e-02
-4.814421788069583180e-02
-1.387502252965285010e-02
-3.199390216434948309e-02
-2.055427950036408172e-02
-2.353351539132780487e-02
2.879233717349774166e-02
1.122907211071827449e-02
4.669864335300177860e-02
1.448118953014086024e-02
3.320022131567475221e-02
-4.449858885359567022e-03
3.064467910811873724e-02
-4.697953906113161437e-03
4.135546229552060013e-03
-2.233378429571094073e-02
2.062907925801090586e-02
-6.116749700394021050e-02
2.881689202631633126e-02
-3.513059813427089895e-02
2.800046305469590727e-02
-5.756677259157882282e-02
8.006200434706227387e-02
7.171226841888915515e-02
1.817416211376288735e-03
3.012624801434950900e-02
-8.709071698806332765e-03
-8.399252855754726910e-03
2.677865690011820704e-02
-1.959245315824053105e-02
-2.959795751558885746e-03
-2.749853558071953252e-02
-8.288609266094726716e-03
-8.754266074708859369e-02
-7.782762272699590700e-02
-1.127279381645099332e-01
-9.333290520228879061e-02
-1.182703095897812834e-02
-8.262708512151968956e-03
7.795802528364904893e-02
4.869825254571123058e-02
-6.843084441320446132e-02
-2.668449956610856322e-03
-4.592012047506783406e-02
-8.991174325614342822e-02
-8.664162633762090282e-02
-1.846032007082839752e-02
-2.366222852849574412e-02
-4.348458276482992935e-02
-3.632712753633002972e-02
5.255024808479564352e-02
2.199857972148172927e-02
-5.911199584696714276e-02
-1.107150417310546059e-01
-6.582260212127735710e-02
-1.248339769519408587e-01
-2.207883812414833391e-02
7.773905740269386466e-02
5.173633062184389980e-02
-1.202741542461091689e-01
-5.619193871086736874e-02
-1.665372990088897220e-01
-9.260806905117012489e-02
-1.535105708879825614e-01
-5.124253626320203481e-02
-9.251875304977505432e-02
-1.793307198927777679e-01
-6.028903063943228530e-02
-5.765272811693796483e-03
2.199087610324396494e-02
3.924190227143865145e-02
-2.572271374118700535e-02
-4.689953500933095182e-02
-1.335761836275615178e-01
-1.149636751019557229e-01
-2.669176236432418622e-02
1.449773939799757216e-01
1.759981809902836924e-01
-5.267306973504919804e-02
-4.096863966348298636e-01
-1.248336063861755357e-01
-9.452412982597456839e-03
4.848572094059980936e-02
3.987359209321320735e-02
5.461104257199847489e-02
-1.128982164019674689e-01
-6.647503107018944146e-02
1.251981119604310758e-02
2.933376864880043663e-02
4.413528242658117454e-03
1.870408923691672595e-02
4.438110740645852259e-02
-5.657287817606222041e-02
-1.246213709430841754e-01
1.557155020672505441e-01
1.402269934643330385e-01
2.457034412923813083e-01
1.182146421440570389e-01
-7.804731061607811382e-02
-2.661368974312239288e-01
-2.226659604960257166e-01
-3.177795979077294858e-02
-3.387151009371421051e-02
4.812236070728879989e-02
2.936979005685086408e-01
1.943121135111043618e-01
-1.278613492487801762e-01
1.328427151121603506e-02
4.730919866267026264e-02
4.961360676062512992e-02
3.040071277849742612e-02
4.824086979412385567e-02
-3.573268266373207797e-02
-3.669505137303588627e-02
1.759574023459744840e-01
3.857191349742226660e-01
1.418497105602767872e-01
-4.957277562889540051e-02
-1.200551622437030092e-01
-3.318022034349299987e-01
-2.189471226631093115e-01
3.717573239766205906e-02
9.134016617663730242e-02
-6.082940592007163305e-02
5.206884557028851161e-03
-3.976432450032416077e-02
-5.918904883684684981e-02
6.439844965944008237e-02
5.530732183742692078e-03
-3.855463829158750633e-02
9.741885681926248583e-03
-4.157354628501928884e-02
3.413575922864943435e-02
-8.876510930794791199e-02
2.637718033868389766e-01
3.650741574913913823e-01
2.818994589089268143e-01
-8.069241872587677722e-02
-3.628280365755850445e-01
-4.943344186159083775e-01
-9.213148283504754565e-02
5.411381542295251590e-02
5.540632337717615874e-02
-7.826701327094040539e-02
-4.843986625812925911e-02
-2.461544490315039080e-01
-1.164070062494411278e-01
-1.734443860203714908e-03
-4.195059943766678984e-02
-3.894549140591475195e-02
2.250320206675461218e-02
-2.541660141234891243e-02
1.362570410467731363e-01
1.040588518359424619e-01
3.528632912121174026e-01
3.978775393731578403e-01
-4.322764123920121160e-02
-4.129812994412504490e-01
-2.960167277701314381e-01
-2.745579991137163667e-01
-6.548792370874876277e-03
-8.389443474220036057e-02
-7.739336815251808555e-02
-1.155257027880765841e-01
-5.897590915633966514e-03
-2.401292945637441556e-01
-5.433721522700246664e-02
4.215078826858670302e-02
2.894078223685044374e-02
1.400479894459646935e-02
-1.039976506045726425e-02
1.115372172378857607e-02
-6.811832832504474688e-02
3.041838518265384608e-02
8.466435054784883507e-02
1.207961172346736500e-01
-2.541160367264236331e-01
-3.578612420442110476e-01
-1.786598421092358835e-01
-8.151047888553115657e-04
2.766657774113921997e-01
2.478708175240634248e-01
9.606016367068073714e-02
-6.167593026117385718e-02
1.166025799387062495e-01
-1.178286540607251104e-01
1.157694548121527695e-01
1.372226926237745115e-01
-1.613899677985615455e-02
5.244958640597210259e-02
4.349299307558315841e-02
-3.754529053209668815e-02
-1.670773652214893046e-01
3.039803940651605516e-02
1.433751114697541240e-01
2.159373110273677676e-01
-1.402887776544241571e-01
-1.736643675592270675e-01
2.496286062101611414e-01
3.161770936670897925e-01
2.209911534765243712e-01
1.936151957087969833e-01
9.473661001927656533e-02
5.663459608883050084e-02
6.473199953435679332e-02
2.422545006002475160e-02
1.724945102178566669e-01
2.707678635839311787e-01
9.612823739186149297e-02
1.866508012041290590e-02
-3.986827617229721232e-02
4.896416080567430554e-04
-3.313500901212151212e-02
1.696256224037730187e-02
2.673584076362683914e-01
7.856544903254170098e-02
-2.354116109070302290e-02
2.064144412525797945e-01
2.947216078020298280e-01
2.037592980849138313e-01
1.096980218676358310e-01
-7.936858027088822265e-02
-1.317059779488027049e-01
-8.025493427501685650e-02
1.931931277812965787e-03
1.746575593127281112e-01
1.699581861532305505e-01
1.074204322662655475e-01
2.981137162626515359e-04
4.358179877295490640e-02
-3.751379472556114897e-02
-2.154006996938042928e-01
6.589603163570925681e-02
1.682371383959880562e-01
1.419078525538248758e-01
2.911180705791543422e-01
-4.242285861954583903e-02
4.048727288865412721e-03
-1.883500177414041687e-01
1.749754728125443026e-01
3.619949652262491758e-03
-1.207829905731720166e-01
-2.240371912748514993e-01
-1.466209035735038801e-01
1.011592486964277837e-01
9.779449951601701385e-02
-6.362664831132681942e-02
9.554853743983179881e-02
5.474395413764301249e-02
-1.997201300133809657e-02
3.540297186561339876e-02
-1.058739513781763453e-01
-1.595908754806490276e-02
1.103663806360062477e-01
1.441036815944981286e-01
9.441032457973870529e-02
-9.845355011282218294e-02
3.026803512686771641e-02
1.971167731672826828e-01
6.735470211774434446e-02
-1.785693199541482090e-01
-2.300272183374344470e-01
-9.810395220090502300e-02
1.702297867449597824e-01
1.791354436493752533e-01
-7.419953072006348072e-02
-8.671008914912986532e-02
4.603920633521756123e-02
3.589719718921813990e-02
-4.217243124986456981e-02
-3.157967332469741040e-02
-8.623214489641828351e-02
-1.718664792825442753e-02
1.023402854121641531e-01
1.740143750065362427e-01
2.544597910635396087e-01
1.622984754156205356e-01
1.932950310953933937e-01
1.238411451595054918e-01
-8.835635250309360755e-02
-7.465389176327004439e-02
-3.881847008882419875e-02
3.130576079381096333e-02
1.368098072994000103e-01
-9.014541566671592510e-02
-5.990714566898010934e-02
5.783077597798021163e-02
6.120037616703403321e-02
3.506359228266234251e-02
-4.317168036062477010e-02
1.919686000541655571e-02
-1.144233813689140081e-03
1.219768450042086061e-01
-7.320238663069174312e-02
6.170527326461645347e-03
-8.426232891706030015e-02
-2.531877538860951432e-02
6.601795843273486342e-02
2.280787199513747629e-02
-1.265695812620530603e-01
-2.576548067842331924e-01
-2.532977462647006961e-01
-2.796765392407158934e-01
-7.954216306061487329e-02
-8.814863021956312328e-02
3.255332648759775432e-02
1.058039858682543188e-01
6.210320570324164707e-02
7.260475350228890769e-03
-2.213415652768229575e-02
-5.542023989872835697e-03
-5.382682177402189905e-03
2.804714252982305409e-02
-6.033446982523143348e-02
-9.803252724476639590e-02
-4.321506172611432051e-02
5.258282045536272903e-02
-3.367996388380727069e-02
-1.385495600593684429e-01
-2.496346531417871217e-01
-4.292831422795140850e-01
-2.635534185074628888e-01
3.536496978285623427e-02
2.108822371417309050e-01
1.619339777009133896e-01
1.485151336150694334e-01
8.638173156166198408e-02
3.028828239480277351e-02
1.226558665766225992e-03
2.892768561871255154e-02
4.130235213961928192e-02
2.892806994961923464e-02
-1.416654846012252791e-02
-1.614135643767844464e-02
-1.777363589171517683e-03
1.385836053406299118e-01
6.510373689955593901e-02
2.493376742294756143e-02
-8.023693636414877539e-02
-1.536190378527391431e-01
-1.688204089197053170e-01
8.917963809032211989e-03
1.520394937463466489e-01
1.638861334139633807e-01
1.557516195943593196e-01
8.777275229328188044e-02
-1.498684268042804876e-03
1.973065048112909725e-02
-6.443061889566932196e-03
4.672925604825954593e-02
5.146199960715912292e-02
1.577042338631549218e-02
-2.837888888544072910e-02
-3.525756658726677401e-02
7.027042331392452379e-03
2.081893376579883187e-02
6.689966278838310743e-02
-2.957079197842558960e-02
-3.917778476719165764e-02
3.585206507038903034e-02
2.729206780885087141e-03
4.423654982070929220e-02
2.774876278938492175e-02
1.215262598914422986e-03
-2.639049195507549295e-02
1.668584408485126666e-02
-1.541592480163298320e-02
-2.068900265314674303e-02
3.608539697267060947e-02
1.271184850818160225e-02
6.748342056993887096e-03
3.385850228756721869e-02
-2.365873047564140061e-02
3.005976687391898397e-02
-3.297265977454746227e-02
4.112147048018581497e-02
-4.018884150536890937e-02
2.719159325274612266e-02
-3.865048666068503919e-02
-1.001429065306917894e-02
-1.520064859692704402e-03
-4.325191072035817347e-02
-4.635954378209979077e-02
1.038324106948173946e-02
2.639047342555212328e-03
9.123932346494759496e-03
-5.241356673115447895e-02
-3.334317812453026914e-02
-3.071580902787950096e-02
1.919198328056791192e-01
-2.494576354300954285e-02
-3.258781582484412465e-04
-9.618387524442518002e-03
2.122288888124720854e-03
1.064998052152416920e-02
-1.299035189286877959e-02
3.143488970578103836e-02
-2.501171043443414441e-02
4.557662982698960051e-03
-4.537978116541407231e-02
-5.071099783168817043e-02
9.571373836595677490e-03
3.961864257797143712e-02
-4.710058524211935271e-02
3.532012260843519352e-02
-3.457522912913699176e-02
-3.770475706981451375e-02
1.523833865364382714e-02
-5.046191363569729055e-02
-2.938827203521706538e-02
-4.141639549898072648e-02
3.256533631749499759e-03
-3.635836379199978291e-02
8.439795543253284307e-03
3.740171067010332473e-02
-3.488395482463369640e-02
-3.432544935995000129e-02
1.368396206406834528e-02
1.016708586874047644e-02
6.745420037395264204e-03
-1.328531142627252526e-02
5.124298009327232090e-02
-1.534978534226391113e-02
-6.412687101639356901e-02
1.528848276816084650e-02
-1.639059271846946692e-02
4.664276997750925469e-02
-2.730705683897254737e-02
5.206790211843119465e-02
-4.432366978317434092e-02
-4.504954732465086403e-02
3.448853651786829705e-02
-2.686620020298833775e-02
-1.942626724837537289e-02
-2.153720897757530409e-02
5.932491794527263232e-03
-6.624509183362859398e-03
-4.654809965009010925e-02
-9.687048602793041363e-02
4.030474737145092051e-02
-1.525700008890860113e-03
-3.661609194541181472e-02
-1.132881020760847200e-02
1.006056850624388044e-01
1.692726389780715990e-02
1.939638012806797762e-02
2.080373540616895639e-02
4.278047020318672539e-02
-1.791281851766772862e-02
-2.884780847047886329e-02
1.403092054677442316e-02
-1.289212823363135654e-02
2.814888429683419860e-02
4.391610412309692249e-03
3.227403985615526910e-02
5.568742444777298461e-02
-5.730358247654703668e-02
-2.390224532075128638e-01
-2.284512872547794504e-01
-2.520533370706211709e-02
1.190220318689618334e-01
1.554437970626470489e-01
1.427218971262075031e-01
2.493880360103238603e-01
1.155636650859420689e-01
1.558818797618847368e-02
8.027491115476456662e-02
7.571907638647161487e-02
-1.124465183268264813e-02
-9.371664451694619678e-04
-5.229467840283472807e-02
-8.103394852241978252e-03
3.853724441653468696e-02
6.640522729836320984e-03
9.454964435578086523e-02
1.571423723201354206e-01
-4.344220486950085836e-02
-1.362905390573893039e-01
4.577866076957512464e-02
1.003886420589451545e-01
2.255160599577700209e-01
3.845812453531621822e-01
3.733576020723166078e-01
3.566902380522511407e-01
3.072792627866299253e-01
1.285557270564936239e-01
-6.088891937453826814e-02
1.094516478820914684e-01
4.297871952309006982e-02
-3.568240456614087119e-02
-2.171796412724493960e-02
-1.959873418871127190e-02
2.697728066637010771e-02
-5.536002628405131687e-02
4.254735422965638669e-02
1.882262548518267090e-02
-1.431911121045262025e-01
-1.917783505400012245e-01
-1.580569853118795054e-01
2.027388507921129568e-01
2.302574190195633141e-01
4.295968777678605410e-01
4.587958133830789542e-01
3.367471799131335763e-01
2.851903120648782708e-01
2.020167489519895665e-01
-1.462469442003323516e-01
-4.689737467375040825e-03
4.259032267290921436e-02
-4.807725072592448912e-02
-1.298819354294713201e-02
3.917166551165596894e-02
-8.391010919031462179e-02
-1.214521745797688679e-01
1.355394102600676609e-01
9.600608557172275737e-02
-2.646906205473971707e-01
-4.350511436380023467e-01
-2.013178275627622027e-01
1.060138822470068493e-01
3.154378064483017718e-01
5.225281529844387762e-01
5.914444339959866737e-01
2.904685348061968875e-01
3.540418197917071658e-02
-2.163187148728587875e-02
3.327448113349733456e-03
2.818396272285242712e-02
1.011563087033975072e-01
8.342356211177617484e-03
3.568726245994838925e-02
-3.034414794313024244e-02
-1.109202389833282600e-02
7.390571713871833814e-02
3.529473322919120526e-01
1.550974541844823140e-01
-1.429717771091786327e-01
-2.071588061561982497e-01
-1.165051967509938245e-02
2.722233162982913290e-01
3.139503010693128759e-01
2.521464018598419399e-01
1.700337579687565825e-01
6.863044016106584211e-02
-2.608725511967926458e-01
-1.616750847685346770e-01
-1.948982258653355337e-01
-1.336307983339250424e-02
1.252390363566128484e-01
-1.242809295692921118e-02
1.533524932439137706e-02
-3.501485973587502992e-02
-2.789475690788313991e-02
6.086480855719889060e-02
1.596232674719659794e-01
-1.709467327981221973e-01
-3.875200872632803550e-01
-2.866606009233787500e-01
-4.819252392493326292e-02
4.222715020932010233e-01
2.994392616940760865e-01
1.026468423278253522e-01
-1.519609181765795569e-01
-1.750207560539177309e-01
-3.221953606566654860e-01
-2.299099114912498965e-01
-3.684899183978311843e-01
-4.784669384983703672e-02
1.222176230759740440e-01
-2.265386046464320374e-02
-2.010735536875566873e-02
-6.392542395586528481e-02
4.172020238134156039e-02
6.349849512472288682e-02
6.304872190944842136e-02
-2.451331731840990756e-03
-1.762546809100686007e-01
-3.976686467631157518e-01
7.809305686521252066e-02
4.024949168249010167e-01
3.946256120531604905e-01
3.439725644576940161e-02
-1.699684967477209929e-01
-2.715670156486812981e-01
-3.274114422118080681e-01
-2.803806799999493671e-01
-2.062814855046302964e-01
-1.095551543413411377e-01
7.098283876048001872e-02
-1.187303983110753192e-02
-9.235638121807743586e-03
6.893884555580394313e-02
8.755690144811423270e-02
3.049920096026007346e-02
7.065526512239174439e-02
2.323375847096188218e-01
-9.588860689871395518e-03
-1.508214004124847421e-02
7.729197983450210307e-02
2.809822111299126735e-01
3.415514880259909458e-01
5.581353196708569581e-02
1.135089347848316221e-01
-1.966486133382195634e-01
-1.817983180881148630e-01
-1.057049395450444518e-01
-1.503536233636751929e-01
-2.581570149522488533e-01
1.454816795110723815e-01
4.280388534134872691e-02
-3.030135022822782673e-02
8.377709886050604959e-02
1.148464176672885639e-01
4.382476301318853629e-02
1.297979983544387574e-02
1.356037297362743255e-01
-1.735969961631307623e-02
8.181093514401027722e-02
9.055781216918749876e-02
2.812350450379875189e-01
4.200050975940950448e-01
4.051712076218262348e-01
1.290049360384146471e-01
-1.633872036654038518e-01
-5.110931231300902544e-02
-1.982353415962647414e-01
-1.542752820970846039e-01
-9.258865289487538952e-02
7.853814256147116646e-02
-3.480371072504872404e-02
7.188987462870301964e-03
6.969297118382107581e-02
1.282873895890842830e-01
-5.633145539146247605e-02
1.046199656641782633e-01
9.570736444252816999e-02
-1.846317042923261986e-01
-1.139953023005767785e-01
1.702672186221230455e-01
2.614083745381706736e-01
2.028885974273230142e-01
3.256199603782530261e-01
-5.260366483731621426e-03
-1.687623828455677433e-01
-2.023704196952338108e-01
-3.385304259745606781e-01
-1.362246936065732994e-01
-1.219826347755760682e-01
-2.668370228714227535e-02
-3.750763802079497278e-02
-2.452190590712187077e-02
7.424101555217577086e-02
1.120619808928355471e-01
6.373149306706320238e-02
7.649048250963152995e-02
-1.170053679461325880e-01
-2.455788624862489111e-01
5.785464358447851840e-02
2.045679976110328091e-01
2.816550070091071167e-01
2.077901629707357978e-01
1.775131079604081452e-01
1.698152020765500980e-01
5.375894789474343349e-02
-1.415157916958033890e-01
-3.198757185813186910e-01
-1.426149736894363473e-01
-1.550129505988123713e-01
6.057333299199451487e-02
7.988797854601840942e-02
-2.656743498778662768e-02
2.620053151535883806e-02
1.471338428881827642e-01
1.366687988707475931e-01
8.157013416926428562e-02
1.389229080973334446e-02
-5.122501031710210984e-02
-2.321578693905779894e-02
1.367470215160389024e-01
1.608915627930410097e-01
3.105319501985278619e-01
5.813041117257723017e-02
2.972991908499837965e-01
2.746623559222052258e-01
-2.197162049528497418e-01
-4.470648569778157971e-02
4.568462588668457947e-02
-1.512690018834028094e-01
-1.449635190113754586e-02
5.062215370472604448e-02
1.038002817491692417e-02
-7.057584197994741688e-03
8.057549762150632844e-02
-1.774956686534473157e-04
-3.103762090436030033e-02
6.662501780676509389e-02
5.287205673910783110e-02
-9.701417572825546051e-03
1.764923322709475162e-01
2.162300581005214273e-01
3.188485258790204058e-01
1.977209043356566442e-01
3.690583913849666137e-02
-1.682110985855815241e-02
-8.002224759155036893e-02
-2.758822287938710732e-02
-1.051842359987856246e-01
-5.827005192036450315e-02
6.633852413875521159e-02
-3.817580147466284601e-02
-7.859073168036526807e-03
-2.730895048705454103e-02
-3.679485232181750609e-02
-3.101232674637879536e-02
-3.772330669681030202e-02
-5.223654448469515488e-02
1.720832160136699998e-02
4.094020784347086883e-02
2.005063623013551566e-01
1.484522944521483312e-01
2.158556870001250294e-01
1.963087601950606054e-01
7.206771410006392042e-02
1.051303557843009107e-01
8.152760991541600777e-02
-7.340541045710169410e-02
-8.750175698829439075e-02
5.345986624130093234e-02
7.473310674678197360e-03
2.931980118617473832e-02
-1.128980178709329887e-02
3.911884663890496938e-02
3.180548747757204475e-02
4.686451671759084975e-02
-1.882560434224827411e-02
2.480316509854140622e-02
-9.154671896261439706e-03
-7.295988309408439620e-02
-7.298550815536520263e-03
3.114436836857934626e-02
9.004234950253775516e-02
3.506656212416824070e-02
9.813097129298089388e-03
1.177914281154123360e-01
5.658446864185810027e-02
-2.051051787557023331e-02
5.549117703293019593e-02
5.419898320909796383e-03
3.961391116615171210e-02
-3.058071400472974974e-02
4.761235900534143729e-03
-2.767338144497353061e-02
6.664949388831346334e-03
3.202201642254678265e-02
1.643396845470539852e-02
-1.977141090292788145e-02
-7.133824011464611793e-03
-9.847492334305396958e-03
-1.079898208214250324e-02
3.897543269627289520e-03
-2.940025541013263286e-02
-8.333613156306203529e-02
-8.207283721949239219e-02
-6.490004737981562577e-02
-7.560302792523647918e-03
-4.690592741209018146e-02
-2.577879305190695566e-02
-4.286913793066238210e-02
-1.947843459038356428e-02
-4.168293237787745742e-02
5.045203176054158939e-02
2.810824806356763874e-03
-4.786056248073981834e-02
7.767974940515584223e-03
3.087860941359966624e-02
-3.438558688931096091e-02
-5.015811655789940982e-02
-6.575622937426361080e-03
-2.075088036551730325e-02
-4.727452670671403179e-02
-4.397666997865088551e-02
-4.680333489103575412e-02
-8.296439242739317432e-03
4.313930250048810325e-03
-1.277378278055202494e-02
2.622457026585621812e-02
5.087339741266556220e-02
-2.084549990364658809e-02
1.376889227754432565e-02
-1.876156147819544456e-02
-6.278866230700754780e-01
-4.590422840975474927e-02
1.524686624209534158e-02
1.172764323730911273e-02
3.967000729618247457e-02
2.505912855179188645e-02
2.563785998501582827e-02
-1.012802280494720999e-02
-7.366601636680745850e-03
1.449947326091935960e-02
4.661425195072967792e-02
-2.646450158350588042e-02
3.286667724892233106e-02
4.192503044765306247e-02
1.490661328362117601e-02
8.451277054847775722e-03
-4.167237140892923741e-02
-3.983580583008188708e-02
-4.935164741946891642e-02
4.377509087729209575e-02
-2.112216346754335408e-02
-4.716559219203274311e-02
-3.474359866352912107e-02
3.879442203000658257e-02
-4.090923744385555061e-02
-4.781267337302925330e-02
-9.833279531615288574e-04
-4.155877983093649725e-02
2.038171806024838099e-03
-1.349892250899024579e-02
-3.714121816982049636e-03
-4.389567371437495813e-02
6.435332654555976466e-03
-8.907606156298344263e-03
-1.522155031029492032e-02
-5.830930873890564914e-02
-3.152389243298125976e-02
4.687936626659775646e-02
-2.218469134822063926e-02
-3.270610500765115669e-02
-2.108504571178422202e-02
-4.297512265324299197e-02
1.736961981348427624e-03
-4.414052208714631248e-02
1.169237079963117605e-02
6.393393913391888506e-02
1.941374740306698321e-01
1.720901419083922246e-01
8.763420329841314915e-02
1.177610116847927352e-01
8.448134076300768680e-02
1.325496933630610462e-02
3.044598457677398506e-02
1.410862189512474274e-01
1.695093178301422879e-02
-2.772776887166669008e-02
5.337909456730786234e-02
8.106604677086724775e-02
2.468285448123263073e-02
2.853887220195303661e-03
3.940887500497076285e-02
3.679794888694268296e-02
-1.483793296530337182e-02
4.748046267624562826e-03
7.402276954144416943e-02
2.991642033326085692e-01
2.343156980352952834e-01
1.381984737130300955e-01
1.208246561009958808e-01
1.140053492223257886e-01
-1.716528772363689129e-02
-1.040851088562097237e-01
-5.033250294603388957e-03
1.863277419319403494e-01
7.336189393958854332e-02
1.343580575399079824e-01
-1.019179060650526186e-01
-5.601906134328337589e-02
1.909569810836319811e-02
-1.659566628562296822e-02
-1.480394007636106311e-02
-4.939237469570843808e-02
-7.382015196652652080e-03
-2.569710604989432559e-02
2.101258859115532895e-01
4.798253059890792427e-01
2.012966163591115576e-01
2.061695357092935554e-01
2.063554077011106325e-01
-1.364500196231032414e-01
-2.303952191918126335e-01
-3.168838828786446071e-01
-2.895171014562592515e-01
-2.798581649939277383e-01
-2.708361281069081583e-01
2.257581619085808067e-01
-4.227783530415047536e-02
-1.297577908294381410e-01
-5.418395308955054751e-02
2.201897484969141811e-02
1.189749955657431676e-02
2.259961036163524867e-03
-2.005270449151369885e-02
-6.607490438627479368e-02
2.713338783912271901e-01
4.060391050003857027e-01
2.276602071222371959e-01
2.109129378374113573e-01
4.823401927729521407e-03
-4.170235509380256778e-01
-2.795574029210400324e-01
-1.477298943691550681e-01
-1.313715436631911204e-01
-2.540330638161166221e-01
-3.266622999952724649e-01
-2.335319224492730383e-01
3.557143095619149514e-02
2.491593971658450091e-01
2.611276208740357374e-01
6.822731642390864049e-02
-3.851485728569305905e-02
-2.042216379412165744e-02
-1.622522088375407193e-02
-4.407227096021484186e-02
2.046875592316749481e-01
1.659610295634994792e-01
-1.853816207073032407e-01
-1.990383531697729191e-01
-1.800722234380149889e-01
-1.272177539944104596e-01
-1.828261389810163090e-02
-2.885106539902614342e-01
-4.312132648222960496e-01
-3.092164197114010207e-02
-5.257834510611902185e-02
-2.252692949981331405e-01
-8.318863159306928712e-02
2.760733001277923537e-01
1.798229298169674029e-01
9.783096124651149972e-02
3.938534637596575322e-02
-2.818182261042833422e-03
-3.130682963477557368e-02
1.004192659237005264e-01
1.952424601007882732e-01
2.878898356350543253e-01
1.196083900937918443e-01
1.306770208407253830e-01
-3.678202171537225257e-02
-1.133524583129653929e-01
-3.081412002869069466e-01
-6.460711085210083526e-01
-8.231801544042379737e-01
-2.099088936704298358e-01
-1.963071569429527818e-01
-2.204014046329591525e-01
-2.971546624716192020e-01
4.184445961972300260e-02
1.520634269233001878e-01
1.897160102604805165e-01
-3.811269714666634667e-02
-3.194145418618133531e-02
-1.422352772163031250e-02
1.392948359731429331e-01
3.122481637519727848e-01
2.707359168613747147e-01
-5.933983769555019328e-02
-9.643651296926565586e-02
-5.994802355671976363e-02
-2.435645571807585341e-01
-4.284264739954209422e-01
-3.435341668527903125e-01
-2.263351663465045793e-01
-4.868200771855728942e-02
4.162996404714076025e-03
-2.323076074291192672e-01
-2.734339079531896144e-01
-5.633670252893260497e-03
2.871850672236085991e-02
1.449861398344659547e-01
3.786875155800329545e-02
-1.777006285240213118e-02
-7.152898471528655600e-02
1.193732424548043514e-01
3.096388914982959317e-01
1.576340510762941349e-01
-6.348053383721452558e-02
4.921675368369941850e-02
-2.110392807762187517e-01
-1.146379569916559510e-01
-2.424603171960168502e-01
1.177891916711449882e-01
3.585613001737316119e-01
4.646636558324728772e-01
8.459087444132398770e-02
-2.411517889781746860e-01
-1.192182173452409066e-01
-4.726654799863939937e-02
4.036542166736541842e-02
6.533804179860751293e-02
3.973913945237331213e-02
5.457496693254821479e-02
2.999422323219621406e-02
-8.182307967628446588e-02
6.238376442389056281e-02
-7.023022724582959897e-02
-1.242249844225474936e-01
-1.796796705986787313e-01
-5.794584186350485583e-03
5.519447134854950088e-01
4.624038767344406109e-01
4.129618157534147849e-01
3.220868601183842217e-01
2.863873286696818066e-01
-2.525049511693933657e-01
-1.616639057082978059e-01
-2.557117963309358741e-02
-1.522324593336291942e-01
-4.379976811109485141e-02
6.293548916606916954e-02
2.814647807309469257e-02
5.731516674145056139e-02
6.441566242962891431e-02
-6.005274671023363292e-02
-4.088107834464550783e-02
-1.032979420055062103e-01
-1.108427932216973083e-01
1.328295480882659418e-01
4.615469978727349543e-01
4.487651952795514432e-01
8.661915539235832684e-01
3.605942085317443979e-01
3.548869065392236677e-01
3.855008082713222428e-02
9.260738409870515608e-02
5.752924401310038904e-02
2.423731297508995020e-01
-1.907033070106091410e-02
6.096740857678772940e-02
1.613784179334745994e-01
-2.645907979200599804e-03
5.434854501063361015e-02
-2.820879643112097698e-02
8.264577126999757273e-02
-3.112099401407704691e-01
-1.085127543542704492e-01
1.791386740195346355e-02
6.812328891957473986e-02
2.951109068785388589e-01
3.249755958746775586e-01
6.920165048698414534e-01
2.040816262314035512e-01
2.797840705667212213e-01
-7.964502799160645685e-02
-1.765319903699910098e-01
-1.679722333420226033e-01
2.024898641369822228e-01
-7.021211063731504221e-02
1.438647349681479726e-01
2.005397087900238351e-01
8.432939153296953316e-02
3.424236085820792780e-02
4.718132255132015222e-03
3.664204807654709850e-02
-5.139711470387864356e-02
2.043802627045576345e-02
3.482451597821865641e-01
2.385505465678533221e-01
1.641509976870224596e-01
4.305117243145035189e-01
3.340331717612832763e-01
3.363160271885438091e-01
3.466442581126927269e-02
-1.368000620626759756e-01
-2.444675503623906787e-01
4.342695138117948911e-02
-1.460198671082796329e-03
1.038233831241428852e-02
1.619388272931743533e-01
1.478090568513559522e-01
5.178098573125025639e-02
1.074360574491130781e-02
5.343413878296034147e-02
-7.133063557457532122e-02
-3.470328889955425766e-01
-8.145993057407870108e-02
2.304867045337927745e-01
5.520614414805447012e-01
6.231608700695738801e-01
5.657518655994496770e-01
1.587102036169022734e-01
7.300203327063525816e-02
-3.655378788398989109e-01
-5.174707029134775205e-01
-3.126875476031589773e-01
8.501094862916160066e-02
5.819419129205088970e-02
8.383018954547082069e-02
1.377104815242633229e-01
1.508148220468346068e-01
1.805475335950573398e-02
-4.366336417350090426e-02
-2.638248116608910357e-02
-8.708298732614363005e-03
-2.960121769110135026e-01
-3.172044166581211577e-01
-2.307997008286456070e-02
1.265423423608461051e-01
1.347980464929393052e-01
1.903910900713834675e-01
2.112864722423551389e-01
-4.885974863803889401e-02
-3.040561175506933944e-01
-3.163808232924992803e-01
-2.319170585873118196e-01
-8.833317083911929046e-02
6.097176120625778101e-02
-5.138514409052760690e-02
5.909993695798449603e-02
1.545653119269785880e-01
8.127168407261967098e-02
3.842866379233118856e-02
-3.871991793494935358e-02
3.450445377667594321e-02
-1.700810221762567298e-01
-1.749824853790058476e-01
-1.763526982383987474e-01
-1.332752576806121025e-01
-7.459241993331425236e-02
7.205217471562644360e-02
5.298128553149442956e-03
-1.338322323386014201e-01
-1.270912113997450243e-01
-6.638238113470532054e-02
3.040195804570316324e-02
-1.255654317159630717e-01
-1.503690671894712116e-01
-5.339173696869605606e-02
3.655116009276372646e-02
6.804826026399490857e-02
4.972607581208602495e-03
3.107396336133783771e-02
1.619304437341083022e-02
-2.490252874673803615e-02
-1.926772892070566581e-02
-1.612441249737742166e-01
-3.230131110351432966e-01
-3.108437085688346424e-01
-2.582975575083815700e-01
-1.175101916674480551e-01
-1.595784405226264580e-01
-1.105176262328475961e-01
-2.567070027297576815e-02
-3.217842744719143916e-02
4.697645777984542359e-02
-2.593542704599269277e-02
-1.279430109323588804e-01
-2.961254652750322860e-02
-8.965744983848793551e-03
-5.393595617834566480e-02
1.241388606823470853e-02
-3.365565298495594437e-02
-6.627675911718035676e-03
-5.751010631436925119e-02
-4.159206478488172015e-02
-3.818825369440574657e-02
-6.032755116769069476e-02
-2.189865325867477452e-01
-2.974574180114312183e-01
-6.339699529147139155e-03
8.089939166063611631e-02
-4.906504467141430473e-03
4.164864087393888720e-02
1.643776618493261732e-02
-2.145054867804013776e-02
4.553254375743390897e-03
-2.281536046809168675e-02
4.492653153012124423e-02
3.597566864604496290e-02
-6.092345903519412811e-03
-3.866375634234260616e-02
-2.029590974512119825e-02
-2.201529875465890046e-02
1.880938657267927638e-02
3.752986811008116735e-02
7.520716580458117195e-02
1.578429236238632072e-02
7.192342287519206366e-03
4.089093208286041781e-02
2.132034393305858033e-02
-4.647913942099759360e-03
-3.571110659648133595e-02
-3.273916465602833697e-02
1.846080103119625412e-03
-3.316179808735125745e-02
2.203487714013668949e-04
8.545827498617484738e-03
-1.096795367808303841e-02
3.731177586748816999e-02
3.981274845914745814e-02
-4.329862694214801910e-02
-7.156762849804490512e-02
6.324517741353377111e-03
2.364944992720368830e-02
1.166336906176359059e-02
-2.876584456142050258e-02
3.534166162496805985e-02
3.391405008918507713e-02
4.662027495254928572e-02
-1.636083939572765601e-04
-5.080836813498981752e-02
3.138306064354688674e-02
4.198021147609209275e-02
-1.561688665360666875e-02
-3.548939567901535086e-02
3.306414736751733113e-02
-3.930113869507309565e-02
5.262358539844642219e-02
-4.996532579603307767e-02
5.333549009770762600e-02
4.029875551856653554e-02
-3.175342658639547511e-02
3.170807397399573457e-02
-3.160122629530690008e-02
-2.073011908818280999e-02
1.228102150285203392e-02
4.347607898837388407e-02
-4.899412009224916528e-03
4.484893011470662827e-02
-3.667761059289429554e-02
4.670299282908960126e-02
2.618513718723363207e-02
2.743040489742016100e-02
6.583397509880257320e-03
2.611703956190495821e-02
2.218318094563523704e-02
-5.000804086077053658e-03
-4.737996398667138065e-02
2.108429643014057137e-03
9.098347734518745858e-03
3.769705782808555061e-02
-3.926388068713112731e-03
-4.355114945763362971e-02
1.024555190349584789e-02
2.228917674753501041e-02
5.013141208539139554e-02
1.306516647459037526e-02
1.945754912076955168e-02
1.050083947534585956e-02
6.959756946243714215e-02
8.806716493633490184e-02
5.763678960384977651e-02
9.929773483574448611e-02
2.501119748396875980e-02
-4.348045373161140564e-02
1.400028774845122302e-02
-4.150140712122064868e-02
-1.697730061717251174e-02
-4.484665054908607701e-02
4.006203892876558648e-02
9.762297285672294489e-03
-2.517919203235127398e-02
-5.739670158198863399e-03
1.502542420744759633e-02
2.622312408061269404e-02
-5.480510620169969094e-02
1.274504520376508118e-02
4.689549951035491826e-02
8.809023722551864721e-02
6.693064830605263693e-02
4.261094823053166586e-02
9.545724116587789299e-02
1.527784416585046823e-01
9.323588437625614234e-02
1.268356239170851663e-01
7.341765024897993486e-03
-3.611783490594221852e-02
-6.283536653943122552e-02
-2.767887654019744043e-02
-4.288655242725177702e-02
-2.168791938345898587e-03
7.732067106689354853e-03
4.796623400726929276e-02
-6.179204378265702388e-03
-1.208530906298865837e-02
-4.829262177690027413e-02
-3.403731375605898585e-02
-6.070625227014268821e-02
-3.561447607127607440e-02
-1.487469331014695528e-01
-3.778879136615132528e-01
-7.339352114595436294e-02
2.453642207549622256e-01
1.198847321189700360e-01
1.272374292950110009e-01
2.177606341024940217e-01
-5.002036690174134492e-02
-2.216832126792391555e-01
-1.449451199429944159e-01
2.456927761920632558e-02
-5.524993413578659779e-02
-1.893362133245535608e-02
1.056607854701369087e-02
3.864958580860788223e-02
-2.689633390830216755e-02
-5.668143303336797834e-02
-5.042388346436080249e-02
2.249552806449724510e-02
1.318222447749067550e-01
6.109786854516381649e-02
9.074579229959360560e-02
-3.624245839626049487e-02
8.157030077904572907e-02
3.241617077610624009e-01
2.895562451763679657e-01
7.576475289970012461e-02
-1.890086509548708979e-02
-2.852490875346745391e-01
-1.319289890613244698e-01
-8.249178855212520312e-02
-1.754648266284132910e-02
-3.022015984065837269e-02
1.943343266981582829e-02
-4.098081466079928764e-02
-2.331253115576637641e-02
-5.193677577383552790e-02
5.022640376575154830e-02
-1.293882353776828753e-01
-1.242228192675139987e-02
1.484883432428646399e-01
2.495034842563448041e-01
2.452084693177690802e-02
3.364042631491711566e-01
3.691014008970792681e-01
8.285909963187226834e-02
-1.226317910694534191e-01
-3.897768993286700179e-02
-2.324131998203652349e-01
-1.641004716561851040e-01
1.754141901537413853e-02
-8.285094050174093838e-02
-3.768219149673134732e-02
-4.964335728288633148e-02
1.489945413404171470e-02
-1.322789464453173469e-01
2.297830599866806239e-02
-1.692462106169279612e-01
-4.208455278410876410e-01
-1.902866770202004398e-01
2.276398257876082465e-01
2.588941382988170226e-01
1.527312521564132275e-01
1.333229167461178477e-01
2.407268972106592353e-01
-9.091721667283973740e-02
-1.234803008028454857e-01
-1.522200289840232035e-01
-2.064099042176836818e-01
-5.920736036717222373e-02
-1.721189260110829108e-02
-8.667913257780013314e-02
1.373160503354514325e-02
4.115870224833478863e-02
-2.236349220912124333e-02
-1.076859538192087434e-01
-3.162886038065358674e-02
-1.828245296624585181e-01
-5.523578579538966915e-01
-6.443646548797006546e-02
4.105156900748574422e-01
1.992184749688019341e-01
7.896325559038593067e-02
2.445945420543360616e-01
3.441009932461097653e-02
-1.266963233728508054e-01
-1.175118794241393066e-01
-1.580647934992307213e-01
-2.375960050737124796e-01
-1.251711204570341018e-01
-2.734665980473147129e-02
-1.313250104122573592e-01
3.632355478576219238e-02
5.135825435060802774e-02
-2.234258871559623508e-02
-1.271205446803098937e-01
-2.952819156438712608e-02
-2.792140976562350607e-01
-6.587907085548710961e-01
-1.490555797224291101e-01
3.264603823022881879e-01
4.678423434955861909e-02
-9.670228431848958139e-02
-4.714560374749066779e-02
-1.545888140802934574e-01
-1.723288181697588961e-01
-5.280592975482608503e-02
-1.616696098779127067e-01
-3.526037368680599027e-01
-2.344762819476370885e-01
-1.310784252280585149e-01
-1.451061250517061141e-01
3.169827618919459494e-02
-4.137816118533300253e-02
-8.179621272595020975e-02
-7.355483432972206859e-02
1.363427636536953570e-02
-2.729003797562730149e-01
-6.288527092030142818e-01
4.999824286836950828e-03
2.904774318111947862e-01
-2.164410386410883791e-01
-5.412876202963231576e-01
-2.195364867980729717e-01
9.599833817068563480e-02
1.277727020684777948e-01
3.390879513704321835e-01
-7.165561499128200729e-02
-2.641051306728316450e-01
-2.233467502848007075e-02
8.436463185251515118e-02
-1.597724928171996295e-01
-3.539597964261513574e-02
-1.029044215436508182e-02
-7.870115495192211985e-02
-1.150077633143250511e-01
-1.108131564238365799e-02
-1.688199418151046516e-01
-4.810646250631789855e-01
3.236063260009606757e-01
3.447887698547057456e-01
-1.040368051603142857e-01
-4.162085962902121739e-01
-5.190605005195361027e-02
1.127152378527893350e-01
4.598857057721593145e-01
1.504000428140322143e-01
-1.315223998209482104e-01
-1.194938722566030176e-01
2.177944310260669369e-01
-1.459419548689904270e-02
-5.321173317611826298e-02
-3.562559416742450830e-02
-1.865948840220873215e-03
-7.893572086031003243e-02
-1.205815519826221316e-01
-1.041335232526566790e-01
-4.152891239548314184e-01
-1.905965521263110196e-01
2.474056123298701559e-01
3.007688550567593211e-01
3.436372707459797032e-02
-9.303757072239329795e-02
-6.682656164572975399e-02
2.407895262100724909e-01
2.983235395280360858e-01
-1.531086961935556878e-01
-8.981769006192537319e-02
-3.295770670054068169e-03
9.811868911755226852e-02
-7.764449536002517027e-02
-1.494098074514436936e-01
-4.308917776080049139e-02
-2.678963794871204451e-02
-7.858297292696835024e-02
-1.832768268012716639e-01
-2.553411345701285251e-01
-5.169764110132172297e-01
-1.437732850210766133e-01
3.392586373287150292e-01
2.343278845883542405e-01
-2.206585678538006690e-01
-2.084721622564674193e-01
-2.800347926198064677e-02
2.142142870877056515e-01
1.018825150833825577e-01
-8.658491560600603543e-02
-1.946952182151550359e-01
-1.517245980856708754e-01
-1.181771215250222024e-01
-2.049382196995115091e-01
-1.314218631332249032e-01
-2.941414187660154611e-02
-3.332403697500537637e-02
-2.257545985345360204e-02
-9.865310572529052691e-02
-1.799232670133887046e-01
-9.935506565447987937e-02
1.082225234261885022e-01
2.605804307904870387e-01
1.643370345649181052e-01
-2.291379738227182494e-01
7.024868124853475516e-04
-1.385485811738133496e-02
4.364100793576340676e-02
-8.646501063685918531e-02
-1.753977986031594050e-01
-7.663338366166007332e-02
-1.218975415647312321e-01
-1.735416114634755758e-01
-1.598155371136694425e-01
-3.617240769671466183e-02
-3.826792733434858373e-02
2.163875636627246232e-02
-3.076372804177414030e-02
-1.321171604441093439e-01
-8.881364558501674000e-02
1.591185145855864569e-01
2.356295223341161038e-01
3.279555182555353166e-01
2.134254861727075403e-01
7.670378856653317992e-03
