-9.563526731296657923e-02
5.200450571719579529e-02
-5.070383094399412427e-02
-1.085408550287331186e-01
-7.067862466676652633e-02
4.024944159416943106e-03
-1.164378840896058975e-01
8.120778899262715012e-02
1.261404047263409330e-02
1.042855866993135511e-01
-2.858410472995826304e-02
-2.120198544346426142e-02
4.492665834343786968e-02
-1.074297957634989947e-01
-6.653639322116038091e-02
-1.172765835528596784e-01
-3.261235810144512415e-02
-1.517143527372918389e-02
6.881835153871193600e-02
-2.501407851942730881e-02
9.633115854142250412e-02
-3.015799593186969940e-02
-1.010523792139959159e-01
-1.104161461965847968e-01
-7.206857497380188271e-02
9.866647436165076890e-02
-6.079219138874507322e-02
1.073731149867301338e-01
1.106950234249796661e-01
-9.745329706631028488e-02
2.798464497794996269e-03
1.013236730996549817e-01
-8.310764533454512160e-02
1.284745588254455201e-02
9.823550835528260805e-02
8.392891399038311662e-02
7.761406085262537169e-02
-4.362478419455755735e-02
-8.163112276243153498e-02
2.330505551463555799e-02
-5.096874787624910280e-02
-1.074935668057101362e-01
-7.839743818765335104e-02
3.289082688653872238e-02
-9.431374957886975996e-02
5.639594269849491220e-02
-8.106099586236864551e-02
7.685985708692781582e-02
-1.812799016902295456e-03
-9.259361182890801789e-02
8.364958036360536572e-03
-2.679764741772740905e-02
6.527943259933002840e-02
2.447706174417162497e-02
-3.524230324564951722e-02
1.119366298537591009e-01
3.226543730673350763e-02
-9.521653651068313559e-03
1.022329328219316463e-01
-3.558209678846793039e-02
-3.722529230976272946e-02
-7.327968772598861258e-02
9.138362378104179784e-02
4.402012401945869235e-02
1.606468365716137714e-02
1.274225669475309297e-01
-2.906596114780542889e-02
1.028527056843368814e-01
2.435210782519491371e-02
9.768695166939136976e-02
-1.071558811347334862e-02
9.651164397521189153e-02
3.421164304463930172e-03
1.086062575154904675e-01
1.197483406089858288e-01
3.593230834889586927e-03
6.957676397316349404e-02
-2.271907873783618123e-02
-4.258762031273866100e-02
-4.135825802702616100e-02
-4.681728409881657366e-02
-4.878698087654741861e-02
2.185797553558665660e-02
6.505877694221917640e-02
5.467219124288651144e-02
-1.085976520863285791e-02
7.657374484132427328e-02
3.532459055631174266e-02
8.864223971308891892e-02
-1.164037137474663829e-02
1.155089192202717191e-01
3.248153346229085831e-02
4.788351794057801175e-02
-2.946045023132791776e-02
7.851943686679618839e-02
1.851801725210817234e-02
1.041805906871811072e-01
8.554682234386072615e-02
1.576667253764434395e-01
1.849364193835691950e-01
4.269255808632950455e-02
9.142422476070111159e-02
-1.314828753429708903e-02
-4.315020297501470647e-03
2.558519559976825120e-01
6.903397948676742724e-02
8.870871187675453962e-02
1.062983236184114437e-02
9.547915095030605481e-02
-3.091344187910637434e-02
9.817401236082527738e-02
3.364801770697819529e-03
1.222859187420519654e-02
-5.303930707672581402e-02
-3.903763445780853575e-02
-1.232187263955872390e-03
2.641122559953544210e-02
6.170895010339319531e-02
-1.138243425272164738e-01
-8.136374526215853220e-02
5.929979605316926944e-02
7.907155859764739003e-02
-1.282483060793474516e-01
1.167219381674692961e-02
-3.331882049758180808e-02
-3.848639650658559203e-02
3.673302105161584813e-02
1.075779591298130777e-01
8.417807572852926967e-02
5.841584093102419363e-03
-4.429709241026551919e-02
5.644278944196613051e-02
7.285005370969925564e-02
-5.015204349782946547e-02
8.309554044632701253e-02
-6.572208411576896392e-02
5.670916274390866429e-02
2.960575554700108081e-02
1.068638207151570152e-01
6.064578057756000659e-03
1.025043453024714057e-01
8.276766183637614127e-02
-6.529392865831301629e-02
-1.085231235007931561e-01
1.473499608490221047e-02
3.377334639666525890e-02
-3.941020731323392062e-02
-2.550221508186155395e-02
2.434283930643277652e-02
2.550622181424805086e-03
3.000705810384099101e-02
9.143067355132388288e-03
5.050349508870115300e-02
-1.044126822767881685e-01
-1.113234888221518309e-02
-3.704950569060470600e-01
-2.691498045536503403e-01
-8.918327699749623028e-02
-5.626504220961704023e-02
-1.385707426528240971e-01
3.543640995962139828e-02
-1.539116122810027798e-01
-9.860435007676393235e-03
-1.166896827403188924e-01
-4.617245667990395319e-02
-7.256295256536364480e-02
1.967779399205960011e-02
8.867116374771377707e-02
-8.581032651472859929e-02
4.265415831571078842e-02
-8.128641277184320280e-02
-7.566696624764612800e-02
3.474409295267791471e-03
-2.126335448590256638e-02
-1.642498346494703854e-03
3.844392719330540220e-02
-9.758274864958454975e-02
4.072857351619090654e-02
4.230295464817554474e-02
3.384222432008707204e-02
8.144867671631386002e-03
-3.715924678464924136e-02
2.482268674371400363e-02
-7.845499927523016948e-02
1.520261063689461178e-01
-6.940752889032017481e-02
4.393770457368452453e-02
1.200449269525477175e-01
-1.468701799804575103e-01
-8.730653663570143996e-02
-1.459178811525942976e-01
-1.502628767952172428e-01
-2.738078657681004002e-01
4.940931404995491973e-03
6.086533535380760085e-02
-7.871367378797974879e-02
-3.085143364482080888e-02
-7.359623887200120174e-02
2.886537239102257915e-02
1.153145526232194767e-01
4.046274165516072080e-02
-5.101971497864841998e-02
-8.920942378141441531e-02
-3.578531716711327252e-03
-5.024436318143199465e-02
1.764481308997630296e-02
-2.288522310056002873e-02
1.295893156166126950e-02
5.652024331560698972e-02
4.618409971144488146e-02
8.063113158787714452e-02
3.442413075342017764e-02
2.534305683775893714e-01
-3.235312095885534839e-02
1.011861328787746761e-01
-6.366945852648864257e-02
-1.265855020770866035e-01
-1.085568599534472434e-01
-1.604289158396949300e-01
-9.488429890987525039e-02
-5.668657404162846108e-02
-1.566616837996987754e-01
-7.359162926598857013e-02
4.535598080774763674e-02
-1.076737946244140792e-01
1.061430378562320809e-01
3.689389450855566632e-02
4.810864414088452529e-02
-4.025066891027330451e-02
-6.189068352548351970e-02
6.777666537243604017e-02
6.215549484503016253e-02
1.338422848097013847e-02
4.339440797470523609e-02
-6.042524018948943615e-03
-2.850837974313006826e-02
-3.757715509194914372e-02
3.843006035564961592e-02
6.985056465963447592e-02
1.263079948140642672e-01
2.567859998800646124e-02
1.093428399848972166e-01
-9.439751085797440378e-02
-4.894362427424738676e-02
4.966263380839412364e-03
1.566064479797026412e-02
-6.445678278810433592e-02
-3.533061685160920895e-02
-1.775048731242368782e-01
-1.053443849301291535e-01
-8.316605026339485285e-02
7.626744213420309781e-02
-6.995400075207797164e-02
-4.965206954039710907e-02
-7.034022407641862817e-02
2.759244325327211630e-02
-4.522562844668194526e-02
6.486596375324250874e-02
-5.624282760429486633e-02
-8.860050707466467224e-02
3.804093440948801835e-02
-8.820615770946728731e-03
9.650327489615886239e-03
-8.431730436984416488e-02
7.114769197183443139e-02
1.248022734693573915e-01
-6.176278579622419829e-03
8.344676369863360255e-02
8.794909716055387960e-02
-1.712555481853152983e-01
-1.136926435864759818e-02
-1.529865930916733396e-01
3.353585943918307999e-02
-1.322833036242943294e-01
-7.746549243644851312e-02
7.754358465778581067e-02
-4.819776959086365803e-02
-1.737834215196800147e-01
1.509643289974903560e-02
-7.225848323381989236e-02
1.125816900689738664e-01
3.910985676891174517e-02
9.865451542001386909e-02
1.196194292834364403e-01
-1.382390857985905464e-03
-2.499218057265984935e-02
8.655956998743874475e-02
5.745827485929380640e-02
-7.689166489652662917e-02
1.297979420761947722e-01
1.005945555114246270e-01
3.279588100995273290e-04
-2.713783362749639175e-02
-3.337857133513746910e-02
7.294741797093337587e-02
9.321416591357242765e-02
-3.780296052686830249e-02
-3.039344792721921512e-02
-1.667199919696492894e-01
6.509795013035386824e-02
-1.268502067513048448e-01
2.371450473565431954e-02
-7.326613868967800369e-02
-5.931028836355880379e-02
-1.595190601725627461e-02
-5.464413038820612606e-02
-2.458382052262273604e-02
5.663243242082940943e-02
-7.657904629250984752e-02
-5.421409379984620108e-02
-7.860853278967298852e-02
1.098061503511462006e-01
-3.101124337950438709e-02
-1.934385603428076181e-02
7.022724551848391616e-02
-1.507551152593813873e-03
5.148916666529155389e-02
-4.634550658586442107e-02
8.024216803349720761e-02
1.231096090288586464e-01
2.801294226309062121e-02
1.244455891140332365e-01
9.055733328296099172e-02
1.335642609389633417e-01
-6.252595633260923935e-02
1.311183703463187321e-02
5.994040836601700895e-02
3.240326263491980635e-02
-1.145308966520420212e-02
2.094307166533927456e-01
1.859363989928861371e-01
1.280216884657822962e-01
-8.828992561427710661e-02
-4.569833239129093144e-02
-8.951788070998565119e-04
-5.180821033934246422e-02
8.067400934773209797e-02
5.331724462606111242e-02
-3.578845519752059390e-02
4.666955871819795931e-02
-3.160606666100825718e-02
1.620714264510488833e-01
1.126232833935783967e-01
1.196854301661854358e-01
9.135516671470202132e-02
3.266023178601948351e-02
2.689038502582140680e-02
-7.067888772327104996e-02
-5.821304921386982745e-02
-1.249480315562350036e-01
1.477167860989203954e-02
-2.600727427162870253e-02
1.231953678978313024e-02
5.943294448388170351e-03
1.269339051365279969e-01
9.630526970070496517e-02
6.985872472185437887e-02
1.188299891513076682e-02
9.266175785779325047e-03
7.814972639773512531e-02
1.911735386876967655e-03
-3.510303915202390296e-02
-1.018360147624192552e-01
5.857327585667824327e-02
8.911301369441010367e-02
6.339359285785775566e-02
8.659128724029464819e-02
7.501543525305799653e-02
-2.603504692287887320e-02
4.746576057265779192e-02
4.495211114473981334e-02
9.300617263424534875e-02
-4.890351616783381559e-03
5.596486338212283002e-02
-1.786149783150819126e-01
-3.503164735521954731e-02
-1.993855732021370397e-01
-1.285327818517094378e-01
-3.550250668629183204e-02
1.377656836111086358e-01
-9.195437243317630682e-03
6.228666539437916622e-02
6.208291506900905088e-02
4.811454491951836637e-02
8.863543289837594319e-02
-1.740624858610083023e-02
1.600919881242955645e-01
-9.556183975526176544e-03
-4.346864944518285395e-02
-8.955502085707572890e-02
1.774863999139165635e-02
-7.777827276170197479e-02
-1.180183069813663110e-01
-2.950596049041798868e-02
1.212721353846413497e-01
-6.948467682688549973e-02
3.392685447836647772e-02
3.329216758218037087e-02
-4.483593132199030495e-03
1.455618201883359178e-02
-8.575385161001355949e-02
-4.077249065082338975e-02
3.051015133746328920e-02
4.291366692608765410e-02
-1.125894141214418137e-02
-2.334118678100636224e-01
-6.112410005527608298e-02
8.633678039946671157e-02
1.019526861884533508e-01
-3.129027099864702816e-02
5.243053436748341956e-02
1.161506179035729919e-01
-1.066768319295784279e-01
4.869699674167007192e-02
-2.953668778418799476e-02
9.177315488164236590e-02
7.938163272766818324e-02
1.233176680500279931e-03
-5.762059145703775365e-02
1.206509105369062140e-02
1.122352077998226283e-01
-4.615995793760328120e-02
-4.406318156041429818e-02
5.181674969897938354e-02
9.296483412429637494e-02
-7.558133118764119585e-02
-1.176340749873208275e-01
1.943034545970897739e-02
-1.050909985866641111e-01
1.531082125680173142e-02
-1.099811133336939389e-01
-1.142275175234287593e-01
6.993030530817546941e-02
-4.783532671069989917e-02
-1.060650327944243076e-02
-7.218166933228273296e-02
-2.161550345568194476e-02
3.967719645280589486e-02
2.399256116251719667e-02
-2.778938785381798726e-02
-4.457006434965554709e-02
1.256795536384833489e-01
4.944164548693071731e-02
2.311741008619180426e-03
-2.922302839350651715e-02
-6.833105241057417512e-02
8.091685768246512783e-04
-8.425765256055002539e-02
-7.564083156569821609e-02
1.125674792114505496e-01
2.205737451081275433e-02
-8.706181389128897496e-02
-1.336540433752611279e-01
2.387061213011269865e-03
-3.438985948275972981e-02
1.059482935241241597e-01
6.405633179222429419e-02
-4.451669056299251831e-02
1.752785419341787183e-03
-7.219182109834967886e-02
6.983419536906385061e-02
-3.941402358658582100e-02
2.173593190263835295e-02
3.775515419452947496e-02
-8.546272300607760108e-02
-3.574647004519572024e-03
-4.777800186357198525e-02
2.498794730040268183e-02
-3.573431350571706216e-02
5.056158865063544935e-03
7.685728275275409416e-02
-1.014026667317647207e-01
-8.765068431592104581e-02
3.554276728666018459e-02
-8.727631515963200914e-02
-1.416113568709869985e-01
1.135984816062707708e-01
3.316671819729029996e-02
-9.033790996793973627e-02
-9.772156828453851252e-03
4.205780327050349932e-02
1.178030019909478976e-02
-1.083543057845444829e-01
-6.996827435747438040e-02
-5.326522663160591919e-02
-2.600736835275875916e-02
6.693667646396321558e-02
2.552198158675410972e-02
-2.219422295698919578e-02
-3.994337657659138147e-02
3.664437308273933713e-02
4.652116535822778919e-03
6.667488297425143429e-02
-1.460323667075939524e-01
-5.573184387013852686e-02
-1.623808646568895495e-02
-4.847994025746155122e-02
-5.256426338630267731e-02
-4.058407777633938479e-02
-8.252248312488080773e-02
7.306502441041982931e-02
-4.994572902247397528e-02
-7.496368409690232042e-03
-1.241144225918260763e-01
-8.060725551849115544e-02
-5.980031438467341837e-02
-1.881157831681384840e-02
9.663653148969283957e-02
-8.888276772886172239e-02
9.598906722822880822e-02
5.532519640281713391e-02
-6.430480631084742327e-02
-9.121608028057446790e-03
-8.378385964733395253e-02
-1.148818640214823439e-01
8.787947207719182252e-02
1.147036721300476597e-01
-1.947529085192231113e-01
3.985532369058401164e-02
-8.432421350200181021e-02
5.097927782957088066e-02
4.292903267847127807e-02
-2.865612893964530027e-03
3.797165059582129770e-02
4.124824299473200820e-04
1.952912017977490380e-02
-7.238391153614200102e-02
-5.883272158370839167e-03
-7.960631129782565207e-02
-1.186806115468365258e-01
-1.440858065279669309e-01
5.849620673967775852e-02
-7.638014986555109742e-02
9.055157598795522678e-02
-1.046393096375117515e-01
9.814807063749157734e-02
-9.802032534090829308e-02
-8.719961043584587013e-02
-1.096243584349642364e-01
-2.010045964054053835e-03
-1.826797702729000827e-01
-1.772952738820484375e-01
-2.886802207778978516e-02
-1.062333098728075048e-01
7.295773166693542144e-02
3.109474358395429225e-02
1.017730769525454493e-01
3.771018076021619841e-02
2.070401970185659773e-02
2.136910673574122024e-02
3.411288189698937628e-02
1.097693717052721507e-01
5.264801564027624114e-02
1.272921080460660478e-02
-7.360079375859104878e-02
-1.956246382643453685e-01
-7.027551213207240688e-02
-1.160417073495508683e-01
-1.278028704322473064e-01
-2.959462031128566248e-02
7.200338868630051792e-02
9.413404244287820744e-02
-3.627804634474708634e-02
7.580860124327221117e-02
-6.289648556603955054e-02
-1.654883180963299949e-02
-8.903911965707461684e-02
-8.285981218227431166e-02
-2.140675280955532667e-02
-1.870780284506572827e-02
-7.022341409093348086e-02
-3.238210096103354141e-02
3.292084677570426138e-02
2.402484939630211980e-01
1.902810297159731323e-01
1.180642913060725718e-01
-1.314390970980065104e-02
-2.358041821100153538e-03
9.377090120458460298e-02
2.544543496672923427e-02
5.624973783417899255e-03
-5.096948399986338252e-02
-1.285290523491400549e-01
-1.210382851502068632e-02
-9.299606793230009993e-02
1.536813394794359945e-02
-3.059779938752512848e-02
6.727154871164051086e-02
2.134205900905378900e-02
-3.475028706076404433e-02
1.447721028915479116e-02
4.608263259319442945e-02
-5.407396302763584767e-02
2.543559165648939455e-02
-1.256935514434339984e-01
-9.580986678236104448e-02
-3.973811693203473105e-02
-9.487623190424245012e-02
-1.334965490476971994e-01
-5.122082659725135656e-02
-1.336930556391716617e-02
1.132456841967181133e-01
-2.494007832413974030e-02
5.763700050037279948e-02
6.725412492322560554e-02
5.892571239459323817e-02
3.064755047469490401e-02
-1.424366006497350123e-01
-1.076273489046740695e-01
-1.645307436348027730e-01
-6.049584186989817591e-02
-1.752546598545238477e-01
6.666213095912591757e-02
-8.715974864500966590e-02
-4.039699860263951114e-02
6.104521357196937559e-02
-9.298276475730679613e-02
-9.887733571919046088e-03
9.240372929475440533e-02
-1.161159033966999293e-01
4.585914071446080785e-03
1.141730480519797565e-02
-3.522187778389510027e-02
-8.315003431006945389e-02
-7.127186697258551529e-02
-1.427698535250812584e-01
-2.565439160476075744e-02
-1.560541218661450069e-01
-2.474852358342602698e-01
-8.153824786425714621e-02
-9.539063359232284600e-02
-1.989823291318396914e-01
-7.390054182526130389e-02
-1.698376637390346111e-01
-1.037447068431582714e-01
-2.147436979108318655e-01
-5.772827629896518098e-02
-7.408532735355624621e-02
-9.692364962593482541e-03
5.221576714703402011e-02
1.769187564156908532e-02
-4.302962282666026456e-02
6.013490153657852222e-02
-6.528704461876018439e-02
4.439312298649750188e-02
2.134796903757904193e-02
3.178550635309352473e-02
1.152536068564702643e-01
-8.314504502730117597e-02
6.404425728478162216e-02
8.828411407516513487e-02
3.172046844107326985e-02
1.250063983425120651e-01
-1.089909928872183076e-01
-9.962782512195003659e-02
-1.274779584466414692e-02
-2.970479063656773777e-02
-4.981548014453155565e-02
-1.468333027743376762e-01
-5.790894097226719633e-02
-2.297759476849083743e-02
-4.163883583911453384e-02
-1.011926597511046688e-01
-4.284216645995836403e-02
-1.390044096649538097e-01
-1.177534469926656002e-01
-5.469878888386667248e-02
7.761009218231776363e-02
-6.927308908214652172e-02
1.173348383424539371e-01
-9.353924841634385368e-02
-7.280922914936296952e-02
-9.839718097304794853e-02
-3.895190139650737959e-02
3.286263783074274553e-02
5.419505422234316416e-02
-6.178729107337159465e-02
7.012180322924767284e-02
1.112462775231488621e-01
-1.816438554076973272e-02
1.581910466619005917e-01
2.241915900978119769e-01
-1.023497223111780562e-02
6.108986922489003518e-02
-6.034062748999189513e-02
-6.036073004464250630e-02
-5.770611448518558895e-02
-7.090140943297250364e-02
-9.945062002196566886e-02
-2.163637487633726306e-02
3.251478623586629563e-02
4.371839779377163782e-02
1.397155710024270379e-02
1.612409250098754132e-01
-8.891605909215662129e-02
3.176240903578004399e-02
2.108755888057478253e-02
-2.671283265065617363e-02
-1.078770483279040959e-01
3.104882582184025422e-02
4.808803241759086744e-02
-1.181382778870426926e-02
-1.110100364431455128e-01
1.135594022012671456e-01
-5.472237749525089151e-02
5.104675010911008393e-02
-8.576871432331563405e-02
1.008779533095834485e-01
1.375804223073220367e-01
1.620704977671587332e-01
4.953672892869132038e-02
-8.975666888473284727e-03
8.277313798143266788e-02
1.070756293503356271e-01
2.077950548707702960e-01
1.698058206508581136e-01
9.521891865022472090e-02
1.151690639928937276e-01
1.455948028585676013e-01
1.813261113325268514e-01
1.746543638149318789e-01
5.655428015686052301e-02
1.866748778700991485e-01
1.161654592311898715e-01
5.974939659758476962e-02
-7.535886698514318582e-02
-2.319195265126221261e-02
-6.321659235715892944e-02
5.648546229155529397e-02
5.595714758885085745e-03
-1.084234208560309609e-01
1.026579539436964367e-01
1.662436657905376827e-02
1.012493580315938502e-01
-4.471800196451947845e-02
-6.769120539543888038e-02
1.235725530535292972e-02
-3.636984558424637137e-02
7.991182635890835273e-02
1.048227129241206951e-01
2.060118351289155492e-01
3.777522412312322997e-02
1.700093794346249909e-01
9.763279995584031590e-02
7.371568594559498033e-02
1.012019831625513150e-01
2.527360683014722581e-02
4.598722261686767621e-02
1.642731588092506689e-02
1.004017938064016152e-01
-1.618198062876379309e-02
-7.928812025524245577e-02
5.332082872405755070e-02
-4.710956933484583553e-02
6.573638091204291045e-02
-7.466449469445506082e-02
7.750467554762389966e-02
-5.202507999967132674e-02
-1.060020025721472026e-01
8.424429383339124278e-02
6.896229249035837339e-02
-7.311582150439567551e-02
-1.154285702300013594e-01
8.007447649652107979e-02
8.458253635709961360e-02
9.364058331346249153e-02
7.883179302494623675e-02
1.133538207773577694e-01
3.032043314154004437e-02
8.132234530128769345e-03
1.198922057804281682e-01
4.520755861889224486e-02
7.008965305909381494e-02
9.487929100708400454e-02
1.071544943495380264e-01
1.275872974154351469e-01
-1.504525090539491315e-02
-3.280782138480658333e-02
-7.124276239247875897e-02
1.464234187000956582e-02
8.911189954697770754e-02
-3.905400849783339373e-02
9.936908742453383347e-02
1.108021383001671911e-01
9.472024837965996313e-02
4.413674805698373366e-02
7.289716277875289696e-02
-8.737044380055213055e-02
-8.724554759249933400e-02
-9.226771261100771837e-02
-1.052099210015740999e-01
5.318265766741873263e-02
-5.375521996103781175e-02
7.503152993904341206e-02
-3.668285994619336493e-02
5.214083722974371948e-02
9.722314373497993600e-02
-8.810574126710926657e-02
6.515446424168980233e-02
2.027851479128250575e-02
2.586601024683571164e-03
-1.273700591844958985e-02
8.337690268753748801e-02
-2.464398948336729567e-02
2.747350936245843839e-02
-1.143526732623949410e-01
4.863549560763611584e-02
1.125011038617624720e-01
-9.632832997712013510e-04
6.223459369686541037e-02
1.159997381137682637e-01
1.068359987244536097e-01
-5.321222580038169336e-02
-6.250552338565830424e-02
4.792477668883567132e-02
7.599744231751592860e-02
6.159389400500397266e-02
-9.199326681168124020e-02
-6.982493978866545492e-02
5.369372967086076878e-03
-9.722070693384879392e-02
-1.965242402970793570e-02
1.987462007624416632e-02
-6.301197306537384413e-02
-7.333400612450052813e-02
5.142965538262563724e-02
-3.557647790801269500e-02
8.042818686206501533e-02
1.143608261112194074e-01
-7.556936543541747930e-02
6.148158758379809047e-02
4.928361981170488459e-02
-1.101634886927925355e-01
6.783009123367124416e-02
6.715284796331626171e-02
2.078641588332115486e-02
-6.597885177165289938e-02
4.932585442728710384e-02
-8.155371467272291841e-02
8.127821213647365428e-02
4.067227550850781304e-02
1.011816079052071660e-01
4.452632894081379883e-02
-4.261262363913954909e-02
1.002293232541060508e-01
-1.174637606672142842e-01
2.345308633283388344e-02
7.037323128154722440e-02
5.206126847700957155e-02
9.328012125153749279e-02
8.993509895298594514e-02
-5.977294714515486718e-02
-3.906899160862230963e-02
-2.761643267599430199e-02
1.009304697273558371e-01
1.130470259653806042e-01
-1.186201455521906645e-01
7.083287783269094640e-02
1.005880007322983577e-01
-1.065685555013393820e-02
9.108747413285733785e-02
4.856152245478227020e-02
-7.271793000229702375e-02
-5.688803933862793261e-02
-9.195225156301804412e-03
8.747334747802502919e-02
-2.930957672548912749e-02
2.615115271251242449e-02
-6.892426257281933366e-02
-1.178343740786902544e-01
-7.477659215749858646e-02
4.797021819250676944e-02
7.605896308644051473e-02
6.447459351796396010e-02
7.384134642518051794e-02
-1.443418135374510344e-02
-1.175988354251393114e-01
3.286536016997947118e-02
-1.125680843132131764e-01
-9.404321758574482604e-02
-1.199745779598308942e-01
-4.615101231207328902e-02
3.155406439425368498e-02
9.189111308719770041e-03
-1.977769674574400907e-02
8.189671718298081882e-02
-9.965078128021694071e-02
1.258440635553766673e-01
5.870246696464130609e-02
-8.835691318776492387e-02
1.872844409024233825e-02
1.908626080877232761e-02
3.319848658360062543e-02
6.997879859827467464e-02
-1.347849326442473496e-02
-6.088662262456358276e-02
-8.345592771479885819e-02
-1.077104056534472672e-02
-1.563878649119723394e-02
-6.033788399096735172e-02
-8.826848127850103753e-02
1.149192740476197988e-01
-1.030685073972631149e-01
-1.406778364905073193e-02
-6.630771692716961631e-03
-7.273300686009266658e-02
2.777545079706925709e-03
-1.784802289436822689e-02
3.820195214676793544e-02
-1.103214570500331421e-01
-6.884080398618605025e-03
-1.491354396872844879e-01
-2.993786053686439338e-02
-1.617527342872823459e-01
-8.880711635267919679e-02
-1.417566048481580243e-01
-2.236474426054935877e-02
-2.155925425868525716e-02
1.185762504783530701e-02
-7.693719350689641467e-02
-1.467519558997344709e-02
-1.181382353745689950e-01
3.404500208531288652e-02
8.813095583331928551e-02
1.072534297162722368e-02
-8.541548306571641880e-02
5.539737382938333260e-02
-1.820520319363741479e-02
1.168600023892960166e-01
5.462002429247253543e-02
-5.352361482535715476e-02
-3.174261482804796586e-02
-8.900759018321180438e-02
9.406084491240193635e-02
4.155640685594128025e-02
-1.763074946571332735e-01
-1.140413465584770858e-01
-1.604320393358859773e-02
-6.921184797594463756e-02
8.456478434196680605e-02
-1.635014204674113333e-02
3.967540746745518154e-02
-1.170998330017253009e-01
-5.426390867055910262e-03
-5.047290800518641762e-02
-3.822480412197452881e-02
3.456822376830364502e-02
4.214946683747006900e-02
-5.963573452636311556e-02
1.733186283958568219e-02
-5.683821850170635986e-02
-1.868674085783676025e-02
-8.238998051750988372e-02
1.181009948251558195e-01
-2.968235562509020237e-02
4.811347481291183142e-02
2.516527421672121439e-03
8.030564641584872487e-03
-7.765924166044632648e-02
7.371549031884598591e-02
-1.394947479998324795e-02
-1.106842252003632093e-01
-1.208562881136338862e-01
1.254156150844345195e-02
3.280402588303921174e-02
2.009540822570320129e-01
7.378647779805083684e-02
2.587972423965133051e-01
2.060384588400442918e-01
3.257124397210337668e-02
9.193753552269141871e-02
1.854243871196571969e-01
8.756084007590993201e-02
7.939420778957874403e-02
4.925827493109648236e-02
1.406117617480204807e-01
9.201931050122207079e-02
-2.363927681914992918e-02
3.531634640136173311e-03
1.349869264827899540e-01
1.134600849763341968e-01
5.354666919328270741e-02
7.639654482816046754e-02
-4.495782336589151766e-03
3.475826800828001745e-02
1.441018668269004009e-02
1.718397939205643446e-02
3.308775219703638526e-02
-8.530492846291380660e-02
-1.667257257692496275e-01
-6.322465465323502676e-02
1.607229842468612391e-01
1.125809579027884505e-01
3.888607337927822011e-02
2.135603773027179575e-01
4.051940801472377757e-02
2.106390395792675507e-01
1.848261833419097278e-01
2.215182878777306186e-01
1.512421999783719329e-01
1.239664546754535857e-01
-4.212174994417542534e-02
7.701761462299965000e-02
1.098198249945187477e-03
-7.655007504595127965e-02
-3.516410495633840588e-02
1.882832387948188413e-02
1.153566832368020309e-02
1.163768081636950974e-01
-7.273451751542085730e-02
-3.933581644028236179e-02
1.987476756069116862e-02
-8.177065816946252341e-02
-3.652504717131849210e-02
-1.212563168856268941e-01
2.169000524926156283e-03
-8.005322805473049849e-03
-1.252005077168815150e-01
1.531743019066727218e-01
-1.330387218384284850e-02
-8.146709315297182008e-02
1.687439290736601066e-02
1.157575364009859470e-01
7.972261666686643322e-02
2.708215518021428111e-02
-3.320684870944118220e-04
1.160383054689551746e-01
1.522039167541744675e-01
1.345849671777312184e-01
5.230996230500289945e-02
9.765481723889631038e-02
1.249215041905346046e-01
8.412226162552594033e-02
3.135068683865926964e-02
3.552991285199254279e-02
9.362013547475209196e-02
-8.697460815255081412e-02
-1.632026778494912247e-02
-1.344437964374701339e-02
-9.260735305680969920e-02
-2.387112436245412018e-03
-4.878656106862912234e-02
-5.287933811978993981e-02
-6.207462999698688116e-02
5.230893510717282008e-02
-3.847860172425839054e-02
7.330958025657408061e-02
1.589621952531053983e-01
1.379429188592817546e-01
6.763459333192227418e-02
-6.694024468144213480e-02
1.111002341187383169e-01
1.892368096046475878e-01
2.387974628118691711e-01
1.648334275831695728e-01
1.273045729113541358e-01
1.344146922281979351e-01
1.025981452483588074e-01
-3.816857492083162301e-02
1.476302077025374304e-01
3.696692797433338146e-02
1.577047495025840351e-01
1.700124709809809620e-01
1.051929665555316890e-01
4.397822303434967273e-03
-8.050649446366001105e-02
3.396503977200863306e-02
3.045027515654684727e-02
-3.041029100131562544e-03
1.138660784729343955e-01
-3.837842138526028485e-02
1.023454942716244681e-01
6.130918051181962619e-02
7.566784416170201089e-02
9.870112603497236889e-03
-3.048536675134637386e-02
1.194860815603937532e-01
1.421855450025281686e-01
1.643690314712950851e-01
2.080570613072358632e-01
1.003045334944668021e-01
3.204008854712592225e-02
9.410781542004413580e-02
-2.297888552919958791e-02
5.529241476228633628e-02
6.762395665156620793e-03
1.457489120363516522e-01
1.086522064563847506e-02
4.518199643275977451e-02
-1.024336756108037289e-02
1.416641859321879082e-01
-3.418900499495536316e-02
-8.561473005295160144e-02
1.145867548579091733e-01
6.804774902343398157e-02
5.835862804162087608e-02
1.146126604199326077e-01
-3.783556569571897704e-02
3.990332259512913149e-02
3.382267358067109209e-02
1.572058258621385485e-01
1.228278390311595136e-01
1.380256242800176614e-01
-6.510131051067384600e-02
1.306258395658936589e-01
1.066187042419245445e-01
1.087123880530405373e-01
1.624952032458512052e-01
1.375057583718104215e-01
-4.053549869529522037e-02
-9.017987634557418641e-02
-2.836494813562452644e-02
8.988214292437370079e-02
-5.064677670381644362e-03
1.242186693004956703e-02
4.353836473542392616e-02
7.425561044199295579e-02
7.836824193101254998e-02
1.524744841208151291e-01
7.662223048032007489e-02
2.106845844700783524e-02
9.496475804200389670e-02
8.277193504172648819e-02
-1.252459489721433408e-02
1.137024704114773799e-01
-2.235147565047985313e-02
9.849104065532972296e-02
9.685942237153327694e-02
1.149442242634642342e-01
2.010688669960036118e-02
-4.728409883440255063e-02
-2.107831864518609072e-02
-1.384368565548990959e-01
-1.452761589678046861e-01
-6.832910868248212588e-02
5.023218479804710673e-02
2.488441073920035981e-02
-1.248326340818049036e-03
1.732162836436896766e-02
1.134707303167390019e-01
2.948260155925202380e-02
1.611321899486500842e-01
1.238607173299579867e-01
-3.693485417326290016e-02
5.726650151882967110e-02
1.078883413133487207e-01
-7.324628405087126037e-02
-3.073960262693068227e-02
-2.463637102205369980e-02
4.302748104826723680e-02
1.161142689595763139e-01
6.401879771994992141e-02
1.242306792095941581e-01
-5.616562816103305884e-03
-2.864568970896756023e-02
2.326924921503014179e-02
-6.338375792819778143e-02
-4.509500881252143101e-02
-8.646209231625404806e-03
-6.080478778742079427e-02
-8.624168731875905825e-02
-2.223242665573410271e-01
-1.342714902647937358e-01
9.826109889819618567e-03
9.593262797724778565e-03
-5.215400885689540356e-02
-1.270617788725290909e-01
2.904360510853304031e-02
4.372622423076033549e-02
-5.410961082844539111e-02
4.310861476299216594e-02
-4.678831203596436894e-02
-8.785959166919345142e-02
-6.456430377001312615e-02
-1.449154032435122363e-01
5.431783253114116222e-02
-8.497816358186867369e-02
-1.098037880396200427e-01
1.186907317425718311e-01
-5.292348553767650676e-02
1.146171583604814644e-02
-3.176606435216761115e-02
1.177352431630786511e-01
-8.479703367870963793e-02
-1.319145076603162742e-02
-6.721190899878559666e-02
-5.217502178247670347e-02
-2.120215806785141210e-01
-1.929477737156790884e-01
-2.641497012786573895e-01
-2.223569579203995006e-01
-3.777378971299200777e-02
1.293229273759356202e-01
-2.129362041708625364e-02
-2.569008956666675447e-02
7.757601959340725169e-03
-4.091320512846447627e-02
-1.109084397420965068e-01
-2.406743482051816596e-02
2.941625050974248923e-02
-1.158895179042352119e-01
-8.185279665718142583e-02
4.978249185439994435e-04
3.008255017630327710e-02
8.808852472356819285e-03
2.536662065231556906e-02
-7.569347295331082213e-03
3.671691029983074200e-02
-3.412414980412600829e-02
-3.912066118983047180e-02
6.124097239511576418e-02
-5.117704121998793015e-02
-8.824061384881372316e-02
-1.660783729222352068e-01
-1.690539261990986475e-02
-1.294700084427850284e-01
2.525529251324646306e-03
-8.635035204994694069e-02
-2.441742105581180267e-01
-1.725633235605250615e-01
4.767597163283956302e-02
6.896526989608424418e-02
-1.766593689293765312e-01
-4.092078885875837652e-02
-4.461933009979001524e-03
-1.589517235645461490e-01
-4.951077734993890311e-02
2.941880028891601107e-02
-5.229496759481666590e-02
-7.285592221754191855e-02
-6.130523425492717150e-03
-1.041988642246817059e-01
-1.666840427325779958e-02
8.069944405685436362e-02
-1.098178267896404436e-01
-9.300815222411884520e-02
-9.764319563285754622e-02
6.479793819398567412e-02
4.388405223860303295e-02
-6.509409171537630656e-02
3.853782632792886187e-02
-1.240223850510134979e-01
-2.933246078663913348e-02
-1.516585327345566780e-01
2.898036529649275841e-02
-9.146103961416950090e-02
-4.358515520357569145e-02
-1.359182163286441758e-02
-1.358480237776805433e-01
-1.888513616314600740e-01
-1.240262707568661471e-01
-1.015320436205278398e-01
-9.659133868734516570e-02
-4.208175610145482859e-02
-1.932292095505509788e-01
3.421833857732461265e-02
-3.441402589846814797e-02
-1.981139360997019941e-02
6.110922863674420752e-02
6.449712232053869676e-02
-7.235369305307252918e-02
-8.827578097126827228e-02
4.114275380335838395e-02
9.219413129286888053e-02
-2.311211739657111075e-02
-8.866904325720084148e-05
-3.558305533282589417e-02
-5.748159527021491633e-02
-9.909025711118826796e-02
-1.115909051107951272e-01
4.613199943680493936e-02
-8.187037962976674577e-02
-1.472799748119714702e-01
7.870434702558569418e-03
-9.123226710172713250e-02
-9.411673653513966120e-02
-7.861115211598276864e-02
-1.693606623086888474e-01
-1.955880905303362255e-02
-1.642367879246454552e-03
-1.147084723154934982e-01
1.131216459034618121e-02
-6.583920689076454280e-02
-1.640901766231165626e-01
-2.979016398852889561e-02
-1.443403227096672070e-01
-1.644602498224661535e-01
4.685084780933432280e-02
-3.892096843654076904e-02
1.431927758611124292e-02
-9.710065541015602819e-02
2.225008357836291695e-02
5.784264703517081295e-03
-5.950260136932884053e-03
1.612943459410611652e-02
-1.428773552029721228e-01
-8.705449433267418990e-02
-5.753861691035028203e-02
-2.908242945135655275e-02
-4.238383262372726751e-02
-4.218944013372637886e-02
7.537261485460168553e-02
-1.155452137073230134e-01
-1.440887811243411754e-01
2.987525285164722641e-02
-7.493544794461760861e-02
-2.051813876879773207e-02
1.645057070511882907e-03
6.116915328664714914e-03
1.809178566212972170e-02
7.799160018029500929e-02
3.827471141181646580e-02
-6.094382329364102929e-02
-9.422723160709021994e-02
-8.282640389378773116e-02
-9.776889725292498001e-02
4.747626654636336735e-02
-9.647661944545211921e-02
1.803913315751983978e-02
5.570140747755009114e-02
-1.319254932924582291e-02
-8.985360767580255481e-02
-1.107861970914015143e-01
-1.017639040394053007e-01
-1.064775687515594899e-01
-3.425145823384356802e-02
2.769788303908029756e-02
-2.164170047487859808e-02
-1.223330559368180498e-02
-8.537950167872901397e-02
-1.445198804965059924e-01
-1.116243807436252261e-01
-9.324138083476202210e-02
-4.354686306345887520e-02
-4.552849747040652734e-03
1.113426813269088010e-02
-1.365080073219158419e-01
9.909639749959608945e-02
4.974585719687613788e-02
-1.402309145847746852e-01
-2.843372181843465546e-02
-8.141176642199353386e-02
-9.460640342804325920e-02
-9.609047466706141516e-02
-2.281843399437963674e-02
-6.017189294840633029e-02
1.156771697431011880e-01
5.864541338439303864e-02
4.768209717827726069e-02
1.758966647737458333e-03
-5.367221102541794298e-02
4.763527076237777241e-02
1.402750803162251293e-02
6.339032573797008518e-02
5.431257404003465156e-02
-3.889387422630982000e-02
-4.868100784324482649e-02
5.608303797192210755e-02
-1.873483025044418021e-02
1.516277696317100410e-01
-7.461010937689011024e-02
-2.151658349435018464e-02
-4.835913158435775627e-02
-1.023163297476792494e-01
1.198528749292540191e-01
1.000607301777722419e-01
1.865997716569534892e-01
-5.075739929942137130e-02
-7.923916046779688749e-02
-5.563074896474904524e-02
-5.678478407127604023e-03
-1.306514774490616926e-01
-6.364457755436275788e-02
5.058831328742261629e-02
-1.083987006050817631e-01
5.769812052765278115e-02
7.905919145615362964e-02
1.048727053972137863e-01
-6.871725586389608453e-02
1.274759760111644213e-01
1.861863875762270748e-01
6.475794296670019101e-02
8.594427017936626112e-02
1.087392630091430779e-01
-2.694700230438866820e-02
-1.346905603798886995e-03
-3.120501877227070328e-02
-2.383848275539603503e-02
3.993377465088396999e-02
2.128174669599833257e-02
-2.861769497300985926e-02
-1.869868848830616992e-01
-7.635298649030064499e-02
-1.706203544739745906e-02
-1.877617927435384915e-02
-1.660409271672350778e-02
3.295199323241886774e-02
-9.296242445125396658e-02
-8.346765431014292747e-03
6.124402358206011698e-02
-4.909035964924603201e-02
7.140240808666117878e-02
-9.269301464786268430e-02
3.257498645708654939e-02
4.898858309459260679e-02
7.689839439939180621e-02
1.989565675524703967e-02
4.002011422449346101e-02
1.667693932652247746e-01
-1.277384311683800802e-02
9.578497166429103538e-02
6.997613565433517813e-02
-4.050433041182917998e-02
6.884357811907335090e-02
-3.363267229323826935e-02
-4.345116690074975196e-02
1.354326253788252013e-02
-5.778763646041955304e-02
-6.157123595659118320e-02
-6.790920355318311175e-02
6.095862616880382001e-02
6.360512953020697191e-02
2.716181984200348454e-02
8.101751876285694098e-02
-6.772580175092274279e-02
1.915821341233566941e-02
-9.913548975003941277e-02
1.192039456806069479e-02
-6.352174209176680679e-03
4.237067243426485830e-02
3.787105242912044978e-02
6.448240614619615840e-02
4.001535951535353103e-02
-9.421723744476036277e-02
-8.804793308194408530e-02
6.175337636031509071e-03
1.422618097319814159e-02
1.161524680476757748e-01
1.441496939798288680e-03
-6.103876670668122173e-02
1.338894027977962642e-01
4.362941878377119692e-03
-2.904597265833117753e-02
1.220120730213234833e-01
1.608283046380194203e-01
1.521811021771712347e-01
1.934974406451117901e-01
5.141094469738892447e-02
3.682308731045225159e-02
1.012717117620249296e-01
-9.532579262229279315e-02
-3.096099239880655430e-03
-4.617476167858030993e-03
5.056707638551389411e-02
6.429823057063666081e-02
4.720193187758473657e-02
5.784721893178490504e-02
1.009811863341844307e-01
-1.057991782980961977e-02
-1.112676206633290144e-01
3.846260693547770559e-02
-7.677393871487322649e-03
4.771557160098052058e-02
-6.202158663966547691e-02
-3.307212875019516912e-02
-8.452386605392107205e-03
1.445812376628619611e-01
3.780436244600002271e-02
7.597315808623196498e-02
1.232484316499708743e-01
9.281289967852461575e-02
1.427291187590619403e-01
7.527847064841911018e-02
-8.798730382646043069e-02
1.378430655043945581e-02
1.650493235849792850e-01
6.932672886211144192e-02
-6.621332722812688087e-02
-4.376441286146167536e-02
1.663909627965232119e-01
6.352754860420796457e-02
7.955902183111578096e-02
4.680065892509381598e-02
-8.863484319513872944e-02
-1.178852973697429168e-01
4.989918858222837372e-02
-1.073843642473001486e-01
1.950159567776858435e-02
-3.821616419547212151e-02
3.054942406195445409e-02
-5.469835570085221366e-02
1.221479549038601148e-01
-2.691289650288366479e-03
-6.516196504927383726e-02
4.732330614466098012e-02
-4.682973176083206172e-03
1.871056482636649365e-01
3.384902705516265597e-02
-6.511183133131127898e-02
-1.195904313032274992e-02
-6.586792830981361146e-02
5.308138549393891931e-02
7.438669200450841179e-02
2.393513300882154499e-02
8.471726645870385555e-03
7.991317610364670476e-02
1.649483034772578904e-01
1.411191365761336469e-01
6.473998510655682576e-03
6.964626383483217553e-02
-2.695031233494884007e-02
-3.701933723347721611e-02
-1.103848474242145189e-01
-3.899687442287298050e-02
-5.277499023994361785e-03
-6.466254971680508723e-02
5.811626293506435594e-03
9.481698085278804367e-02
8.185111446846447814e-02
-1.028479272271587142e-01
4.153617167810965544e-02
5.982792607144063468e-02
1.167634531601021153e-01
2.483208325416585635e-02
-1.442262951423473223e-02
9.519681240963027979e-02
1.141973061072373320e-02
1.165566045017207425e-01
2.087546385374791369e-01
6.359315516657063072e-02
1.736076741904415965e-01
1.665810899402554446e-01
2.171644955960728152e-01
1.176580158028873307e-01
-1.667003653530490159e-03
-2.826041921454654215e-02
2.345904180258148904e-03
7.375081108559070064e-02
-7.134656354416502033e-02
-1.077954319165746744e-01
9.462309491127111893e-02
-8.643494883296665154e-02
-5.856651894608408404e-02
4.053304102192813868e-02
9.652785570963626216e-02
-9.012776780781311947e-02
-3.688586290003937306e-03
1.956379214523562213e-02
-6.736444938823421547e-02
-1.609186744577265071e-02
3.062629073117048226e-02
-9.888823945880893806e-02
-6.534925238209611520e-02
9.901183439175371970e-02
6.311887906785719482e-02
-9.820671352193119374e-02
-2.695981602591382073e-02
-3.831523975668228027e-02
2.721949986125990137e-02
1.156629654008467650e-01
3.283013285048291124e-02
-5.393915938021057871e-02
1.894610177724716932e-02
-3.745020340489883109e-02
9.547388677512556876e-02
-3.715288190313272704e-02
-1.106394691598478058e-01
3.230818003100239394e-02
6.317421244405028481e-04
1.125578242313776262e-01
4.217747209917768747e-02
6.219947976748116392e-02
4.357123712837617131e-03
6.629086415521716347e-02
6.311529024882719940e-02
1.144495875217684498e-02
-1.227317959056316125e-02
-6.084593434190507799e-02
-1.765443298894290441e-02
1.759787405202876531e-03
5.071144112975660423e-02
-1.784742180166014672e-02
1.743912048806623219e-02
-6.807542536827163038e-02
3.972411096264585190e-02
2.503270769304061227e-02
-1.032034254028575335e-02
1.165470972193096838e-01
3.012314822901716697e-03
1.171658162707783779e-02
9.172506022537797732e-02
-9.786301605952711646e-02
-9.613048483830899382e-02
-4.456628624349272261e-02
1.696175691562453597e-02
3.728627633336138031e-02
-7.306447711753220886e-02
4.898373934952453268e-02
4.432747896098681445e-02
7.470731921660571373e-02
3.020489492203867407e-02
-4.858401577342989774e-02
-5.988207917471120856e-02
-2.071142442419997287e-02
-1.034927325585367486e-01
3.168839765288469432e-03
2.664392849582992648e-02
-2.075252162842860029e-02
2.942171085571935758e-03
-6.401952751529330077e-02
-3.609330296821523787e-02
-3.161404590431254186e-02
7.266533728727844754e-02
2.265522735485034703e-02
-4.254923726836982306e-02
-1.037512076802389605e-01
-1.153055456996158849e-02
-9.132328688173742270e-02
3.300062762085804319e-02
-4.770552800435098190e-02
1.041661038361850616e-01
-1.737837783591661064e-02
1.260897767334038730e-02
1.831546439666244946e-02
-5.741329469049016865e-02
9.103210943405409816e-02
9.281171428871912155e-02
3.436241286914535481e-02
-1.561950933761849757e-02
3.941853599186925100e-02
-5.017894817064284113e-02
1.186893560525853347e-01
6.591495952849289741e-02
-1.134742055835070706e-01
-1.035483675462949282e-01
1.251496163973339106e-02
5.699503296163960925e-02
-6.261566187212458390e-02
-5.456276468689078701e-02
4.028178227721098542e-02
1.332396343384164017e-01
1.796304579601251325e-02
2.526670620722587177e-02
-1.418871964908839396e-03
3.811858075838416710e-02
1.065192580079965395e-01
-5.043937920589001978e-02
1.030729872602024200e-01
3.840358090244315459e-02
7.834999612739944330e-02
-1.143998455003710363e-01
1.140850863314552960e-01
6.082105046602108434e-02
8.502137849429826366e-02
5.938831476833841827e-02
1.134789855672710575e-02
-1.117801640037365263e-01
-2.626759067202846451e-02
-6.780828029116987843e-02
-1.085712036103548273e-01
-1.691344891525688524e-02
3.244437518842380880e-02
-6.585101482097689349e-03
1.030397593178445509e-01
1.032662871211564443e-01
2.986852585629331744e-02
1.408229716472497450e-01
7.906146533071843618e-02
-3.647092723723883295e-02
-7.759958833511112521e-03
4.682841285059655828e-02
-2.832328281156760476e-03
2.004001169466005927e-01
4.902201119177571759e-02
4.867418927961050801e-02
-9.047690414160330930e-02
-3.369646719433892074e-02
2.041108833369847941e-02
1.067421772217374693e-01
4.764795734091192836e-02
-5.079728276019410821e-02
-4.931593004947998349e-02
-4.159374323767412590e-02
1.689890883383088349e-02
-2.182616347322142644e-02
-1.027994425398936623e-01
4.270474028566355329e-02
-2.121236439523413800e-02
4.188243623748417327e-02
-5.644404088954336519e-03
2.010838528363037211e-02
-4.673430688152093587e-02
5.090004743008891969e-02
4.466072073438784318e-02
1.056444096337439409e-01
-3.509500667302205973e-02
1.547339864824348946e-02
6.965197302771473920e-02
1.260915638922677912e-02
1.212319204676246681e-01
7.366252554213674475e-02
-2.368699271311762444e-02
1.036065208387516590e-01
9.903785837975839779e-02
-6.659582444867481743e-02
-1.169858682750779533e-01
5.206489205612765958e-02
-2.094916771243761702e-02
2.151312814313146443e-02
9.352232022995564387e-02
6.501249808235337602e-02
4.599565785975349291e-02
1.032587213566834999e-01
7.687674286817233749e-02
1.183737345613516956e-01
-1.017913912219727407e-01
8.729541858912802377e-02
4.431615030636003316e-02
1.874856997093638303e-02
1.865105528653263761e-02
-1.218973989789517570e-01
3.678792656498001967e-02
-1.701067401571333126e-01
-1.946260140343242240e-02
-7.658633942156675700e-02
4.183457862033352487e-03
1.056425674502263906e-01
4.905362943893382122e-02
-1.138681326544595078e-04
4.147554067780541420e-02
-3.760508620171092858e-02
8.152877370745902075e-03
2.555256882359713960e-02
-1.438193015975628153e-01
6.371923902637945114e-03
-9.392648091468498717e-02
1.459762918682004119e-02
-5.048372025915896094e-02
-4.531750391040975656e-02
-1.882320399871835470e-02
-1.140835206893227316e-01
3.623197526963198994e-02
-9.540383887933896051e-03
-1.362295824653236148e-02
-8.048189202030317513e-02
1.199076296492027349e-01
7.951574049736258309e-02
-1.748635546928454243e-01
1.925017878361687425e-03
6.285611274276688143e-02
-5.240168479121225242e-02
-1.241396708749443190e-01
-2.772577593216776076e-02
-4.529476482591861947e-02
5.242879977764513394e-02
1.282963032374918044e-01
2.865805886893788706e-02
1.432182009016004509e-01
-2.147953998723305113e-02
2.721992430342912161e-02
1.761814225952034602e-02
-3.735842371221727992e-02
3.142968890427912110e-02
-1.033787643945355411e-01
-7.551821288452145731e-02
-6.178407885215553980e-02
-4.905784548692732581e-03
7.725299312624325787e-02
-9.195445259404637361e-02
5.827362606298576442e-03
-1.771938317011124281e-02
2.304676872871324472e-02
-6.604263349522629389e-02
1.329788784610673295e-04
-5.210673825012165916e-02
-1.035450806165494758e-01
-6.884931487301154673e-02
2.742821230940743413e-02
-8.526008122170827819e-02
-4.136692156066353737e-02
-4.591250629334843458e-02
-2.565815472717922555e-02
8.272298047187691405e-02
6.395218888132249424e-02
1.024585494712237504e-01
1.038882768059803952e-01
2.860808664314292565e-02
-7.681567757081120273e-02
-5.206151767396289404e-02
-8.295125785125809226e-02
2.070325673803058084e-02
-7.273689631339959327e-02
-1.293555212731186954e-01
-7.177049807472055598e-04
-1.110604744450705006e-01
9.914206489836167868e-02
1.026378829002541904e-01
-6.303909099554312612e-02
2.445628680273539274e-02
-5.785044718663513719e-02
5.562959849718215888e-02
1.246003053875064520e-01
6.198352277183986903e-02
6.603186417619597362e-03
7.299330352176543191e-02
-1.655052737593218082e-01
-2.107163023929394668e-02
-3.121957815455057850e-02
-3.784471994386950228e-02
-2.138510601636106900e-01
1.586976037301392802e-03
1.491927512575832449e-01
1.032729018574800040e-01
1.198738472158866059e-02
-8.252432798699485539e-03
6.545632762882533373e-02
-1.564483996547798295e-02
9.461948096932502883e-02
-3.265786662052894140e-02
1.197664479742091038e-02
-4.003787555485390642e-02
-7.247149923895223819e-03
9.136692350182872013e-02
-8.197834858780804479e-03
1.080152244423669972e-01
-7.503028015177035104e-02
7.703690171924799934e-03
1.187165991668298337e-01
-8.469284679139345989e-03
-4.875021711237521177e-02
1.077835536405174488e-01
-4.239255906034104793e-02
-1.022721005449940962e-01
5.546779252015684308e-02
-9.535754807228313812e-02
3.686793556870310296e-02
-2.243010536028341162e-01
-2.382838674283609959e-01
5.807665432306154119e-02
1.796833710387863436e-01
2.117606378176887238e-01
9.168852592369917953e-02
1.295942760725973765e-03
4.359680063051286220e-02
-8.674381424633982596e-02
1.037262423211093680e-02
7.712164312289843116e-02
-2.514711722698584340e-01
-1.701609694582415788e-01
-1.250347463205593312e-01
8.948622986911243526e-02
1.111534663161793807e-01
-5.183284011463196866e-02
-7.986098514776140966e-02
-7.256390730654424526e-02
4.113593908784275027e-02
1.274007147585106414e-01
1.930015332240542919e-02
-4.883968115242023206e-02
1.142852691846795322e-04
-7.493083945144843327e-02
-9.391956181561050832e-02
-1.189526883301209592e-01
-1.305397164590332004e-01
-7.395399514201715652e-02
-9.751242374219222520e-02
5.287627056293381020e-03
2.289927904623577648e-01
1.350447597576576730e-01
5.379209131718402231e-02
6.404998720430254977e-02
5.565127653516802747e-02
3.255297926948143988e-02
-5.506899918241018460e-02
1.181142814682969028e-01
-2.002436128274363569e-01
-1.258562753346698093e-01
4.459264437940100440e-02
3.856574846633094994e-02
-1.734494744512698333e-02
-8.338053915302861066e-03
-2.502045980743512754e-02
-1.292714240345147272e-02
2.162497309249928126e-02
-7.012161862614312013e-02
-9.101347816219323983e-03
-1.177937760379424610e-02
7.496026899280931743e-02
-2.496023678741798434e-03
-6.562226549672539599e-02
-7.305604904077978023e-02
-1.039151120638215492e-01
-7.239511092699567330e-02
-1.540345235958875125e-01
-8.352260205215660677e-03
5.881106227078673754e-02
1.780806568790347100e-01
-1.642234122380310107e-03
4.874620124844560032e-02
1.034471239590361857e-01
1.296159818878245273e-01
4.900993955154583220e-02
7.753804591814908442e-02
1.108772977741482729e-01
-1.707758837425285836e-01
4.122475393613202893e-02
1.673568893091015655e-02
-1.181157971006545765e-01
-4.545138026354213906e-02
1.071289549865579588e-01
8.165225410920154414e-02
1.037569095019173632e-01
1.033074471705688543e-02
-1.129509364146059763e-01
-4.939222590693198578e-02
1.495848333118615647e-02
3.271541329058192532e-02
-3.994892979481556861e-02
4.507815862496641901e-03
2.740215729964950303e-02
-1.194316195887694110e-01
1.299296787718284656e-02
-1.364837349352094470e-02
7.758320602490804963e-02
1.083608907882578909e-01
-3.949454467995658531e-03
1.274109963695944370e-01
1.294584498254175986e-01
2.170092975058813545e-01
1.885794179275336879e-01
2.683804589822645914e-01
1.919790812374397582e-01
1.080341126963589443e-01
8.535310005820057055e-02
-9.837231152658228173e-02
3.780716293181141108e-02
-5.429903558744418601e-03
1.072235204695061311e-01
-4.522163799814537394e-02
-3.674955757703129294e-02
-5.711847012140733315e-02
7.763624697255191998e-02
-1.041722953174610972e-01
4.399900649398174463e-02
-4.853632364519801928e-02
-5.969683129213359390e-02
-5.971604613970810799e-02
-1.747360239035729290e-01
-7.601122484594312334e-02
2.994687477164672054e-02
1.376819100368102851e-02
2.157579148992687934e-01
9.153073324576665309e-03
5.632770325455398186e-02
-6.237782204088745952e-02
-6.103529316955329936e-02
1.020057511985116155e-01
6.351911245672195450e-02
2.934289638212188023e-01
2.050767733629515754e-01
5.793703873833949691e-02
-8.952614475070851119e-02
2.934612812621517630e-02
1.031768930665233064e-01
-1.750088407986994873e-02
3.537241572084516561e-02
-9.881819486116406870e-02
1.604323566996909353e-02
8.750051963879711125e-02
5.212028366690155817e-02
3.822854260041076008e-02
-5.904243947908867363e-02
-6.426454402673449640e-02
-4.959987073056226770e-02
-3.678948468482045459e-02
3.552899413172360549e-02
8.556797156260916026e-02
-1.796940257062751636e-02
-8.132610743313457846e-02
8.680322344619210984e-02
7.283014785986136053e-02
5.025470208116602361e-02
6.215931669618959821e-02
3.260150148636984518e-02
-4.729527519722996620e-02
-3.826653096109140784e-02
5.761519983432798753e-02
4.519823100430088447e-02
9.876352631598100951e-02
-8.080234597917483608e-02
4.571581481543440795e-02
-3.551893254348159612e-02
3.590858315461728512e-02
-6.173997028749925176e-02
-3.022523899085297408e-02
4.475528607898461575e-02
-2.209935795667439598e-02
1.068923059094708944e-01
-6.881290745324032676e-02
1.472369385522808161e-01
-5.244579853011106796e-02
-4.369849119133458609e-02
1.100436100795699340e-02
-1.500901027493790375e-02
7.562261998582987810e-02
-7.201984850405410837e-03
4.946058709576334200e-02
6.667283104169084706e-02
1.264652386794682115e-01
-6.647230995126619801e-02
-2.461042888265547145e-03
1.601164583836467703e-01
4.310412536947771933e-02
1.024539915778393123e-01
1.199683424302465384e-01
-2.944375246616553511e-03
1.180388663660358467e-01
1.066320213536297301e-01
6.673185073931799105e-02
-2.372809816426778989e-02
1.378678616110735888e-02
1.161806584460352461e-02
1.645383559080756258e-02
3.225562453353242494e-03
-2.721689589256448549e-03
6.139661429420515543e-02
1.688379907502482458e-01
5.506289937351738044e-03
4.312510957101489684e-02
-3.972383407639991371e-02
-5.420619051551080203e-02
-1.111795614676175242e-01
-2.648917959556645191e-02
1.326881789968321901e-01
-1.463391352083593874e-02
1.376222436120398962e-01
3.780503922859845822e-02
1.087686666306514061e-01
-6.046427032689172601e-03
-5.494544602870048144e-02
-6.521092754530058259e-03
-3.966821820166042956e-02
-7.727933525451774477e-02
-1.083930424142628447e-02
-4.066424756260309664e-02
-1.136709483703953194e-01
-8.359948097067431208e-03
-2.414315128448243572e-02
-6.294986648055021783e-02
-9.683406890728896155e-02
-8.442487640665298498e-02
5.496510737494843257e-02
8.062344732031642702e-02
2.617103510234339847e-01
2.078004251495943755e-01
1.531374462077792209e-01
1.960485015919531948e-01
1.296325142562359048e-02
5.565917190448817914e-02
1.370242161381305390e-01
1.063342351192130830e-01
1.637750023183197068e-01
-8.709013062726145282e-03
1.161078278394700874e-01
-3.629337253395819446e-02
-1.011893138589992358e-01
1.357250552401140231e-01
-5.065169643453851234e-02
-4.684269950087262963e-02
7.312759118233426447e-02
-1.295564424376101018e-02
1.089996692609398153e-02
7.857313437661733735e-02
6.008536196698469056e-02
7.771964451724922007e-02
-4.779635427186653546e-02
3.870478986320149278e-02
1.425099808058874658e-02
-1.536491955044202717e-01
-7.448572296202744802e-02
1.125453869361066166e-02
2.950819298945099936e-02
1.008119365392240625e-02
1.822822088117532491e-01
1.986503297917973088e-01
2.505675937958725674e-01
2.546552712679763242e-01
1.524731938570399736e-01
2.631696435366725519e-03
-1.014040811353662669e-01
-1.269380267457408985e-02
-1.888406669550662595e-02
3.391647404944151366e-03
-2.380166168329838836e-02
6.059423496791491864e-02
-5.924487305518606056e-03
4.198643334309229772e-03
2.150107382837607162e-02
-3.206124928340526453e-02
6.409036228445651184e-02
9.308809807164893091e-02
1.147726770501246996e-01
-1.057769449629007846e-01
7.666252459862252233e-02
6.253855718416129195e-02
-5.527344504392659591e-02
2.099272778015066204e-02
-1.038255784121207004e-01
-6.498460350093064608e-02
-9.624318820907047656e-02
-3.132328173563881518e-02
-6.374201320034467155e-02
1.329904009238514484e-01
3.365155364737396852e-03
4.698656634715688701e-02
-7.311260242971072409e-02
9.053925179553824060e-03
-2.802323955946000970e-03
-4.095152702455946009e-02
2.197866369944014714e-02
7.385072718694840610e-02
5.613056770136755358e-02
-6.832373646994084615e-02
6.049542839764214530e-03
-1.411147670237755392e-01
4.067581265549776587e-02
-6.413106345793799512e-02
-8.524498947088732237e-02
-7.051610486966287950e-02
1.141208540475785321e-01
-7.383002792019190130e-02
5.297159041150400344e-02
-1.823039579236861857e-02
5.385353460825706429e-02
-8.655949239139269780e-02
1.521309549371437607e-02
5.563869858788349915e-02
5.231107031675489433e-02
-6.317479338074621920e-02
-5.147356562463138718e-02
-1.322760026220790308e-01
-2.307402466142229394e-02
-1.450505817957019605e-01
2.940966831186989441e-02
-1.316514249983321005e-01
1.186111159182840803e-02
4.443820586181103371e-02
-2.382508247604852442e-02
-9.568838234196450077e-02
-2.708942723035761072e-02
4.384474707989259590e-02
3.239805133502988987e-02
-1.015205641092165739e-01
-1.677279439250877191e-01
-5.265696227943933438e-02
-1.138538527141413903e-01
1.006998543395572210e-01
-1.079895149245871933e-01
3.092159431943430382e-03
8.236390506548633972e-02
-1.058129449105049968e-01
-6.468503475627114530e-02
1.267206157565043583e-04
1.335612272892554601e-03
-1.390928353403070479e-02
-4.995308540933598301e-02
1.505780086730778428e-02
-7.388987838228097682e-02
3.396291850369281135e-02
-7.070583702125783632e-02
-4.000989011444489041e-02
9.612208157564541833e-02
9.709203513549027886e-02
-2.392737782642617023e-02
4.660257736590616567e-02
-4.631804575958464038e-02
-6.325435365227848050e-02
7.145239636025306484e-02
-1.598614938013770415e-01
-2.012754945665667233e-02
-1.948987692246104131e-02
-1.033425001629658807e-01
-7.074942242116130653e-02
8.349076310827523856e-03
5.116270227551289462e-02
-5.495778905313648127e-02
-8.835246978167166088e-02
5.753132763374489006e-02
-6.011727638103352839e-02
-8.526779696522530580e-03
5.214087441155762503e-02
-1.006228928798777594e-01
5.578964882784412382e-02
4.306129996015464756e-02
9.621737311865434517e-03
4.908576609985142863e-02
2.979895813632370619e-02
-1.393253097706153611e-03
-4.232278793394186195e-03
-8.262873040289185622e-02
-8.274080236110625819e-02
-5.656835308714345395e-02
8.062870102438043918e-02
-9.194751140048877669e-02
5.848120469953134448e-02
-1.484904637783521497e-01
1.398243094878932370e-02
-5.497760630693089567e-02
-5.815340102024400826e-02
-6.519985631462148212e-02
-1.162619055109930521e-01
9.517891695463123747e-02
3.942844366383110866e-02
8.089818652417851697e-02
-2.956504776371024143e-02
-6.647379937172116782e-02
1.975923482298330702e-02
-6.662637522812932256e-02
1.073577726912734176e-01
-4.990452463288400087e-02
3.006879771824395170e-02
1.221515604033529198e-03
-3.078175743597555761e-02
-1.242001700150450159e-02
-4.719602202499824373e-02
-1.880609177968728743e-02
-1.090348438730659869e-01
6.732486921059510632e-02
1.521175348477221412e-01
-1.509415983338164777e-02
3.152939047797517682e-03
-4.474432492373453529e-02
2.334690619614625956e-02
-1.177245104812986616e-02
6.448188572161116239e-02
-1.039700873724373406e-02
-1.241834260921175492e-01
-1.127354226748339822e-01
1.954613875029266243e-02
1.818821063098177357e-02
1.137216351081609539e-02
-3.201183810793090112e-02
1.160504825675051227e-01
7.706104928231211071e-02
-6.264031774186583357e-02
9.089109197324569955e-02
-9.172637544691593370e-02
-3.578505528760479726e-02
-6.245297263517190361e-02
7.466448524644049567e-02
-7.641677559763078442e-02
4.806311957404914292e-02
-1.420457347351063160e-02
3.612939889644486893e-03
-1.001739882444499241e-01
2.506332409029236527e-02
1.591716697155917334e-02
5.812845818294073985e-02
-8.574630370456541584e-02
8.687164292751213546e-02
3.859434734617462476e-02
-6.589345502999173487e-02
8.994145373575354596e-02
-2.437798762026518670e-02
7.324395411271227008e-02
-7.835734813688710609e-02
-1.070799464657410660e-01
6.860653833805395799e-03
9.351102319171537836e-02
-7.257408056334234414e-02
5.918601957853995843e-02
-1.121811929768797567e-01
-4.909350912886217139e-02
-2.615250592372213995e-02
1.921130601053589945e-02
-7.597601491983843602e-02
-4.995721922330633585e-02
-5.150115855069255233e-02
-1.348389285106201159e-02
8.729406727972237323e-02
-8.495223676530305745e-02
-7.036155868649042466e-02
4.963692788131134764e-02
3.925653489003350267e-03
-6.210136350945243133e-02
-4.514380758559081996e-03
-1.003216672577241231e-01
-5.559379877170806533e-02
-6.790670669157733430e-02
-9.452450976089150914e-02
2.546584713109864909e-02
6.939599504449847633e-02
7.063486179404054877e-02
-7.222710146892150074e-02
-6.116820592919487709e-02
-1.848324372068207988e-02
-2.242334569584120661e-03
2.453202227993882267e-02
8.138847787591450833e-02
-4.421145069286836621e-02
-7.769202279563422464e-02
-3.608670785533257385e-03
1.133653848253507040e-01
-6.970083571076150786e-02
2.992222834375543247e-02
-1.207643254852695282e-02
-6.100752820946895444e-02
-3.429770594148465884e-02
1.491410932511615106e-01
-5.971873690739471635e-02
9.049219832178441447e-02
-2.679865842408865606e-02
-7.813204967635090092e-02
-6.064797394314457718e-02
-7.176233095270657947e-02
-4.195144796881878496e-02
1.374402107228899850e-03
-5.518588549808514654e-02
2.653156910623837711e-02
-3.138416609490838217e-03
-2.950201460800174966e-02
8.325549100358270102e-03
-1.159483384679475537e-01
4.557131937760078300e-02
-1.175908576829506058e-01
-5.433700779536664721e-02
4.461480422928098405e-02
-5.100024768638258821e-02
1.457981537452119475e-02
3.518424549325636225e-02
1.083246347947983551e-01
7.598905767593173988e-02
-7.670967433842949823e-02
-3.476876877337303079e-02
-4.801252349108971196e-02
1.903444371862019618e-02
-1.040436505617300250e-01
1.045399769199194528e-01
1.015921352906958841e-01
2.108287205029295980e-03
1.017184963311014156e-01
-2.766544739646866619e-02
2.078616964188433665e-03
1.212620336901117958e-02
-1.035387871817105010e-01
6.959098713346066611e-02
-9.312824093633977063e-02
7.539087251439952064e-02
1.022447383990150900e-02
1.117519255987461657e-01
-1.110135866772709312e-01
-7.539793935484255527e-03
-4.344177125462719835e-02
9.661357545241482103e-02
4.694542586390901967e-02
2.561562053513822407e-02
9.381674838561379626e-02
1.785259849430558335e-02
-4.413467982316129218e-02
1.167929784216275718e-01
-7.547227910479968604e-02
6.688732297030623719e-02
-1.126046597460733933e-01
4.895940838439936937e-02
-7.031628650681233383e-02
-3.785197078491830350e-04
1.029396771025899299e-01
-7.562542959573491201e-03
2.338008826505799317e-02
-5.182259802119493219e-02
4.616463073095508629e-02
1.074260832875860994e-01
1.132029525981014945e-01
8.598670835455178574e-02
2.520460986862825201e-02
6.156084495193087308e-04
8.165599200551613979e-02
-4.750941165804832556e-02
-2.586571112975806844e-02
6.990263241886787715e-02
-6.641238816984242066e-02
2.159062555495218014e-02
-8.738720729274215837e-02
5.231163915962845634e-02
3.940157794186006923e-02
3.462286368494838645e-02
-2.906812165453732250e-02
-1.179292324295838218e-01
-8.872764739699696979e-02
8.979213118881264333e-02
-9.909142995837576587e-03
6.464055639851429280e-02
2.639730441730536031e-02
-5.114286668785423401e-02
5.182194795181174762e-02
5.529482017557418860e-02
7.801049226824184613e-02
6.172011362493756183e-03
7.914616015665676407e-03
8.131526562053553731e-02
-2.832952210386563072e-02
-7.108950019534220066e-02
-5.579536273197652219e-02
2.040135676557331204e-02
-5.766308976386526688e-03
-1.140669497324664633e-01
-3.381713022739286922e-02
-1.062845200556786357e-01
9.700925787529493527e-02
1.411122965823593221e-02
-4.760506182700898620e-02
-5.464323526802616904e-02
1.081913162409727375e-01
3.466262710819281029e-02
7.375320918138093818e-02
-8.910537470839040991e-03
-8.699856126278451840e-02
-9.520952676996732866e-02
2.565327202121417405e-02
-1.176259879005953557e-03
-7.379287040775468764e-02
1.019821722136210612e-01
-1.092511100916884574e-02
-1.527034162975597111e-02
-1.284235557570999678e-02
2.165331517235077538e-02
3.710061755717383031e-02
-1.283957559965095141e-01
-3.040645179484229021e-02
-2.760131868869651270e-02
-1.060184579957110240e-01
8.186763117773462883e-02
-1.072938391581978040e-01
-6.325693273835464314e-02
-3.327382903347577553e-02
7.808899913101068069e-02
1.046854896351761960e-01
2.313041966294124979e-02
-1.066387940542252444e-01
-3.734562148073824334e-02
-5.534041715833062057e-03
7.294240097428655867e-02
-9.768657395947803745e-02
-3.051553175538473592e-02
1.514996549978731358e-02
-1.155490841810755259e-01
-1.203692410264336626e-01
1.017494951898138683e-01
-2.630019246023180407e-02
-1.126602201119339813e-01
5.254138821878263227e-02
6.115662026113300592e-02
-1.050906601052324502e-01
6.964124272282098960e-02
-1.203133968447435975e-01
5.493323597455338630e-02
3.659790836699858968e-02
-1.160218777190388101e-01
3.532223794677691407e-03
7.532341708072443076e-02
7.563494626346770056e-02
3.881545039596706603e-02
-1.437269521581115150e-02
-2.505341595019417236e-02
3.799355496189029541e-02
-3.625810434548080302e-02
5.802721281393107000e-02
9.767402654466411649e-02
8.780631120217778640e-02
-3.510966205000204399e-02
-1.148153593006505935e-01
-9.323537945080130618e-02
6.926574332869858686e-02
3.432843281113354128e-02
4.003078698235761068e-02
-5.172077626741706374e-02
-8.658854906635994608e-02
5.607899609894310272e-02
9.662246236777127795e-02
-4.338642344486669938e-02
-3.948529710414909466e-02
1.442667208432193635e-02
5.871658493591821321e-02
1.040870802696850644e-01
3.387891567838444140e-02
-2.329936258919644912e-02
-2.914514196607244714e-02
5.949791169753989445e-02
-6.581832097724689412e-02
1.563173401074909319e-01
3.742585692169533851e-02
7.691556153803455649e-03
3.098024609461026355e-02
2.051062287199140882e-02
-4.449192884386862779e-02
-9.001347483340069178e-02
1.040479277514405748e-01
-7.965062103929014536e-02
7.072286339160140101e-02
6.528179658879314229e-03
9.954582567996873507e-03
-6.675188997661848922e-02
-3.441590515085722612e-02
-5.694098318843439366e-02
-1.111845645281274095e-02
1.477910978709931662e-02
-6.612904350995919139e-03
5.079907291704098202e-03
-2.931306834744708614e-02
1.202367595702789546e-02
-9.177650740593802300e-03
-2.586365070365910165e-02
6.766116186058510062e-02
8.711930590969994836e-02
2.048761061043308240e-02
1.375048939527095948e-02
1.470121437071046644e-01
5.915651482397487476e-02
9.356209439449825194e-02
-3.959547806230115374e-02
-6.207352535829496060e-02
-1.118672081227258808e-01
8.242990768874379481e-02
5.115398943727045289e-02
3.974125549111357653e-02
-4.395346196654853488e-02
1.516135042599721199e-02
1.582717766524632461e-02
-1.018265656942459255e-02
5.596558939418957296e-02
8.149075222437512922e-02
-6.083041081421845797e-02
3.676460333630344156e-03
-6.475160352906372818e-02
7.004735595566506656e-02
-6.869198482116811721e-03
1.870416428336347733e-02
1.108706487545783048e-01
6.865549029878767473e-02
-2.099648302116649372e-03
1.130063975686279171e-01
-5.442296294503377180e-02
1.095758811669195337e-01
4.440690498577332113e-02
1.121658010717764414e-01
-3.235933961528716929e-02
1.079342859241735758e-01
1.741879572481937720e-03
1.112637412741458026e-01
1.295412246939731116e-01
5.808259443840402270e-02
-8.720178144373860740e-02
-3.134393248675661908e-02
-1.521320226167273242e-02
-9.242473856272884203e-02
-5.761626723219977902e-02
4.304966011017323513e-02
-1.164099411315431681e-01
1.902375156445185872e-02
1.119625791476529658e-01
-7.713999193255014451e-03
-7.462023588578935163e-02
-5.418112117483870477e-02
7.133577653918381570e-03
5.391878844863780187e-04
-2.554347697231634448e-02
-2.618997027407906492e-02
-7.698133908461748769e-03
4.318239275755178519e-02
-2.124879726006933915e-03
8.590435955192610162e-02
-6.376582504349552483e-02
1.031304177935511157e-01
1.721326337192901623e-01
8.582160123303862742e-02
1.775015307422276034e-01
9.804220974035462999e-02
-9.005155124414415332e-03
4.760763340858892995e-02
-6.440561567969681515e-04
8.522679010649443151e-03
-1.089226965969997823e-02
-3.424506096688732792e-02
2.366297275809492451e-02
-5.353982035268329415e-02
-1.661058201562058689e-02
-4.121713180145484406e-02
-6.025256014981560798e-02
7.135318063984288917e-02
2.108478272071248258e-02
6.278855429334551097e-02
3.385053613612403617e-02
4.534986480756047350e-02
4.354439051158402740e-02
7.330614451310776825e-02
-7.487940998144829163e-02
1.852396965038845614e-02
-1.059381190559950947e-01
-7.749974264600077711e-02
8.233159471370463112e-02
1.355514392785885647e-01
2.323637032908057731e-01
1.320398562130048747e-01
1.160926787413565919e-01
1.707849517506239145e-01
-2.057781590857336168e-02
2.836633873496171784e-02
-3.597423858818318831e-02
8.616896683503909304e-02
1.116282394655770949e-01
7.347824635625856138e-02
-2.145964649849798137e-02
6.377827768199526536e-03
8.128640952429991295e-02
3.441388308714250083e-02
1.260510766440628427e-01
3.495748339630551371e-02
1.154277561372994559e-01
6.516652700580420621e-02
1.030091088769602009e-01
5.192181392180646171e-02
-1.202069929494383738e-01
-4.738585935973346069e-02
-2.926438640874341399e-02
-7.783441834953395977e-02
-5.866114597097756705e-02
3.601374978141146099e-02
1.865991089243713152e-01
9.494649039524279133e-02
1.435174522219835325e-01
1.465612888558865366e-02
5.795285075392356267e-02
-9.864125393204220549e-03
1.942892888662557382e-01
5.631433728979395870e-02
-1.044555505082231522e-01
-1.023066804180784994e-01
-1.956363343053807088e-02
-1.032354853060719196e-01
2.423470240794566022e-02
7.689819743030647942e-03
8.501538640559631876e-02
-7.484344547885915522e-02
-3.924851842332949259e-02
4.829059950363148723e-02
1.479070465883494112e-01
-4.571212988573291475e-02
-4.963183757629729964e-02
-2.830139192106141677e-02
-7.506343570535702059e-02
-1.567883164659556738e-01
-2.999882938343785208e-02
-8.611520318343494906e-02
-1.436689163023107951e-01
2.166280485082886786e-01
2.029575568826815224e-01
1.636436588623496058e-01
5.388183661609372010e-02
-4.687305335472077145e-02
-5.915384417984622528e-02
1.800627167763956260e-01
1.044618010149166443e-01
2.326820837570901801e-02
-3.095067938834501417e-02
-5.761308465526065320e-02
-1.513697877642470116e-02
-1.141728210027281171e-01
8.707389423464587108e-02
3.509305455816280877e-03
-9.294340838861747667e-02
-6.554281758648368428e-02
-8.517371126486401878e-02
9.444390999591874281e-02
-1.290550695170448459e-01
5.510104347042128065e-02
-1.108590789485905531e-01
-8.299160225528189050e-02
-1.537659814459235441e-01
-1.278739500082105018e-01
-8.281430178006067566e-02
1.418971174458330820e-01
2.525821335374464072e-01
2.992720743796370986e-01
2.327721391249157890e-01
6.244723317771896931e-02
1.301160497696473087e-02
-2.472963984168922991e-01
-1.314858696042056907e-01
2.041089226272622958e-02
1.377683683219907695e-01
1.154237929316052763e-01
9.904835176280647052e-03
7.519419230349086436e-02
-1.004022416546832969e-01
-1.205480419946573373e-01
-1.051406211704087115e-02
-6.422241970501853248e-02
-2.105045887590151904e-02
-4.496208376850657773e-02
5.097022073223341637e-02
1.952245456347900116e-02
-1.289885964423640730e-01
5.363172330559370926e-02
-2.056909856184666388e-02
6.334264468678201324e-03
2.995672481770021364e-02
-1.082847756581495346e-01
2.497316284897164659e-02
1.789567033630456994e-01
1.517216886955101152e-01
5.923172356367321228e-02
1.403748703197142123e-01
-1.319602458606298784e-03
-1.311767592779872482e-01
-2.508746135997883542e-01
-1.184149748932662310e-01
5.213840002371130516e-02
-2.970296288250952668e-02
9.637048000475190168e-02
5.788922244784030363e-02
-2.307941978035809444e-02
1.279866243808957908e-02
6.911047980879130026e-02
9.188121496322161630e-02
-6.467241546492979998e-02
-2.937206297210653155e-03
-9.296049557040284017e-02
-2.692931102212435188e-02
-7.503382040031023048e-02
-6.962071750436303608e-02
-7.205828100161836350e-03
-4.454420287475403112e-02
-8.365892720564641061e-02
-7.263078143541570886e-02
5.956771952530122080e-03
1.034782093699063016e-01
-1.873771459424940786e-03
6.896971745460028780e-02
8.566203852036467781e-02
9.727072932068626943e-03
-5.640626719696469060e-02
5.718964481410623163e-02
1.160601863497944149e-02
-1.905875534265084603e-01
3.465894551042477539e-02
-1.069056181503123398e-01
8.260703566408879317e-03
1.378536354082705688e-02
6.277538361280513013e-02
5.284647710584450958e-02
-1.023807155998072704e-01
-2.687106407959409179e-02
-2.887071604663267801e-02
6.591215543800163501e-02
8.715911905361679868e-02
-5.126330774110585131e-02
3.032204957514559457e-02
-1.013287678812472030e-03
1.195928433256016749e-01
-1.838199806656597851e-02
2.426090083767281150e-02
3.138638354266896219e-02
4.614686713823499403e-02
1.552187113635353222e-01
3.252444467934227645e-02
1.254273886619178546e-01
5.520791632477799193e-02
-5.951140646276593948e-02
-2.062400461097484497e-02
-1.857099893802373891e-01
8.009525367599485551e-03
-2.071293405844264746e-01
8.835607719038043179e-03
-1.058998414722196052e-01
1.308605582789851632e-02
-2.059558708157314261e-02
3.485337592947736207e-02
6.545592656887858074e-02
9.869182634415621380e-02
-8.310460737322698799e-02
-5.494585896404240860e-02
1.112299867854056254e-02
3.523840343608520848e-03
-5.824906697945424205e-02
-9.787291208702764145e-02
-4.518072056629215266e-02
-5.566639044488413957e-02
-7.999826175383968618e-02
4.584673342130756715e-05
-5.133454756167699778e-02
1.301327321281891547e-01
4.261110417183420346e-02
4.598645593092293843e-02
-1.578240579038696009e-02
4.998522187776023584e-02
-2.554234736070230480e-02
2.242340269374647199e-02
-1.357062570495813913e-01
-2.632734413181929498e-03
-1.059571625686195062e-01
-2.048394755414441673e-02
-2.167833789645054465e-02
4.527997440782863259e-02
2.082544516203546636e-02
9.095603591374366859e-02
3.666056178538410620e-02
3.911066684254371761e-02
2.152281103377796934e-02
-3.579454068761318830e-02
-1.217220770210389880e-01
-3.223954305040162846e-04
-8.076441175507712011e-02
-9.165095984076739033e-02
-7.208583163471142530e-02
-4.918028869864490837e-02
2.765788872752509078e-02
3.760943633669294045e-02
5.731930900665346135e-02
-2.609716773676281493e-02
7.153633744284736140e-02
-3.756325554119709781e-02
4.695552961096555872e-02
-8.183720990630873049e-02
-1.265483755013323830e-01
-1.519535164328833232e-01
-4.313971249792709212e-02
-1.097482949481145970e-01
-6.870680681527045405e-03
8.256196428778123098e-02
7.135125377559742299e-02
8.735750226457830725e-02
1.018838202774000612e-01
1.069187168003142285e-01
4.080320342258465793e-02
9.596518671149553703e-02
2.206961128577511824e-03
1.715521152133101315e-02
-3.611683800554620766e-02
7.044428952390326126e-02
-6.988831949519556941e-02
2.421781485589117461e-02
1.152554398155062887e-01
-1.011491750007701002e-01
-8.728264476501575164e-02
3.171489309199582163e-02
5.706897007030217045e-02
1.075144643268574202e-01
-3.667701133967511684e-02
-3.632029546063567094e-02
5.526829491615663226e-02
-6.626647985670296170e-02
-4.141683551362540516e-02
-6.532695577759324579e-02
-7.907496526477089671e-02
-4.496145725111029556e-02
-2.261591152761438517e-02
-8.685026954218989792e-02
5.576289667386345045e-02
3.686246898977964259e-02
2.223058179512141935e-02
-1.270733452650355845e-02
-4.660843589260812991e-02
1.062891614248657884e-01
1.070265573692293498e-01
7.868305229974480175e-02
1.031890101227111167e-01
-3.603872757683324046e-02
-2.543624866192941781e-04
-1.107069985692837322e-01
-1.116720947119653751e-01
-7.249539860340828423e-02
8.387942982705088105e-03
-9.815089927559531024e-02
8.560696458159339217e-02
1.695140996196307093e-01
-3.388149522794843549e-02
-1.106026284868685261e-01
-1.140775836212957611e-01
-1.058634889643571553e-01
-1.786500861955351606e-03
-8.123501372171258728e-02
-3.703268796467931983e-03
-2.368644047996503604e-02
8.792002193549752764e-03
1.250284310102825203e-01
9.856936670262404776e-02
-2.399631824960341345e-02
6.256077142990167095e-02
9.653539362078517039e-02
9.125934901859204806e-02
3.265951304767234636e-02
-1.017392401977541827e-01
9.558894833883303799e-02
-1.035739700604602735e-02
-8.548167366311185122e-02
1.706585633413918585e-02
7.306626755071531087e-02
-6.176240325310334428e-02
8.614802376906999237e-02
4.846727945341958686e-03
-2.324557346122364809e-03
-7.450189151369737695e-02
-1.395788796097777694e-02
6.007211428360030581e-02
-6.494913254749304365e-02
7.861940108118073076e-03
-6.540550508700703966e-03
-4.794277384107636930e-02
4.544586876342409515e-02
7.048339704531951522e-02
3.590792313475658915e-02
4.323371163141893209e-02
1.183294894783309820e-01
3.088141863736367301e-02
-1.507334722665521626e-02
-8.974559528593778479e-02
7.117741021305939997e-02
-2.877318814675793382e-02
-1.006661020453340216e-01
-3.906097530831236647e-02
1.041479772173371787e-01
-5.761023289607508646e-03
9.967437580617945214e-02
-8.474954492926936589e-02
3.141014548654465742e-03
-2.624251963136557328e-02
-1.070534562674810147e-01
2.056899341612348706e-02
5.694021457771049864e-03
7.610912632182323390e-02
-1.876008276268786856e-02
-3.502474575122438427e-02
4.116827699454669170e-02
3.561785047493832429e-02
2.599473278080384128e-02
8.651315519691298028e-02
3.781818988602721893e-02
-7.464921838205874904e-02
1.228845329328377006e-01
5.972768759976512798e-02
1.353600841876639593e-01
9.254691357127561857e-02
3.910309493361089489e-02
7.001976831778200516e-02
1.085569448416132260e-01
-1.055418490140484639e-01
-6.820170546890574025e-03
1.057830363639368151e-02
-3.591004771577967214e-02
-5.632920432283518991e-02
-1.021438075742751167e-02
2.644026240628181632e-02
1.779302438764927136e-02
2.500902368610659343e-02
-2.424265191674874857e-03
6.130806156260557027e-02
-1.203229155057331939e-01
2.107763105769524734e-02
-2.348384142997596291e-02
-3.439750124841232243e-02
-2.186471766415443510e-02
-1.271551292960422797e-01
-2.537847679752209401e-02
-5.437221528432222700e-02
7.237175894283703892e-02
6.771284727751554489e-02
6.315717961628404542e-02
7.607782224020062656e-02
1.113056095474501128e-01
-1.018994688251045194e-01
-1.146179924886437801e-01
3.591546819903581461e-02
-1.110450010848477165e-01
2.814361490799820523e-02
4.183395146762489136e-02
1.038184318419527602e-01
-5.767908293850882405e-03
1.090119034750616639e-01
-9.276488131225035794e-02
4.473378248466838847e-02
4.726424294328945841e-02
-1.263461703860543385e-02
4.328328653574563256e-02
5.229564070477898952e-02
4.802463771407732701e-02
4.433347508991399011e-02
6.299188154305657150e-02
-3.774475063950320786e-02
8.432570318214996363e-02
-3.921923720047047757e-02
6.355911722200625891e-02
-9.107118321636252511e-02
1.132870425089475414e-01
7.556022245622423528e-02
-7.589632739123310101e-02
4.250570414951406611e-02
8.759535999522703731e-02
-2.781100360100479882e-02
-7.143231739590712170e-02
3.429641648913421548e-02
2.286699368821716247e-02
-5.434081070982663131e-02
6.350114754785937676e-02
6.957069780085115007e-02
5.189113975210690038e-02
-2.954550535872668346e-02
5.103735732101754956e-03
3.381171578611614353e-02
-4.795969825768824080e-02
2.812310923496442322e-02
3.334105716267113731e-03
1.799937446423236637e-02
-9.281364932229384246e-02
-1.850409293256706847e-02
-9.837379523250586177e-02
7.418161912915181844e-02
1.289139803450248603e-02
-5.809110733598474297e-02
-8.278705422769733202e-02
4.821061385805815863e-02
-5.089130463548163265e-03
-7.856257753804145316e-02
-3.528691830476474167e-02
1.501846566731039612e-01
1.511808945914969449e-01
-5.484060166080913234e-02
-5.879440498417497912e-02
8.129276769513259226e-02
-5.792459893414087652e-02
-8.020166241279720609e-02
9.741067668684642855e-02
-9.258316795607134109e-02
-5.717767137284483075e-02
2.386231159882449063e-02
3.788594835221330975e-02
4.102307919661627583e-02
8.967325906862028129e-02
-5.540006262204764075e-03
1.453473807161629119e-02
-1.904683122116348354e-02
4.988553533000236739e-02
9.756748277519028401e-02
-1.079903020485217108e-01
9.293843637988835615e-02
-8.909155452192128732e-02
1.396444661050968150e-01
-4.751383875651044031e-02
2.588128555516424831e-02
1.197606961891116983e-01
-1.133772377549211313e-01
-3.988221547899509917e-02
9.891973076150557820e-02
1.525840229790808786e-02
-9.090364339163083118e-02
-1.554139620869913509e-02
9.151707994604771357e-02
3.890924167040564485e-02
9.495747990624130164e-02
-3.850415670984107253e-02
-7.756588300381547785e-02
6.576499118611002503e-02
8.690300717337978709e-02
1.024871369191414916e-01
2.259513668574283929e-02
-5.459385555091576803e-02
-1.483053943949067498e-02
2.089641811246017652e-02
1.127033421949019537e-01
-4.507090763420318336e-02
9.242007782333905297e-02
2.035336973800424762e-02
-6.667808227843811421e-03
-1.374133120836316078e-02
-8.954484754009368885e-02
2.289211080400719439e-02
-8.938815837747635107e-02
6.638770683849568033e-02
1.785436863461719800e-02
-1.064647305799018215e-02
6.502180314290724461e-02
-5.808689160514141775e-02
8.907123459370015761e-02
1.170123096095356807e-01
7.546967426332339135e-02
2.243768123172412005e-02
9.233159897881397515e-02
-5.800215638255060147e-02
9.456049067405425390e-02
1.075926234212107226e-03
1.121889298084670639e-01
-2.503632899589588665e-02
-1.212634291360239897e-01
9.117915614771086863e-02
3.434620818937326320e-02
8.389075421590609649e-02
8.562529025548980266e-02
4.335952952365360741e-02
-7.431617704067003220e-03
4.782350760905127742e-04
1.043869858014575130e-01
-5.247463475883406420e-02
-1.137861408295393409e-02
2.986811696261801666e-02
9.843080046084780668e-03
7.662878841498575733e-02
-8.657920177061866063e-02
2.796102852834011707e-02
-7.140531929355044272e-02
1.121810703249584984e-01
-1.102533593641426418e-01
-1.785243737188030311e-02
-5.506766285236229519e-02
2.314207792860905472e-02
-6.401284190481816572e-02
7.856365515989321979e-02
9.340957683453039728e-02
3.007361598308397679e-02
-1.095369308511276590e-01
6.651721648388052299e-02
-2.788555121571660578e-02
5.632484717393668877e-03
-3.086917902095016528e-02
-4.608411433174013777e-02
-9.557601715959532229e-02
8.573720050099321865e-02
-1.158080558435492374e-01
1.727529164262363179e-05
1.081121427945862419e-02
6.429578712082772984e-02
4.824726716953633976e-02
7.399231727026625571e-02
7.787371537858536752e-02
-9.298956986802817126e-02
-1.189561846166209691e-01
-3.253745152877428326e-02
-1.601678348256800957e-02
-5.690836333596065860e-02
3.099595700684787403e-02
-7.034386697554991311e-03
-5.890982761209208329e-02
3.368015884059519238e-02
7.785418555022879938e-02
2.503269343456548252e-02
3.229774785777127753e-03
2.625750869116553685e-02
7.891980071704990385e-02
1.178158496095796370e-01
-3.420481772114436492e-02
9.329830795221921713e-02
1.928730070218732549e-03
9.184263581173357505e-02
-3.663995674126281632e-02
-5.641427090790548937e-02
8.536954446488558002e-02
-6.261698097832829601e-02
1.027443071169209382e-01
9.335460726498032158e-02
-3.879179115334888128e-02
-6.537721789049237564e-02
-1.029347220683387437e-01
7.662242493032554724e-02
-2.647779545195768150e-02
-6.670411210827617565e-02
2.299666877784359645e-02
2.726267826467609554e-02
9.126431298335574351e-05
-5.195927658462338831e-03
6.658962884257281500e-02
-6.971246859837811061e-02
-2.023030685523454723e-03
-6.854528238108252569e-02
6.578605765105943401e-03
-1.062159216785528264e-02
-7.097937607339938060e-02
3.279915485565160216e-02
-9.518455835625146133e-02
-6.406083843629628571e-02
-1.761174754880727444e-02
-3.659199950276411512e-03
4.272875971689629564e-03
-1.032296440193372078e-01
5.380431625575465143e-02
2.772923690018727974e-02
2.368359582561284371e-02
7.986239984502836731e-02
7.603848085563409687e-02
1.935271941851645847e-03
-5.709584923486136360e-02
-5.384407397579839272e-02
1.056599927246623938e-01
4.149833312069889368e-02
-3.999380902124857751e-02
6.831577027797287871e-02
-4.456644778359673126e-02
-2.434110464207379920e-02
1.067382655387545398e-01
7.266473271851196791e-02
-6.740968424469705178e-02
-6.871881408594093799e-02
1.025224513252724623e-01
-4.876106984216072027e-02
7.338100419924011020e-02
6.876378705345172204e-02
-7.783913433755797195e-02
-1.295557713714078074e-01
-4.344636167039349350e-02
-2.908766548405925315e-02
1.305395535077193137e-02
4.865838535556236966e-02
-7.604205449098616620e-02
2.410715251199948422e-02
6.867801573989454345e-02
-1.982686259934017536e-02
-9.671730352003041209e-02
2.750056546830490639e-02
6.217241259899444761e-02
1.008698903864508334e-01
-7.639568236754002914e-03
4.606312388349624587e-03
-9.750202051548495508e-02
-5.951513404883634201e-02
-9.121423360374217304e-02
7.943673342503318469e-02
-6.936639041265532657e-02
-4.543886990566204515e-02
8.885283844170717427e-02
-1.105095287730520626e-01
2.715713724111508409e-02
-1.102605995692345769e-01
-1.776447883585174220e-02
-5.987994991303826481e-02
4.202582370297263531e-02
-5.035386989124990276e-02
-1.197609871474418775e-01
2.181157379226255147e-02
4.074558981634598259e-02
-1.672711549024483713e-01
-3.292579934786037110e-03
2.311196353916562807e-02
-1.232707314322415981e-01
-1.102642022799392857e-01
-1.641305887540510655e-01
-1.058597776674146812e-01
-5.449222624155057593e-02
-5.970760600532072637e-02
3.968113068891226947e-02
2.976345192986872001e-02
-1.043275931520693950e-01
-6.130240612169413073e-02
8.279083352632590764e-02
4.136259386564686974e-02
7.077399705093441462e-02
8.457999366211291226e-02
-1.171381874614717544e-01
2.425165644968066067e-02
1.137667047141164289e-01
-1.164291440999592614e-01
-6.616336574012806476e-03
8.209488370396117451e-02
1.011874609778693965e-02
1.880208591121333012e-02
1.130368297869323302e-02
8.502782345939985387e-03
1.840386402108583341e-01
1.892230195377051782e-01
6.288922794062284938e-02
8.169115839385810221e-03
-1.343991888319308881e-01
1.751649092692262807e-02
-1.352782903554198557e-01
-6.617890605562781747e-02
-5.374083451395536559e-02
-1.450786553012521803e-02
-1.666218529820513439e-01
-6.852361707719806239e-02
-6.870469867960496413e-02
-8.772679944083296155e-02
-3.531112293256975874e-03
-7.325109787010961049e-02
1.148927534828379643e-01
-8.378919158825294533e-02
-2.129721367936231874e-02
9.103068901768467114e-02
-9.167574339836330466e-02
3.270390739446523559e-02
1.291715031274573988e-01
8.661894450911473975e-02
1.129439116483197114e-01
1.592395467506277362e-01
1.039207053182624602e-01
1.188217333989225327e-01
-3.116628582876389275e-02
3.461934463391786593e-02
1.608538182789394366e-01
1.352154422217876836e-02
-2.218487820789751680e-02
-4.928544548593221525e-02
-3.157438901912021367e-02
-1.199194907312548380e-01
-4.510057211004943334e-02
-1.549185911982494668e-01
-2.015811734668234226e-02
-1.303473587125306976e-01
-7.261494825608422188e-03
-4.370204362913725216e-02
5.890915923980765551e-02
-2.201937859966055563e-03
-3.294228420381192270e-03
-5.519987584121315710e-02
-1.811842773523452202e-02
4.358804462723178327e-03
3.197478135245319930e-02
1.308220597105966276e-01
-2.662220351054344833e-02
1.586727744791686101e-01
2.034733127303050004e-01
6.596602484161269431e-02
7.833281758199993339e-02
1.290042909533421246e-02
7.566734639078476210e-02
6.961793322075635060e-02
7.098632360643267192e-02
2.531309963997690343e-02
-1.430731599979438197e-02
4.657245997915038932e-02
9.843623901833206680e-02
-4.815436859872625208e-02
2.772296033967591375e-02
-4.184949082859757558e-02
1.287801253391412069e-02
-2.735034616906106830e-03
-1.263718212445067157e-01
5.357636753643950887e-03
5.298802728182421679e-02
5.457009290773839200e-02
4.385282356497378214e-02
-2.261967356158040357e-02
4.624188027052906352e-02
4.159506166520021003e-02
-7.188009048340213147e-02
4.573480644333565576e-02
2.945657130001413243e-02
1.607702483919473957e-01
5.305198757719385705e-02
-2.622257002831818867e-02
-5.777889638743789746e-02
5.417533431637497343e-02
-1.102275158475129191e-01
4.481575221517582891e-02
-4.170442267865447777e-02
8.605818908773700537e-02
-1.970885547692885487e-02
2.011870237024661421e-03
-1.487360101876801510e-02
7.912292646998640017e-03
2.297359497188651914e-02
-4.540412717949610794e-02
6.847101711213057773e-02
-5.290371396164494228e-02
-1.091701364837017046e-01
-1.195553929294153189e-01
7.107861012424190883e-02
-1.222471721557206459e-01
9.506097092570744284e-03
1.068925654629902106e-01
3.586663829255697100e-02
2.330478715995162181e-02
-3.552270335243649241e-02
5.271108986063884755e-02
2.566549336762731504e-02
1.261187421985640322e-01
1.960416775080868132e-02
1.455297216929793136e-01
-9.054600641417323223e-03
6.691609352315122661e-02
-5.740224616922952328e-02
5.858156772587055916e-02
-4.668068116413073843e-02
1.177636683579867949e-01
1.130913959495953858e-01
9.195035284944752529e-02
3.155366175823307029e-04
-1.305203268671204300e-02
6.471793780524898176e-02
-1.045285617887736912e-01
5.040045939754581039e-02
-2.572717574940221880e-02
-6.554611689486446353e-03
-9.473069997883791504e-02
-1.550999264094301000e-01
3.711136818515238522e-02
-4.114133672655004292e-02
-9.353660856508028143e-02
1.144796107593904766e-01
6.679872457385532813e-02
6.631726880552249286e-03
8.340777236779547965e-02
1.853445393998074883e-02
1.658678155630755879e-01
7.205935611495208060e-02
-4.596311815970745285e-02
-6.052154738600723505e-02
6.054055057010539198e-02
-8.129882676984931389e-02
-8.940812836831707466e-02
-1.802663830072801510e-01
3.826631528380933234e-02
1.290678689813508639e-01
8.746107620336968091e-02
-8.073140135290176114e-03
1.041479669727474328e-01
-8.075372003842820959e-03
6.885739837736791491e-02
5.738728254222038618e-03
2.589993124943733294e-02
-1.023125128363621961e-01
-1.743203314144584903e-01
-8.036564528884340697e-02
-1.566175936792364998e-01
-8.942503899273879231e-02
-8.366361669599185757e-02
2.061301519371835922e-02
-3.686095264873185534e-02
-6.683133993799510175e-02
-6.091886713475162113e-02
1.564413787521637053e-02
-1.545775124902126589e-02
1.448780338751248786e-02
-1.438335615158681524e-01
-1.746392906805904477e-01
-1.506596102562010042e-01
-1.502888836362414604e-01
-1.620373313425462272e-02
5.474425732301994862e-03
-7.653386494544305030e-02
-4.339426238446617706e-02
2.869526895529356803e-01
9.084660026699575841e-02
1.173818921459938713e-01
4.001731606066499108e-02
1.864109361577842017e-01
8.588824260907819419e-02
7.203251551187614399e-02
-1.540932803490886911e-02
-1.896861592023931509e-01
-1.944731287020211308e-01
-4.686035699324722636e-02
5.387329085406813989e-02
1.063917962216031771e-01
-3.077028664795250414e-03
8.994424278398516215e-02
4.678498406951797639e-02
1.047522010448756757e-01
-8.069688987685882291e-04
6.735321744664718446e-02
8.768476349026978200e-03
-1.350697033317942997e-01
-4.360456644760840605e-02
-8.688759380770005869e-02
-8.021276705948880703e-02
3.491639007228319186e-02
6.390338149865758439e-03
-1.341923634564371193e-01
4.419088945914644018e-02
1.914785183795181811e-01
1.728283708448753453e-01
2.199110199553287737e-01
7.017721648506272669e-02
8.044238021711477837e-02
2.096108209204462780e-02
-2.511413493242063005e-02
-4.659524224387885660e-02
-1.631911465150139851e-01
-1.176806658536322520e-01
-7.270324290104789033e-02
4.821457564413502567e-02
6.882623381048874611e-02
1.106680718604688279e-01
-2.721912181188322968e-02
5.810149884497221862e-02
7.173923142882263071e-02
-2.156365440989632676e-02
1.664027651828689546e-03
-1.335161130737966273e-01
-4.378097086155653683e-02
1.347249755034748628e-02
6.884537311685860750e-02
4.694638356254015460e-02
-1.879547937066026672e-02
3.685552519058330617e-02
9.952370808687532183e-03
-4.505260278906255550e-02
-1.697619554750372933e-02
1.710225049847541312e-01
5.491491897207308182e-02
7.802315245229332619e-02
3.862989443213307728e-02
8.852189541710756004e-02
3.427457648952011299e-02
-3.685941214749827860e-02
-3.355790915650459956e-03
-6.077885567990583965e-02
-8.241053796545474985e-02
1.115357112713846743e-02
2.047649939805645108e-02
-6.951862839572803265e-02
7.517061434066037162e-02
9.078231329171670971e-02
-7.394488061557004388e-02
9.753519644703560060e-03
-3.762290881925678399e-02
1.224583659319161549e-01
5.458550376853342490e-02
5.719123969255197892e-02
2.282012930539473183e-02
1.272781403948963861e-03
-8.328362022988884672e-02
-1.200931436079911846e-01
-8.748992850761911147e-03
-3.801455447968122431e-02
5.314057294372625737e-03
1.998751482528850765e-01
1.051313288800612422e-01
7.540463932612223585e-02
9.914501731905367432e-02
-4.193246560629661918e-03
5.228273789314845377e-02
-9.193467109397843173e-02
-1.059347067874055331e-01
-5.676610602075955053e-02
-5.848320606869780031e-02
-8.737149951938112669e-02
2.203892508012241999e-02
5.450614101355309021e-02
-1.654312645196207021e-02
-1.027504020977698940e-01
4.593296310365802687e-02
9.429573072292105063e-02
1.411379019289183967e-01
-4.454982560576533496e-02
6.109816125650897184e-02
4.403877155796544901e-02
-5.468842199315863267e-02
1.347626066955086299e-02
-1.928425189698585937e-02
-5.398605264875489668e-02
6.118870720791676904e-02
-1.278927687684049824e-02
2.333067699227444475e-03
8.364971456985684228e-02
9.385294758625124800e-02
1.493606104454871797e-01
1.927808559046383097e-01
-7.689503928274592920e-03
3.134657469414849074e-02
2.468516090489425007e-03
-3.871908907699998098e-02
6.330969538720561396e-02
4.708482801091447290e-02
-7.069353399591210563e-02
-7.428807757191596695e-02
1.117743220924276720e-01
-4.964443787129189760e-03
-3.673322280935328865e-02
1.205150531385057316e-01
-1.764140326021623392e-02
2.198618853233850687e-02
-2.049470627525629141e-02
8.128309288087028073e-02
-7.407860538775294656e-02
-2.458616518707397794e-02
-4.038211475825256164e-02
5.404825351526743732e-03
-5.943077215608427721e-02
-2.397956063705710891e-02
-9.648467513820460639e-02
1.633759497142297790e-01
1.350211807455226065e-01
2.376325668232030786e-01
1.104261945799141359e-01
1.398427391921386320e-01
-3.083667656604335491e-02
4.585590459630457805e-02
-2.218840336762525206e-02
-9.564464752584206364e-02
-2.064279633288389898e-02
-4.602372509993415267e-02
4.049058538401888868e-02
4.462812972507573805e-02
7.890053639897481874e-02
-8.707709643072322758e-02
-1.287208083401914687e-03
7.826778776861852138e-02
3.544463862728756357e-03
6.695961433452299501e-03
4.708978389185982522e-02
5.645950260534186166e-02
6.576920974995402978e-03
2.094089380478591014e-02
-1.261448026483770746e-01
-1.111242763751887561e-02
1.888324034694727899e-02
2.760428112896913880e-02
-9.215936254894550872e-02
1.565633176034409435e-01
1.758080839401894024e-01
2.998436536842929295e-02
3.958287869834762468e-02
7.946716813655993472e-02
8.564599625424115792e-02
1.563367881312401619e-01
8.956774535455225283e-02
-7.397260996128840471e-02
1.592014795290580542e-02
1.119037094663776488e-01
5.616793923220453344e-02
8.329331083405511205e-02
-8.731508869421338026e-02
-6.874346748822533770e-02
-2.207153633775952792e-02
-7.894714128641622253e-03
1.543835622828932663e-01
-6.246907961191617426e-02
-9.299749631529695415e-02
5.995116106027621738e-02
-9.681439508937527555e-03
-2.690167386064185734e-02
-7.288875062436450322e-03
-3.716274536023799618e-02
-2.386275021460991866e-02
2.905893381052444477e-02
1.419863102487443629e-01
2.286471427811050117e-02
8.768010774145447439e-02
3.869640211165704946e-02
1.010082798258825770e-01
4.551292219156231195e-02
3.782022741344313876e-02
5.150396631007861381e-02
8.914681704162226439e-02
-5.648391022106609427e-02
-1.510095427190845385e-01
-4.219686585301064830e-02
3.036944873256184479e-02
5.615770323985509738e-02
-8.931671755115846989e-02
1.083078721692252999e-01
7.765393943215240236e-02
1.600780157294897366e-01
-9.329423011614289274e-03
-1.465623400150274092e-01
-1.256712550837678632e-01
-6.743529740311440812e-02
-1.119965915835159642e-02
-2.679471673893067396e-01
-1.011219471279848486e-01
-8.584999286891259462e-02
-1.523821772382425929e-02
-1.211585964262481968e-01
-6.604034395800514878e-02
3.306225490594259971e-03
1.160481414637216935e-02
7.604440962404546145e-02
1.246919317579405460e-02
1.093241165603512852e-02
-7.787383596209927761e-02
-9.103911267586167755e-02
1.646228203002031648e-03
-1.140268814425798773e-03
-5.846462338616268545e-02
5.865960727902218980e-02
1.335818003399234441e-02
-8.618887433838090528e-02
3.402324361890050192e-02
-1.049758823294789228e-01
4.739763854293928963e-02
1.241503020811380309e-01
-8.845353929383507896e-03
4.467125080020189348e-02
4.036325849308645963e-02
4.277489768506295004e-02
-1.081918696691913651e-01
-1.453366136065090408e-01
-2.649080670522382941e-01
-2.422229896397568860e-01
-2.518937859946323021e-01
-1.861607125446024802e-01
-3.651072760084528301e-02
-5.919165969356843249e-02
-1.216664720232135399e-01
-1.314555819520496216e-01
-1.039580361436513167e-01
-9.325027777734579137e-02
2.070195970555557818e-02
-1.048245759204153860e-01
-3.874617118107986924e-02
-1.734353301581532947e-01
-6.750395678500092228e-03
-8.883861060918278943e-03
8.176812661916774139e-02
4.402773812989342617e-02
5.553905740923305301e-02
7.022057179729608578e-02
-4.319336297218584475e-02
1.592236465589124683e-01
2.189004529783808994e-01
-3.638762816203327394e-02
-7.137416759463721672e-02
-5.034870551890532897e-02
-2.144746836847094898e-02
-1.055483637805674779e-01
-1.609078033099431426e-01
-1.186826330522756379e-01
-1.986443450202582950e-01
-8.247731046923230391e-02
-1.504620213561204956e-01
-6.611899818159368281e-02
-1.031159245101126026e-01
-1.662016599570411424e-01
-5.454990376810311264e-02
-3.006935675358012386e-02
-1.848893725068246896e-01
-1.810808231611352459e-01
-1.087421724989172250e-01
-1.196625516741857929e-02
-3.620561821615050219e-02
-1.730679294802919127e-02
-2.498125942917289039e-02
2.550884117753638228e-02
1.012093485951945232e-01
-7.737176160058470940e-03
-9.889490131270366191e-02
-4.721241260303209175e-02
1.672176254762416589e-02
-1.220129531805624022e-02
-1.028059098881365374e-01
-1.379177702517792210e-02
1.799388401685868971e-02
-3.042526003510199681e-02
-5.202507849632406409e-03
6.014030606780571692e-02
9.469087666959159072e-03
-1.834481224378174957e-01
-5.106770783792849433e-02
1.436623469005900433e-01
1.270677621521882489e-02
-1.162457086202669937e-01
-1.416658647742185528e-01
-5.453146794938242697e-02
-9.298580044741462658e-02
-4.305575117926010997e-02
-7.296293561307290454e-02
4.289635640624164109e-02
-1.199254073360521977e-01
8.772666078417441782e-02
-8.024884612317340071e-02
-9.151921777368547672e-02
-9.455689642060198519e-02
8.769844888631327107e-02
1.113836287694569410e-01
1.250593863895058944e-01
-6.864489024808270723e-02
4.650763153423417146e-02
-1.075342882756681051e-01
1.096508171637129020e-02
-7.802341002237053735e-02
-9.764392639682241415e-02
-4.333968657478770581e-02
-8.293304886409749721e-02
1.573111617224692230e-03
6.122215604302781028e-02
-1.169524510929359079e-01
-5.816700018393819449e-02
4.004980447046249670e-02
3.441506511781471100e-02
-5.168069357027093441e-02
3.460233568021844897e-02
1.536427740968022808e-02
-1.250503396533914346e-01
-1.267342911001490269e-01
1.890995914739869443e-02
-2.482220843301624277e-02
-9.769113841800868003e-02
-4.196527982539488555e-02
-1.143460959454951076e-01
-1.154486377558451710e-01
-6.708334195415600887e-02
-6.127282970236187787e-02
7.947384579555276385e-02
1.147757138691894302e-01
-9.685648590298134852e-02
2.644368591287728568e-02
1.460055974244614252e-01
-7.020646951550991999e-02
3.428740692319209860e-02
-5.533304042018923063e-02
-3.384912258298274079e-02
5.331217065462006549e-02
-9.837146689224084140e-02
-5.532855092571093564e-02
9.369856857995137803e-03
-1.115804257573209807e-01
-3.221222022953779129e-02
-6.263634164086009926e-02
-7.757894181851927862e-02
7.713905573633951518e-02
-4.158861067519738913e-02
9.133343427141096815e-02
-1.326500944272396842e-01
-4.822789998214225410e-02
-1.921410925320063325e-03
8.480229276310043141e-02
2.168375961228295387e-02
4.825135357644325107e-02
-5.607646712560914772e-03
-3.469212272746943077e-02
-7.261876004396519702e-02
1.586463760087721345e-02
1.671270839829177846e-01
6.970545741887626545e-02
1.166037937288557369e-01
4.159260499588007115e-02
5.084990169097352436e-02
4.363160631697568514e-02
1.242731500833998276e-01
-1.182361928719465327e-01
-1.648536280896779199e-02
-1.018516402074641503e-01
-5.226106952604043371e-02
1.073053385896365758e-02
-6.717057006240843842e-02
-1.695497526265921096e-01
-4.662676768660221210e-02
-2.281722047022414525e-03
4.875113632513821543e-02
6.271354297781062126e-02
5.371634433463109981e-02
1.010049996620835250e-01
5.632180980553003202e-02
-1.484151968080973071e-02
1.145155058555306776e-01
-1.433184958798961253e-02
-1.173012470987284672e-01
-9.962357907918817368e-02
2.011794249294936165e-02
1.772700067505633345e-02
1.153894098709875443e-01
1.219130399548063598e-01
1.340705438029423935e-01
-1.221407820326472424e-02
1.758791540032234035e-01
-9.346218880920739713e-02
3.096622358501543645e-02
1.490224922467741318e-02
-6.810155265467908448e-02
6.672463911850715079e-02
-3.751906105070276082e-02
7.874277078744253144e-03
-7.815022967888148042e-02
1.121265479557372324e-01
6.860534523483427516e-02
8.835367577856730048e-02
-8.011243222181167745e-02
1.103951570912189012e-01
2.261698340957299380e-02
5.241343251304012019e-02
-1.017777528536073089e-01
1.178944176711720637e-01
-7.360636619928000168e-02
3.577229831602748988e-02
5.975318225577769954e-02
-8.987582934570828965e-04
-8.497306969923218434e-02
1.163134981845314643e-02
9.781597937731932590e-02
8.614145683181852198e-02
-8.013142224890221210e-02
-6.977884661322282522e-02
9.664527316563063103e-03
1.103558778416838526e-01
1.126018836545157747e-01
-4.826347469049843686e-02
1.937822372170623988e-02
1.077901967371902581e-01
-5.211399610100079377e-02
5.484636018891488746e-02
4.525308357176281021e-02
1.779552641955537556e-02
9.845476332709428291e-02
-6.817685654777581872e-02
6.928653412857242733e-02
-2.249841227165079102e-02
4.967862987964097657e-03
-2.043523001255542412e-02
5.993792668201632090e-02
-4.571783181128576123e-02
5.871376988013134179e-02
7.231706135752492826e-02
1.099880219140574600e-01
-1.022764893864560737e-01
-1.924511712569199756e-02
-2.595561648532593302e-02
1.014413690499294807e-01
-6.145022423522144422e-02
-9.927585443365249951e-02
-1.981322821720418043e-03
-4.628575404876611454e-02
6.196487108619306433e-02
-1.013972319552099710e-01
6.991520174347451433e-02
-8.266510748229852212e-02
-1.325405344851959474e-02
-4.365901885598920396e-02
1.099767044652228548e-01
-9.046830370466797666e-02
-1.087770321737427381e-01
9.834280331934913688e-02
7.376993776839751993e-02
8.691262086910056788e-04
-8.971656519464735191e-02
2.672046227026510928e-02
5.552606300467301248e-02
6.265128829445734682e-02
4.709274819418873825e-02
