4.425654803871689746e-02
7.362233431441998592e-03
-7.304646578940694746e-02
1.120064378163320856e-01
5.727721575084342154e-02
1.633110817343685905e-02
-3.036602404784250961e-02
-9.487478137287626290e-02
-2.320735977154009949e-02
-9.679841785137803523e-02
-7.906143384365185711e-02
6.628891512874476866e-02
1.940167574648254609e-02
6.811380920123732974e-02
-9.284557004575634542e-02
-7.128295480810495355e-02
7.472710871896069695e-02
-3.490095081364888441e-02
-7.647893067155488167e-02
-8.596797750426229956e-02
-5.860290519070097265e-02
7.680229284748774088e-02
-4.001641928115218932e-02
-1.082933056022128693e-01
1.080337469192968608e-01
-6.654241965308131668e-02
1.046173891494112454e-02
-5.731052181995156293e-03
1.087966002692604545e-01
-9.857539487355786167e-02
2.162875575674312600e-02
5.311272045754726612e-02
9.520797339398284764e-02
-5.042016955294557207e-02
9.662999976209894759e-02
5.982453633814827088e-02
9.579834942514051099e-02
-2.999720240074015692e-02
-8.331625732118942695e-02
-1.058590020963380285e-01
1.065005543438682090e-01
-1.147839353347122060e-01
-5.303795282109601689e-02
5.710127687052320850e-02
8.771924901334786709e-03
-1.492750653212708361e-04
4.041323424279688603e-02
1.176978041600883762e-01
1.135521622751583803e-01
1.081964207348227458e-01
-8.751863427890106684e-02
-5.882622490992982928e-02
-6.191709720374034831e-03
1.084494793627954583e-02
1.433066816813389696e-02
5.437873660844672746e-02
7.539744906184239759e-02
-2.829149441056201877e-02
1.087164651636344723e-02
1.851729013636891838e-02
-1.075573242099167881e-01
1.083069759024192329e-02
9.557192477837829492e-02
-1.758962242311626345e-02
-5.721518919282003734e-02
-1.141647347574923504e-02
-1.139919625202899106e-01
-6.582334876482458241e-03
1.126781146586036120e-01
-2.068724575451523842e-02
6.922437226898578433e-02
-7.704793369338891473e-02
-4.025220989721003256e-02
-2.665979167971167102e-03
-9.785881173081645290e-02
9.289182768245829447e-02
-3.602457325991608589e-02
2.258826535884471062e-02
-4.261645444560040186e-02
-5.719360704707907722e-02
-4.178383244991664032e-03
-4.702637093251781780e-02
2.542943308455409071e-02
-1.167459388189277664e-01
-1.078830054109609637e-01
4.657357266197133250e-02
1.019616494809121587e-01
6.319266745807045060e-02
1.027298622568475484e-01
6.580328266611115695e-02
3.634927247343235079e-02
8.249020316834060340e-02
-1.245731712886673226e-03
9.804198734323105180e-02
-1.148303030606062300e-02
9.095951613578129313e-02
3.305650358743045247e-02
-3.026099924525779000e-02
1.107217873395051344e-01
-6.300647461638345104e-02
-5.801031815410228470e-02
5.598333766149066540e-03
-1.335505657572035598e-01
-5.151382988307460359e-02
1.273366023974330935e-02
-2.946076841744200980e-02
-5.549183360909760423e-05
7.421350088841059678e-02
-8.648229158386113585e-03
1.129422447524279643e-01
1.018881788681658407e-01
-8.627097509188166868e-02
3.347621874999307662e-02
2.193260401424892286e-02
-1.077947701324331181e-01
-7.361742228948803257e-02
6.756968369118845907e-02
-6.765416840616976513e-02
6.442675257091590169e-02
9.197905406404860212e-04
-3.751720740214155303e-02
3.241441741996171823e-03
2.145056566038542473e-02
-5.753766304069441589e-02
-3.616210607272320882e-02
1.049734873980986138e-01
-7.552172262914896850e-02
-4.792498606874448334e-03
6.219712831122201080e-02
9.913890143682337064e-02
-1.235101898828044609e-01
6.007269001126129548e-02
-1.167611916371249225e-01
1.660750510682070316e-02
3.798128914593143501e-02
5.514031988085907332e-03
-5.340873742667533869e-02
-1.175655736122384470e-01
-9.437015942029984561e-02
-8.018869740846505667e-02
7.058999672053234073e-03
-1.012034764090011668e-01
-6.382135461612659100e-02
-7.725181756767844632e-02
5.115677307259897805e-02
-7.405001869892689770e-02
9.803948278632426683e-02
6.105615222358992678e-02
2.149893852966239249e-02
-3.301471127113646264e-02
-6.180080559429500242e-03
8.770347420108626224e-03
1.011971075059799330e-01
7.746693185028624695e-02
-6.274555940742604365e-02
-4.955635663844160793e-02
-5.888980278646887417e-02
1.166278709252728529e-02
-1.345380652392677845e-01
-4.193496713216735700e-02
-1.362362135115413042e-01
1.287902481758076458e-02
-6.049427079826613651e-02
8.726928461574488816e-02
-1.388312504411293342e-02
-8.727898492164958000e-02
3.047021230470280118e-02
-9.621002457174544775e-02
-8.818233501950614728e-02
3.722664582395100036e-02
7.778889156927696301e-03
-7.771608431021197194e-02
-4.346581313508027233e-02
2.949942864330720380e-03
6.108320888442619889e-02
1.087061735514808919e-01
6.717480282976778794e-02
1.256563307123673423e-01
-5.851157100206527684e-02
7.631587422518905373e-02
1.231408535489229711e-01
-6.164295233971991278e-02
1.377607514008488167e-02
-8.686900435175956559e-02
1.617448060987352818e-02
7.707389024146456269e-02
3.760995111327811169e-02
-7.764656697458458164e-03
-5.188907858579620141e-02
-5.057807980025826738e-02
6.021984739188090963e-02
-1.122028422039320072e-01
-4.448477773999060317e-03
-1.047129157448297848e-01
1.120670933847481635e-02
9.204717269894846510e-02
-5.809956774771387472e-02
-7.970775315855092857e-02
-7.613843757057361938e-02
-2.403022474193068636e-02
9.113500298229336438e-02
2.333866183786290072e-02
-6.122414029614992037e-02
-8.589503288077944554e-02
6.835015122969617662e-02
3.036319508981542500e-02
-7.544583103486303399e-02
7.664008954731572898e-02
5.993041495487613779e-02
4.700603095140342032e-04
-7.260484259150924713e-02
1.116949098321055323e-01
-9.290632537163011351e-02
2.958944226938009861e-02
3.554671431565097767e-02
1.320499677513034820e-01
1.039112405823180985e-01
-7.145875516556740581e-02
-1.127976474824183006e-01
-6.752367132711828424e-02
2.839647281448714859e-03
-1.041124061307814874e-01
8.165644946304073670e-02
2.965030023390853239e-02
8.306138619204794793e-02
-1.129090593747899829e-01
5.514894313710384799e-02
8.064196619355591678e-02
1.016848577277334603e-01
4.659510893645817803e-02
-2.079064653974580304e-02
-2.265373566308872058e-02
-5.824130382842513526e-02
-6.645314900444845851e-02
1.251265864437499653e-01
-4.545201319332391882e-02
8.811741117321179873e-02
1.413932155924981227e-01
2.568015001451151580e-02
2.820058418320199253e-02
5.327983868633324321e-02
1.653393876027911200e-02
-8.018267247221977367e-02
4.790644563495256858e-02
-9.431629761206474991e-03
6.521303149038305824e-02
1.308606609130249510e-01
7.291210956029549328e-02
1.276590367943065407e-01
1.036287532586802479e-01
-3.770244359882311130e-02
-8.314207937130761727e-02
7.976994751297213082e-02
-6.778121231475265837e-03
3.259311809474386263e-04
7.951848423979430980e-02
7.513985919756173415e-02
-7.778428370439317840e-02
1.503381283788849873e-03
8.437770318858177354e-02
8.109709783898894075e-02
6.455485682045633555e-02
-3.680293485775164991e-02
8.742321814705705796e-02
-4.972703990332871804e-02
-3.872086206967205457e-02
9.550528393815338468e-02
7.074441284914268283e-03
-5.923274790899690778e-02
8.708345716610041420e-02
1.348041691211954336e-02
1.135323026239110494e-01
-5.354906627701844918e-03
1.795986088514568702e-02
-2.501619734905769638e-02
-4.287294102037363802e-02
-6.253582536577430295e-02
-1.282892188601308936e-02
5.915042608629587223e-02
-5.294151195934221343e-02
1.196433313608736698e-01
-2.003508072408625301e-02
-9.893352692599370612e-02
-1.047082028329947428e-01
-9.743983136210225549e-02
4.104633884730925913e-02
-1.028035993134390758e-01
-1.238633692948939123e-02
-3.407675765837095330e-03
-1.106022459019968124e-01
-2.736770281398625410e-02
1.030574191456238436e-01
4.685488657902516646e-02
-2.010718786133813829e-02
4.510484698671327758e-02
9.307551314411778576e-02
4.491249342556674108e-03
1.288216297193974513e-01
1.072415636599795274e-01
3.032420539527982961e-02
-2.239881422443007475e-02
6.846343014890322876e-02
-7.000404872545720747e-02
8.554695857632875489e-02
-4.119992587839153148e-02
6.807967325973535155e-02
-5.381590390150786662e-02
-1.094401609360839966e-01
-1.053785139116720920e-01
-8.409066150652598493e-02
6.194682132773416533e-02
-2.821089485571603994e-02
-7.743457270463370914e-03
-3.104201228611206537e-02
9.448521470396925581e-02
2.515640598821460711e-02
8.996651132613724122e-02
-1.869644501698328534e-02
-5.056319477249331118e-02
-6.659088676554769659e-02
-1.019361433022791946e-01
-1.395673090611259382e-01
4.340415802773942011e-02
-8.058697383557975047e-02
8.084341146857710117e-03
3.694031089719870820e-02
-2.084645398767367638e-03
8.540043713441967943e-02
-9.237085284569204746e-02
7.131990139448626809e-02
4.759199383623721746e-02
6.414912738567337541e-03
1.933282441084707357e-02
-8.150194239229668902e-02
-6.738628346142033418e-03
4.455021803242664030e-02
-5.097407468857882012e-02
3.950295987644532325e-02
1.058110789078223722e-02
8.073478300247226638e-03
8.974057478812409727e-02
8.853278027913506765e-02
8.105179145448411504e-02
-9.430760904126599120e-02
-1.082658760272481868e-01
-1.358383655955539004e-01
-1.255384918336529820e-01
1.276589356296979096e-02
6.288765376313520256e-03
4.972896462350569202e-02
-6.253444355145540423e-02
7.278153286688056334e-02
2.490676029333516867e-02
-3.527312104863538494e-02
-5.900466510759772715e-02
8.671545928907940792e-02
7.054685442351371627e-02
9.808642197734408069e-03
-4.227554853941998397e-03
9.745260480048661966e-02
-4.817325171482247231e-02
-5.531020928843157630e-02
-1.014587522202307218e-01
-2.987949850120902306e-02
-6.442578098530286901e-02
-8.516718899215774963e-02
7.929463854693079294e-02
-5.716156294471549243e-02
-3.348617222038160340e-02
-5.679045467923465353e-03
5.632269754771044787e-03
-4.917678471916977351e-02
5.880909652793156472e-02
-1.340530814174942589e-02
-1.545135338619151727e-02
-5.752435739420498628e-02
3.334234265156498650e-02
2.363331820481207740e-02
-1.334278622132143571e-02
5.244615536742824879e-02
-7.485509075875882616e-04
-2.647206473472281385e-02
7.164000505827580745e-02
5.118626530229366395e-02
-5.898268718869620342e-02
-7.839435345491843621e-02
7.077584287239641059e-02
6.695381333067081109e-02
-2.427804357465353918e-02
-3.338020889237468952e-02
7.091768627637269617e-02
1.572721528154334691e-02
5.395011664597013090e-02
-1.475239097902784555e-02
-9.862987610008412676e-02
5.078507326096831295e-03
-7.718815056903022276e-02
8.357530836069076985e-02
1.069321188240819447e-02
-4.851041705925750874e-02
-8.682822158462222273e-02
-1.471678820560655965e-01
-1.094260612012561973e-01
1.493432073807144170e-02
3.154917507009760008e-02
6.409178269231642633e-02
5.790800009373995444e-02
-7.385227970536163700e-02
-3.407819482206753126e-02
-2.807814077422527560e-02
-4.942827399939233451e-02
-7.146085580124814096e-02
-4.466254300295453838e-02
-3.282061609933457913e-02
-9.087426822012258099e-02
-1.417637578050241209e-01
-1.565428819005447794e-02
8.393828367875456886e-02
2.246673099685402367e-02
2.020322621233202123e-02
-4.065619735676593433e-02
1.667893406729700767e-02
4.499402869500813279e-02
-7.435579636836907313e-02
1.177543996409785854e-01
-1.134462780683081623e-01
-9.724556018256201584e-02
-4.679101825435142553e-02
-3.017623061471670642e-02
5.068780384248406518e-02
7.010672157101836832e-02
-1.472592220179713418e-01
1.010959347893158750e-01
-7.658924673555399243e-02
-4.185930254821489810e-02
2.366061327275698761e-02
9.184818145738650463e-02
1.032186239307308212e-01
1.127802287188781477e-01
-3.243937345616303147e-02
-1.224894574305984835e-01
-7.148456022736889015e-02
-3.167925050231511219e-02
-1.530109511214036580e-03
4.564905228725768538e-03
-4.567166933571031873e-02
8.694595012365280429e-02
-6.194076527658321646e-02
-5.110709629878262134e-02
-2.996364286446445355e-02
-6.173536631490399162e-02
1.074781335150853390e-01
-6.615714498389896336e-02
7.222777342036726389e-02
-5.720618943978891813e-03
-1.210067267361135956e-01
-5.376561420301567695e-02
-1.184598823851879257e-01
7.904653043088483155e-02
-4.320044275738395279e-02
2.151645169127720802e-02
2.328126741171234262e-02
1.722951305105172859e-01
8.785963260768389627e-02
9.987609211925543851e-02
-4.056545690181712766e-02
-1.162299160917422830e-01
3.227562471904392438e-02
3.266106201365120282e-02
-8.502692886381572890e-02
-3.518352485626900089e-02
2.197435938333670499e-02
2.750521537767493252e-02
9.508851183822956965e-02
9.160130798537567676e-02
6.078518867304912032e-02
1.809981587267671388e-02
1.286948499510155546e-02
-9.656110191063822790e-02
5.738395566769607936e-02
-3.083948622618937208e-02
-3.517108390379406618e-02
1.131203518497591633e-02
-2.840087257879003735e-02
1.003972120764255183e-01
-7.382323628674679686e-04
-7.329925595551385620e-02
-8.197662723352409919e-02
-1.072776944524911902e-01
1.116296502406412955e-01
-3.198505671274314011e-02
9.777349921728929749e-02
6.050737137443244762e-02
1.094667395046600850e-01
-3.474244136106636321e-02
3.302607842904500823e-02
-8.332561454043731219e-02
7.349048207730182747e-02
-7.698382367331042808e-02
-1.117085466077012007e-02
6.192357270204434938e-02
9.446176610043197086e-02
-6.816967419884733485e-04
6.780178624088473160e-02
7.886702107439361176e-02
8.048054886064709423e-02
-5.593431522603871386e-02
8.827168320966284620e-02
-6.163137123251423433e-02
-8.952151627276383819e-03
6.113844229734368904e-03
3.909993941723532290e-02
-1.337739092016156615e-02
3.422100499576968824e-02
-4.175541220593283892e-02
3.904225176311708345e-02
-6.317424564605805815e-02
2.986128565004936633e-02
-6.455728503044542987e-02
-2.301381804043091568e-03
4.437311269391221169e-02
-1.078060209790475538e-01
-1.174014204143889600e-01
4.395689381543040758e-02
-8.237001178006103652e-02
2.372541776323455406e-02
-1.912553651491877803e-03
-7.050209087879778791e-02
-7.720262330086281877e-02
-7.997608357462629436e-02
1.113357511771303349e-01
-6.921155534463580006e-02
-7.818367488633061468e-02
-9.063303518344559273e-02
1.995488284569966672e-02
-3.915237497256848775e-02
9.604839010598915927e-02
4.269441620290823081e-02
1.104895658698011041e-01
7.754728279764273868e-02
-1.044010273800619615e-01
6.941646669798128000e-02
5.953762558757908635e-02
4.456251712709571183e-02
-9.820691788305634107e-02
-1.114236575440997884e-01
1.013200659194681968e-01
-1.191346571826480683e-01
4.519061608411670261e-02
-5.918002977870502612e-02
-6.890104914606665076e-02
-1.144966619959078558e-01
8.590199493771730199e-02
-8.670582315473521900e-03
-1.028557024994675509e-02
1.243321821281437589e-01
-5.894315566276969731e-02
-9.094810467114720909e-02
-8.277761974151816304e-02
-1.718322307359870099e-02
-1.162524943051479465e-01
-6.880360605768372217e-02
-1.180605942978794481e-01
4.970832420549048392e-02
-7.019907243825242171e-02
-2.182777084284445376e-02
6.809908288981039726e-02
-3.222204691820752115e-02
4.061956775357668248e-02
5.733992264690203344e-02
4.709047007143653783e-03
9.082291504773959412e-02
1.108601219999338569e-02
-5.481806752395772253e-02
-1.308093105872769057e-01
-1.444841364617011348e-01
2.867985358771085735e-02
-9.769763654360108518e-02
-4.412911508192784993e-02
-2.067842573214564213e-03
-6.676071049031395699e-02
1.187059121600351624e-01
8.485892168701637817e-02
-3.829991663671972191e-02
-5.741770520466324412e-02
2.005407454791980140e-02
-8.317192907588190354e-02
-5.740358107068265631e-02
1.029081986996067954e-02
9.434985413050099579e-02
-7.071440011416184335e-02
6.881308269783346920e-02
-4.317248209675429715e-02
6.825948297255886310e-02
1.111915684173170743e-01
-4.736297665609058571e-02
-6.034173698504445571e-02
-1.035443035586711413e-01
5.579050851182246890e-02
-1.481320156889080197e-01
-1.087514506082768312e-01
8.203888653084512317e-02
6.982942416189015511e-02
6.331987735803862316e-02
-3.090632075568286452e-02
6.162007233701038283e-02
5.955969939315302469e-02
4.131165748401029875e-02
-3.648597003490224727e-02
-9.052059770908265496e-03
1.405753679720526395e-01
-1.920542552306949216e-02
5.256582683241012299e-02
1.072576063771835259e-01
8.597699092667830667e-02
-8.576820145648419991e-02
2.337418751651336446e-02
-4.344394892168518957e-02
1.943285547915144656e-02
9.759239120357131314e-02
-4.929855721096945524e-03
3.300413681763052220e-02
-6.492929437561441308e-02
-8.726034059414276844e-02
-2.542419495908413568e-02
2.676208133740993686e-02
2.424620052627417949e-02
-2.267110228675038239e-02
-1.871380777801110590e-02
-2.578450924701249786e-02
-1.397284352185389766e-01
4.567801100342198245e-02
5.805729818973641432e-02
8.754072981912859597e-02
-6.672060842606754305e-02
2.418827916393957375e-02
-7.857197053907942486e-02
1.756748681805742757e-02
2.397251822495869572e-03
-7.713503132574187071e-02
-6.673400155457458183e-02
2.536724864143235884e-03
-7.683677188920030876e-02
-1.132276825112050050e-01
-2.971905471209018018e-02
6.923605298436485977e-02
-8.514046166882911770e-02
-1.104135821943675287e-02
1.212729585216318871e-02
-7.416299592020475506e-02
9.609313575378390648e-02
4.249770480200165679e-02
-7.909415382803056116e-03
1.164340367360655881e-01
1.246694786019429506e-02
1.022885117758773194e-01
2.067334790338552948e-03
-5.180954603414722470e-02
4.594860120560444183e-02
5.933543020773385246e-02
-8.175426890998082133e-03
4.294144873255160977e-02
5.780683141286359350e-02
1.120666773683786782e-01
-6.150517953178214620e-02
-6.355591782849515092e-02
-3.210645001358354567e-02
1.185696282653377898e-01
6.811598107316765849e-02
-3.119699010704818365e-02
-4.073554395012769780e-02
2.237633364841065328e-02
-2.723719942804400662e-02
8.468962426569363877e-02
-1.106889456894760287e-01
9.480983309771458256e-02
7.533010499120511294e-02
-1.831796224829170330e-02
3.591765982032642506e-03
-9.743061193053481617e-02
4.948397088734130672e-02
-2.285826317433325289e-02
-1.767740460859652460e-02
7.796125198082677621e-02
-3.756454811637198465e-02
-2.909678079656068117e-02
6.714853432108559839e-02
4.341682067310737025e-02
1.766897499617871639e-02
-1.750019290936647917e-02
3.738021903951149749e-02
-7.371363894260096750e-02
7.583936852951478347e-02
-1.082385846899028975e-01
-8.438382016307643951e-03
9.631395982929456812e-02
6.366765490642974090e-02
5.731801540691663921e-02
2.646391280995767994e-02
1.001666778224351156e-01
1.145573513391147935e-01
-9.076338123927714385e-02
-9.448744806771447458e-02
5.282131194613393782e-02
2.034898680228111947e-02
-4.768598313066078204e-02
-7.448971599693192391e-02
-8.810907117392315080e-02
-3.760472577740361227e-02
8.117627137343497168e-02
-6.236475286257070483e-02
9.152232733849011148e-02
9.484485769954924261e-02
-4.938755860035220352e-02
1.043628700082454147e-01
7.372779863461029204e-02
1.094694635752201939e-01
1.235369783065240618e-01
6.497376288449478732e-02
-4.586599811891353684e-02
-4.937667360017585633e-02
2.032927879266983873e-02
1.080516751295551997e-01
-1.235088859666589635e-02
-1.593778774205698370e-02
-1.281426826950714595e-02
-1.902306431287639418e-02
-4.145098986112036483e-03
-4.419896255556161196e-02
6.133912619746675898e-02
-5.427042467127028876e-03
1.193137965175746773e-01
6.301742023512769963e-02
-2.935583124034279665e-02
1.115284094464314042e-02
-1.009175253481830598e-01
4.125999348461677207e-02
-9.507812176671395776e-02
6.914774380478197480e-02
-3.439911830373763163e-02
-1.249210906386424630e-03
8.817947147479464343e-02
9.898038599057561171e-02
-7.074753158582465506e-02
6.425797563728169459e-02
6.902931431768451198e-02
1.560306559015449575e-02
1.196667793357783366e-01
8.115818229573239229e-02
3.331922718429245530e-03
8.858690903909754999e-02
-9.695262755742686811e-02
-4.112106579010697816e-02
-8.377966939396866430e-02
-4.101078284695126169e-02
-6.064433204907839631e-02
4.225239396299586975e-02
8.085061572641383254e-02
-7.195594235576631414e-02
-3.934620709820892126e-02
4.711710880838754223e-02
-7.679654470486475815e-02
4.243049070065795653e-02
-2.298803203283330404e-02
-3.823024857950391847e-02
-5.486363429533457764e-02
3.856040085219228624e-03
3.598116643590305863e-02
-9.482624535407804811e-02
-9.747700175053934657e-02
7.200804075990149822e-02
-9.212191298350355662e-02
5.603977594110923915e-02
-7.696225608066167845e-02
-5.976056066831874486e-02
8.312408264429474447e-02
3.991396723607524948e-03
8.700027659884214393e-02
-1.143922920398346144e-01
9.932251918497131404e-02
-1.088941082275095631e-02
-9.035703737257022583e-02
-2.816720891399322052e-02
-9.587329539989251914e-02
-1.140820213033516273e-01
8.337662861056667859e-07
-1.165548214467473642e-01
8.644857941757043418e-02
1.099849943033443245e-01
-1.120573207993849768e-01
-6.717988909432874578e-02
1.178125887353080187e-01
-4.690948697417215291e-02
-9.977092084847589970e-02
-6.584940227922128630e-02
-6.929947565851038438e-03
2.275376949361826093e-02
4.001378674475284530e-02
-9.036659387682870886e-03
1.084176881895798639e-01
-9.348535391605197753e-02
-5.055714423913491851e-02
1.157395737537172398e-01
6.167129539972458774e-02
-1.165784596701273101e-01
9.365617866704302463e-02
-1.122258970352782714e-01
2.468004015094981199e-02
-4.467267334858462946e-02
5.704598702761302931e-02
8.263417141870531279e-02
5.173898581753361842e-02
2.634375231279095439e-02
-1.030147635357212543e-01
7.829798195078244150e-02
-3.796750033808426322e-02
5.873726129977105415e-02
5.025969927672609833e-02
-1.825845879866037913e-02
-7.461208787107953544e-02
8.299265127271769626e-02
-5.031484868736112170e-02
8.880266093933024407e-02
-3.173740119643362039e-03
-7.728973704789023069e-02
8.688010157423978197e-02
-1.702815755683739643e-03
1.066225281588742274e-01
7.063460367523930264e-03
-7.210910184301438930e-02
-4.758630815589803137e-02
-3.820971186079904353e-02
5.391339033363289762e-03
2.516955262445561697e-02
-5.327156719339992685e-02
-6.719268152318894072e-02
-1.151044406341128062e-01
9.894510160468639182e-02
7.671244458960943535e-02
-6.435800953043122052e-02
4.358034199019945182e-02
9.394766836090631679e-02
-7.774855606259532814e-02
-3.479225603568363023e-02
-5.312620010410087218e-02
-1.282490748544146304e-02
1.102800238684020773e-01
5.748705820158749730e-02
6.962149717685532646e-02
3.120062883511271618e-02
2.396528947128768322e-02
-6.572548237746142323e-03
4.171966794230543008e-02
3.227839677053266632e-02
2.299776547300644292e-02
-7.276117673593010537e-02
7.988855697444309512e-02
7.550806359928473321e-02
1.114765783802826316e-01
-6.795191904153724538e-02
9.540268611598600942e-03
-6.004544288181682538e-02
4.587518575705996915e-02
-8.491462985324411961e-02
8.447921313565746881e-02
7.198258042957748903e-02
-1.659548028754523341e-02
7.008225598179576576e-02
9.277180265886406096e-02
-6.484645879105227495e-02
5.355391424957545166e-02
3.858363226885516695e-02
-6.368716992594379567e-02
8.360573525328801603e-02
6.597498162835786772e-02
6.849440389091658241e-03
-6.280847989662881325e-02
-8.355661511277641396e-02
1.107334567222159061e-01
-4.854269914141388226e-02
-1.281061577067364905e-02
3.142274825126275400e-02
5.449955893254186667e-02
9.114221748375758714e-02
-7.063396584764307373e-02
-5.688701151684950885e-02
5.762802316965629640e-02
1.409268665196051484e-01
3.017204989265954984e-02
2.897695196457074698e-02
-1.840580328725661789e-03
1.161537056364662229e-01
-9.417930178504706207e-02
-1.061019346573295191e-01
1.102014415256661467e-01
1.135259996188374837e-01
-5.073433473004426708e-02
-8.400977696991206167e-02
3.163640610369144318e-02
1.123928706424557333e-01
-1.907721790893653416e-02
-1.061897065140294805e-01
5.179448666366751053e-02
2.224190030257309700e-02
-1.208525568865218280e-01
6.790949097219649983e-03
-3.198033529391708374e-02
-8.546216770107716021e-02
-8.700137642675113969e-02
6.364951535653434744e-02
4.377719688833540956e-02
-2.620884358583773846e-02
-4.327458964486627369e-02
-1.052202261025032559e-01
2.410864615753096143e-02
9.363410041046686672e-02
6.147149728399801255e-02
7.822164904963313514e-02
3.220223258730859489e-02
-1.294450001890082823e-02
-2.333771536534621702e-02
-6.605388947317364368e-02
-9.710026977075207275e-03
-5.476395823677016571e-03
-1.843709949389249481e-02
3.542690728767880926e-03
-1.078748817418962724e-01
1.070468329956759113e-01
6.132065480096054316e-02
-1.994932413481364381e-02
4.210416963828482462e-02
-1.594320701761000117e-02
-4.108003107943507259e-02
-1.030153799185366398e-01
-3.310453511785734632e-02
-6.562250001006543487e-02
-9.364681280380277029e-02
9.071324499724387272e-03
-3.733776188448825750e-02
3.541968075185742554e-02
-4.195242307500805790e-02
-1.017188489889306741e-01
1.686747204146723730e-02
-1.548007199914432433e-02
6.199210280770786619e-02
-2.409926931062284991e-02
8.451002271003389688e-02
1.031869625480919400e-01
6.067316115932454290e-02
-6.308395154092281965e-02
-8.005016717035396984e-04
-1.072197827426554367e-01
8.124535282502311218e-02
1.054651180925691295e-01
-5.714592230923849075e-02
1.191732369321456958e-01
-1.025623821656241885e-01
8.491262919048333385e-03
9.632413020230153056e-02
1.050812095605338677e-02
6.691300143515428733e-02
1.025368859465008303e-02
-2.466751943352632134e-02
9.081888681245151029e-02
8.394084741074006595e-02
-3.280169891341321031e-02
-5.343863602760541565e-02
-2.516821418817228109e-02
1.117817929577072985e-03
-6.330823349401265912e-03
2.593751322772760992e-02
-1.044616621213143304e-01
5.852626722880364951e-02
3.918977251956222430e-02
-9.121877077698560543e-02
-4.653639265542122011e-02
1.430983351434035322e-01
-6.686365879912146981e-02
1.033617942211704221e-01
1.065975892848694019e-02
-7.575104965348970765e-02
7.386634222507804104e-02
1.046385528949992094e-01
-3.497034371317215423e-02
-6.132658097434691424e-02
2.700969835440643688e-02
1.613740384532676847e-02
-8.045368302864609744e-02
8.262590651799507635e-02
4.722705430994687814e-02
-1.114601557214970617e-01
2.899718723682317631e-02
-5.301393051633646741e-02
-1.070862705299590184e-01
-3.801719539293176020e-02
-1.428352917589383597e-01
-7.841233497941271779e-02
-5.367126508801968454e-02
-1.632087354298385196e-01
-5.414025240293666302e-02
9.358692211227924440e-02
2.161087690026812849e-02
1.106821333218547393e-01
6.440607274859638624e-03
-8.011991003810885192e-02
-5.891820159754553726e-02
1.135242271915697376e-01
1.676631630645149251e-02
-1.061340972467542387e-01
5.723135737454003967e-03
-3.624768009525151241e-02
-1.566362513882461893e-02
2.910213436025748876e-02
-2.768547120855050468e-03
5.045269293894277807e-02
-9.176453723585913103e-02
-1.849876501121736766e-02
4.630543235972300886e-02
2.175247169261741026e-02
-4.246941719501051704e-02
1.044094145041333382e-01
4.305831880874830958e-02
-3.206728612084286389e-02
6.496982384510111008e-02
-6.911079337711389936e-02
3.396501271647451616e-03
-1.302023193645556465e-01
-1.340263652261316010e-02
4.279179126583954051e-02
-4.516702248973819556e-02
5.844681347885523348e-02
-5.159270349355208479e-02
3.893972468471895709e-03
3.878996192556403294e-02
8.872627844732891567e-02
1.035021041441552270e-01
2.487476639299844149e-03
1.180178159009656474e-01
5.774747636358908490e-03
1.087640688904266493e-03
1.190065521729354175e-01
1.093245068025391481e-01
-3.216045752800884838e-02
-5.059440634611776094e-02
-1.127230893709799536e-01
2.184704561468768166e-02
1.148813624183305654e-01
7.350226253433674029e-02
1.281664960975706542e-02
6.654757426028827527e-02
5.084997279651712332e-02
1.019368010520980278e-01
-5.582675795234997435e-02
4.847364675210118212e-02
-1.299729121537694376e-01
1.331549102310161659e-02
-6.288721422378058812e-02
-9.204726977923322062e-02
9.117033795664541973e-02
-9.601522416775976065e-02
-5.782375110433302795e-02
-3.419114787852749193e-03
5.602583692350805722e-02
-4.861347612479230418e-02
-1.214148051568978912e-02
6.665862619372442399e-02
-5.046626878047429099e-02
1.209262933001436884e-02
-1.193316807722077932e-01
-7.600358000085577492e-02
7.413200987397017272e-02
2.793255001999499568e-02
1.160668101913986117e-01
-4.400541208098738763e-03
-7.271233112719849290e-02
8.221902334231523390e-02
9.777272340418359520e-02
6.035510683531381676e-02
7.399964752542685653e-02
-1.164058239519149135e-01
3.034867261522641163e-02
-7.488224866109013944e-02
-3.988233824258044513e-03
8.415969771807499389e-02
2.768090110677891291e-02
6.818981038827032215e-02
-6.297229054439543172e-02
-1.102177394084376816e-01
-6.107641205067642493e-02
5.563294811995610906e-02
-9.281442850059895555e-02
-1.154926566620401857e-02
-3.798534427438220173e-02
3.436214241836238470e-02
7.914961450831807521e-02
1.620907170913940543e-02
-1.144917729992293853e-01
4.224932458317039521e-03
2.027842117961260043e-02
9.459883684077706467e-02
4.386702238429476125e-02
-2.986230703830597064e-02
6.551755598159442195e-02
-8.158889631714483573e-03
-5.039366937081164732e-02
-1.032148062932086718e-01
-3.376735802666148284e-02
-3.470178199156160465e-02
-6.460229751430021650e-02
-4.512273359819093943e-02
5.607829783652729105e-02
7.790673477877975428e-02
-4.810995898877722804e-02
-3.199412507714922277e-02
-1.003922162476413166e-01
-1.479906078724488594e-01
-1.473470886700316007e-01
6.917321079144528317e-02
-4.716706690277581819e-03
8.561288237574415927e-02
4.628659372700306973e-02
2.172087416958154785e-02
5.327811184127961147e-02
-1.084397650191642332e-01
7.075066174747100811e-02
-3.578759310478178473e-04
7.202170165782180444e-02
-6.013838993290086810e-02
-5.395027337067794665e-02
-9.856750647359369122e-02
-4.033275984909880096e-02
1.145624917350900884e-01
5.718255024042188245e-02
7.086417859842088218e-02
-7.720954497068040212e-02
1.702445461370998697e-02
4.601546400655947416e-02
-2.221531653911981014e-02
-2.829181744893426165e-02
9.441507401014791190e-02
8.012880798487173606e-02
-3.183200519127747652e-02
-1.286529602139100947e-01
-1.173989712198817981e-01
-4.287937550969242451e-02
-1.290572287442662835e-01
2.650792942951328210e-02
8.981291542226543800e-02
1.074245785145345189e-01
3.183984115695279171e-02
5.118796699359987740e-02
-6.892803536391015062e-02
-1.096389253738105224e-01
6.727239871567643192e-02
5.838041381277492975e-02
1.037123634919239340e-01
-1.133430030662541110e-01
8.863620755949116678e-03
-8.833591994899725464e-02
-6.718810578319263371e-02
4.312562203036650332e-02
-1.062834131648467267e-01
1.045037288232270184e-01
1.516958683208028194e-02
8.680263310309391245e-02
-7.991845795046409462e-02
6.452607211680827515e-02
-3.318576412155330863e-03
-4.277731932780392404e-02
1.701673395046005705e-02
-6.369838487672394023e-02
4.449671793535459052e-02
4.319518559994983686e-02
-9.093918965571197444e-02
8.227642800620955238e-03
-1.063915719392075770e-01
6.960869344280581905e-02
9.644451574073363564e-02
5.142181611534066277e-02
-3.286737547231547568e-02
1.084173328097136485e-01
-8.464236173361332216e-02
-5.623425817776123853e-02
8.483701667495650856e-02
-1.038031808733671096e-01
1.139486483838725132e-02
2.247522491247443133e-02
3.199942161418861675e-02
-4.158355797879134674e-02
4.963984320721331715e-03
6.041119481973056954e-02
-2.945951197013540329e-02
1.084302053527112092e-01
-3.154159688175248860e-02
-1.756004317966342043e-02
9.080913581340840923e-02
-3.637607577153530170e-02
-9.208175216584622846e-02
-2.757052792838027289e-02
9.201712150032517745e-02
-3.663246564869052785e-02
-5.688780875136669607e-02
-7.820680972480292814e-02
-1.059760575877761735e-01
1.177499184066629068e-01
3.857434915404685943e-02
6.464776679078454436e-02
6.869342598226044205e-02
6.805356134725233652e-02
-9.752983609711958490e-02
-6.191246675395090104e-02
-1.271830772162614717e-03
-3.215752956398904711e-02
8.408760898384454174e-02
-5.925130183897341779e-02
-1.290422485996963464e-01
6.581533538288324159e-02
-9.491035510108225548e-02
1.390280722364933552e-01
-5.466086636988614494e-02
1.197686910926630266e-01
1.822786601283792052e-02
-9.114700723380862735e-02
-1.152685226674511204e-01
6.562738206916969574e-02
-3.302055984722343518e-02
-6.798436699060263211e-02
-1.034823395095103710e-01
2.192091888862420478e-03
-2.779369065935387208e-03
7.322596328373867647e-02
8.032208931862989953e-02
-1.092082402440356648e-01
6.043921797862065754e-04
-5.756230685820358517e-02
8.961063390528549444e-02
1.112238004798008217e-01
8.067530840876610543e-02
-4.054499705374119134e-02
-7.958248489547227467e-02
8.851848393241933122e-02
2.093278532360524566e-02
-1.246140318200228830e-01
-2.001632471793542492e-02
-8.130377805162780636e-02
-3.220638345973573374e-02
7.232760881431148092e-02
6.826558935035086095e-02
2.974581401317262161e-02
-3.870084037010498162e-02
7.294947759762243633e-02
-1.434457376767867866e-02
-4.128101905931744198e-02
6.946572301920581061e-02
7.576913544073103635e-02
2.490163251597205668e-02
-1.965067250343811855e-02
5.428323483773300068e-02
-3.377176186314428952e-02
7.776508485544539329e-02
1.035888085514385382e-01
-9.029993296548131931e-02
7.375891077153362563e-02
-8.252848617443710177e-02
-6.684273614797776875e-02
9.264803040999433290e-03
-3.321565316350028746e-02
-8.900385488683498769e-02
6.658977932972372227e-02
3.314991112440822396e-02
-4.499550603441488522e-02
4.607055738906325193e-02
4.991707831682771351e-02
-1.161397953106139691e-01
1.002031961093448331e-01
-9.315537122105257972e-02
1.428241951503147478e-01
2.200022326681472934e-02
-8.113599727651291116e-02
6.477977849575021485e-02
-1.846205873880455567e-02
3.455009309830694986e-02
1.486028958026563377e-03
-2.929494936380585418e-02
-8.470387879338304657e-03
-6.215337734938077008e-02
9.502301809357989459e-02
5.566052028310904121e-03
3.384165756858149160e-02
2.828395526718060701e-02
-1.109441302564216497e-01
-1.017803735601596204e-01
-6.788397414840589665e-03
-5.139731022868593291e-02
-3.372390457247916723e-02
-4.385845643876824101e-02
-5.807861642640132181e-03
-7.689221688687215839e-02
8.480950905669573311e-03
-8.753032442856559237e-02
6.759665983427740055e-02
5.302231582798926784e-02
8.851483841795983187e-02
8.381301341483619882e-02
2.924354065250324777e-02
6.749618947516644596e-02
2.788214144194602062e-02
-8.112061357991087740e-02
-1.447777926098750556e-02
7.592796209442034816e-02
4.994356905839772431e-02
-1.092713885785020905e-01
6.333487703667821378e-02
2.610389252927282008e-02
9.027840711462269130e-02
1.100533787986941042e-01
-1.131765755144599206e-01
-8.221651227885823365e-02
-7.002689599802777720e-02
-1.059916566974604540e-01
7.090642504985115654e-03
6.892896026226813522e-02
-5.066554434057885664e-02
1.142876142773488063e-01
-1.032465437485988458e-01
5.519192445973026412e-02
4.774800827025486166e-02
-1.114178057591409983e-02
-2.977135868744723926e-02
3.230505805148148942e-03
8.991954703778134994e-02
4.894020845898302587e-03
1.267260219111072117e-01
8.760311146538125870e-02
3.424104475158815802e-02
-4.032528346035900435e-02
9.140227578906560957e-02
6.999832136214351186e-02
-1.402845620702298374e-02
1.025848436837782235e-01
1.144838062136506185e-01
-3.504087185547571232e-02
3.410633918875078524e-02
-8.127271273292573095e-02
-9.155760325461811955e-02
3.097604693396141876e-02
-4.151562459255674076e-02
3.624819008026083228e-02
5.572081219221072801e-02
-7.029046726426305125e-02
-1.833569694228415377e-03
-9.057832931505628571e-02
8.175874668068694451e-02
1.004658450859883811e-01
4.053906720429445443e-02
-6.611002877034359571e-02
-8.064735709034148714e-02
-3.729736472775824901e-02
1.170547630195311606e-01
-2.651632906002809181e-02
2.434080534302625332e-02
-9.439714175620124437e-02
3.118742538631012404e-02
3.238506080598439318e-03
-5.174650745235338800e-02
-6.411050423786672503e-02
-1.690429322668935558e-02
-1.801953036925484433e-02
-4.364458938667859639e-02
-4.634962963656540091e-02
-1.191226973830286501e-01
-2.427203011101644950e-02
-1.066814525734018776e-01
4.884052878076272641e-02
7.425788218231982839e-03
-5.861242095824460360e-03
2.186401206847857562e-02
1.762849540727173467e-02
2.609142483821203992e-02
8.282509765377803201e-02
1.122775539128207517e-02
-9.320128487074211265e-03
8.978591428170902555e-02
9.591225822679973201e-02
8.196578789817292321e-02
-2.529499944793615895e-03
3.052159410632622819e-02
8.335179944797058149e-02
1.149088711517059769e-01
-8.733027095261518269e-02
7.361275906894179655e-02
-2.650745516535429371e-03
-3.691029084771215579e-02
-2.186431611455132151e-02
-6.448517546304963211e-02
1.132179878674370449e-01
2.802690646106749742e-02
-4.905859638535127465e-02
4.466597642867901896e-02
1.005304923301805209e-01
5.087140547129092444e-02
7.193857896356982418e-02
-1.445051864072645700e-02
-8.430021568478188176e-02
-1.059998991318976541e-01
1.126016548834141290e-01
3.995752982296798400e-02
1.028453512504845235e-01
-4.839891445557420457e-02
-4.750543543854569145e-02
5.828279042465932952e-02
-1.576188540882165687e-02
7.630365265520383522e-02
-2.008509211753480017e-02
-1.975303825468228969e-02
-3.197301181205226134e-02
7.224591459321266784e-02
1.743838858727847496e-02
1.070993564335127185e-01
-8.454720861303018087e-02
-1.341768899229726572e-02
-5.691461333763685876e-02
4.824395114198398726e-02
1.863732081802387322e-02
-5.821197053133238958e-02
-9.901501208446264468e-02
1.192600510320622476e-01
-7.751163668529839623e-02
-9.626803662326180455e-02
-8.345001183829947600e-02
-1.164212054065359853e-01
1.051458972933016767e-01
-7.669091145538047168e-03
1.017290608633058917e-02
-1.069999583871593940e-01
5.260167123167231590e-02
9.093129452215298336e-02
-1.805861523446154054e-02
-3.064365688534107304e-02
-8.469481720420672655e-02
5.290425016465270108e-02
2.614198941144375843e-02
-1.417400686220107557e-02
1.771560970928371531e-02
1.082438150007457300e-01
9.829593776915035441e-02
-1.864664694350840271e-02
-3.230906840038470090e-02
2.230194362174474365e-02
9.149905581811426658e-02
-1.081761428947710518e-01
6.825343635743369441e-02
-1.123708278441294950e-01
-4.682536642678915978e-02
2.390444098255823518e-02
2.991245790086733553e-02
-5.617577450992983223e-02
-1.004056039940868506e-01
7.516050352611414187e-02
3.207248926358220037e-02
-1.002194498285919333e-01
-2.715482678686084034e-02
7.722987596001366917e-02
5.989693408837968615e-03
-6.650044226452836438e-02
7.408809047420306104e-02
-8.398010336363431749e-02
7.378163885505563402e-02
-5.132635199060931602e-02
-1.686107983532381116e-02
-6.008795426446183335e-02
9.449552842026981425e-02
-8.749135216111907087e-02
-6.483025785056102663e-02
7.795310783142493302e-03
-6.842618429930889812e-02
2.609851489883810785e-02
-4.080363091828525385e-02
-8.883861064450821257e-03
-8.997982103294709100e-02
1.081172391998797139e-01
7.661935232575059485e-02
-7.034287183886585304e-02
3.344106589849150327e-03
6.177346657448096190e-02
1.130986790531135905e-01
7.265818161004206077e-02
-7.305375907245019451e-02
6.900885092132288956e-02
-2.408201003119385397e-03
3.312656263356226344e-02
-9.566966551379010864e-02
-8.489402657468879398e-02
5.058403305016324902e-02
4.840421801594002593e-02
-2.317031384922652731e-02
1.800712355405784332e-03
1.187628439389291357e-01
-2.076892375924328446e-02
1.264038192004685035e-01
-3.310141088567575274e-02
-6.962700058193846409e-02
4.525955355444014061e-02
-7.440477265049295907e-02
-2.770483726990890030e-02
1.134480408034804419e-02
-9.604791930030112668e-02
7.228746801301871860e-02
-4.170258570347839394e-02
8.936254606425296509e-02
-5.832340669955290990e-02
1.072230060671255786e-01
-6.586349289458910683e-02
7.947406364379568100e-02
1.110743508049254480e-01
9.169810203455398823e-02
7.424143595989869671e-02
-4.468031386885489009e-02
9.920224410175892960e-02
7.777325451535675727e-02
7.105100954107403111e-02
1.021309585755307281e-01
6.674686874329864572e-02
-3.699034552822747651e-02
-5.729563448633499811e-02
-8.397582986274566841e-02
5.792495303791489469e-02
-3.875708093616710842e-02
-3.280156824280126143e-02
-2.425011092284477116e-02
3.103166403276382337e-02
-1.117858720048146709e-01
1.109786179999636413e-01
5.293914593825396753e-02
1.119847954298799075e-01
2.127383619269737646e-04
1.478919678847352183e-02
-1.000155689179573482e-01
1.170622332153883061e-01
-6.266100229921386933e-02
-1.164314229161896030e-01
-7.322392868549934541e-02
5.527499587017478677e-02
-1.337794450165524091e-02
-5.453921642994111196e-02
1.166469792231089320e-01
-5.301695621634265609e-02
-5.406109256892403271e-03
-8.122933981066697215e-03
-7.972393568283030196e-02
-8.625113783001773018e-03
-8.750744324319661982e-02
-5.430140072933350298e-02
-8.849159117898158788e-02
5.707557274646648388e-02
-6.732619227241876114e-02
-4.634736078972147982e-02
1.076375185912516741e-01
-2.163450293647490100e-02
3.195705948083088499e-02
4.205073521674476678e-02
-9.198567744066672366e-03
5.378043187797300340e-02
-7.566074629432152643e-02
-1.495657488881298137e-03
-6.122757218896660025e-02
-1.170938870125520226e-01
8.633060575841487727e-02
7.011073718033741797e-02
-9.563739645788689459e-02
-5.329569771606008921e-02
-1.133075291302993032e-01
8.348501012399042742e-02
-3.317441145120995916e-02
2.418777022860350151e-02
-4.821083423973453880e-02
5.874737146551253786e-02
7.767471171225454052e-02
-1.136829840552992243e-01
5.290103663421183433e-03
-4.290866853971847528e-02
-8.035234513241373833e-02
-4.770107686395158586e-03
4.634775419480991615e-02
9.608578210823932528e-03
7.638210796530761626e-02
2.377848657563064183e-02
4.437745042229489234e-02
4.037640915632630806e-02
1.170246201571010086e-01
2.907634393213977611e-02
-1.195315254816287642e-01
1.439216788331908713e-02
-2.968290647230024948e-03
-1.175171600110956338e-01
-6.406955608304884531e-02
1.056570369677426319e-01
4.520300591462314554e-02
5.554880259943930504e-02
1.135246697188389692e-01
-1.052333017016855582e-01
-5.515914097508000519e-02
-9.467056805737393554e-02
5.089798102971444804e-02
-1.127845078268784884e-01
-1.035876873025724371e-01
-8.842156992206090527e-02
5.819496414104467080e-02
4.237532136613945954e-02
-4.445937679432301198e-02
1.476820145894318544e-02
-2.963367514616163222e-03
-7.275292876983900647e-02
1.173235283681086233e-01
5.246569186303215448e-02
8.551063996946216272e-02
1.014705688969327335e-01
-6.296682807430996343e-02
1.049186375957113088e-01
8.655333496909022040e-02
-1.631505347524752833e-02
2.961316190640265675e-02
-4.226410853434261344e-02
-1.037847207544690536e-02
7.135445294826786578e-02
-5.367317927213081236e-02
-8.761627992534852180e-03
4.686755453214738742e-02
9.210077717054820923e-02
1.162185163143951566e-01
-7.310276040632590622e-02
4.215840597512304604e-03
-9.723066072973898799e-02
-2.313585017439636835e-02
3.337293938243765523e-02
1.126739436899552305e-01
-8.646931220380528471e-02
-3.330807161530462135e-02
-9.245253394235128375e-02
8.464206594826585717e-02
-8.662513435155004549e-02
-4.049100709587394320e-02
3.268846929715828881e-02
5.418841295246692308e-02
-2.619522286700505173e-02
1.955437544968748401e-02
-5.901306773903661207e-02
-1.363219861861710187e-02
-6.560373862917465160e-02
-8.545876312529758490e-02
-2.395375431224215125e-03
-8.935206865481687410e-03
-7.509559409326704849e-02
1.004069431470383383e-01
-1.037757747803504937e-01
-4.156641473070837867e-02
-1.064318975450144478e-01
-9.989160019619852671e-02
-4.657001534696281891e-02
-4.283629339210594938e-02
1.067796045143886846e-01
-9.159361473346525062e-02
6.691394642931476969e-03
-1.132215063970704177e-01
-7.008745072541310017e-02
1.105105410040140013e-01
-6.952448589320335548e-02
-9.479770840093765250e-02
7.449591974220797982e-03
6.318523037168365108e-02
-1.189072485424636227e-01
4.302222727315396789e-02
1.075426521424234644e-01
-6.886294445836639577e-02
-2.111685780597919587e-02
-9.177035465060287209e-03
-9.109840293512357079e-02
3.783361071017562333e-02
7.540601634644573947e-02
-9.645950582175495669e-02
7.025497339060295110e-02
-8.645268122818888790e-02
5.915867629820897172e-02
-5.116026166726968943e-02
-8.163006071843365019e-02
-1.188996702798462701e-01
-2.031206541651952788e-02
6.383239134198119558e-02
-8.020764785778018713e-02
-9.602002343015511587e-02
8.541444049576250863e-02
1.119619215431128245e-01
-3.046312495555592026e-02
7.226385963282845604e-02
1.319088992053954988e-02
-5.195529931586895245e-02
-8.761376181259063201e-02
1.055431168054287994e-01
3.400752226553104690e-02
7.682016185517206996e-02
-1.038810562989943148e-01
-8.207707483750879829e-02
4.946562467240280675e-02
7.652106338857067591e-02
7.195457047518170890e-02
4.108776799833306972e-03
-1.360672696000486855e-02
-4.098568476336854338e-02
2.967632494629218048e-02
2.866384044749402393e-02
-3.205972905069632423e-02
-7.174984389981703403e-02
-4.140798106823141006e-02
5.597557447374481611e-03
-2.156700118436990360e-03
-2.175025358351535473e-02
1.898757939090020899e-02
-2.546275191674767999e-02
6.431361219502278181e-02
2.385021536298810585e-02
-1.058328201753730574e-01
6.391743067981986437e-02
4.334838640476038063e-02
-9.040136163534859270e-02
-4.171863705220172497e-02
8.012017363965123762e-02
-7.728468870772493837e-02
9.852658448740015881e-03
-4.758849081068099174e-02
-1.859562403162386135e-02
4.755332853284655048e-02
8.082261763514816955e-02
-1.029858911171536301e-01
1.084078619254119913e-01
1.133037254423755746e-01
-8.961912538928111516e-02
-8.141900934327631068e-02
1.595983170862080858e-02
1.365981251699238154e-02
2.624256768031796652e-02
-3.915209450853966364e-03
-5.196846255516412993e-02
1.080878482890921394e-01
-1.117702766206048887e-01
-4.192096817488695851e-03
-5.581099095573071461e-02
2.560069821382593078e-02
8.704204464492718007e-02
2.149346001853071758e-02
5.651249568777508975e-02
-4.065361293138552296e-02
1.250656730369536368e-02
1.073153958497202881e-01
-6.986929348347489799e-02
-3.656535884775877210e-02
4.274033025879966224e-02
-6.255674344593917247e-02
9.077386643783667830e-02
6.467515496292220931e-03
-1.228319568398705819e-02
-5.934549008360306271e-02
1.070217641186706065e-01
4.652838962544809248e-02
-1.010470919983527255e-01
5.294274585383565435e-02
-1.106352129144901192e-01
-1.194492823989110886e-01
-9.082849258462788455e-02
5.874394632178924630e-02
-8.312523193825717416e-02
1.103914169838123432e-01
1.133321257071816801e-01
3.364165903990377904e-02
5.637007949461279865e-02
-3.225569423248549061e-02
2.591875223186521082e-02
-2.875058756955343672e-02
1.198972200062255328e-01
-1.022754610793361607e-01
7.473619066158004864e-02
2.677050265557761807e-02
-8.042076956085650319e-03
7.117126623114519712e-02
1.065987297297781994e-01
-5.848375873531359154e-02
3.286277699965498011e-02
2.410693792774739729e-03
5.202117734655390541e-02
-6.134921597380853936e-02
3.689693658017878519e-02
4.713539790198371937e-02
1.657905864367569329e-02
8.636294794661864005e-02
-8.586964763197880990e-02
-2.272883599674572347e-02
-1.026134133581813879e-01
-5.186032916114207553e-02
-5.285443824468494950e-02
-3.091781444058691250e-02
-1.771613095898206744e-02
8.326211935578456402e-02
-5.910519015319005282e-02
-2.664665265228013252e-02
-4.596877138529647383e-02
1.932789974474327307e-02
1.265422878711461828e-02
5.927603088681047266e-02
-3.287381638561751029e-02
4.406031241698084300e-02
4.713445931202818462e-02
6.479550888891295879e-02
3.527112899108637151e-02
1.215612225434044985e-01
4.039622251015537874e-02
-6.621949351056301281e-02
5.714494353484458888e-02
2.364791535606834347e-02
6.082175110846682956e-03
-6.101423275562651433e-02
1.283352225183235010e-02
-4.217055081982086506e-02
9.101306273356614407e-02
-1.043819438055292176e-01
-6.353876854701143162e-02
9.141831452486527676e-02
-6.997764044141761841e-02
2.271392281601796945e-02
-7.440733664932272506e-02
-9.044357658165633196e-02
-3.511478126525002796e-02
-8.975090481276226662e-02
6.885255274990551011e-02
-2.726508817651642977e-02
-2.701194985172414645e-02
-9.519077717921809595e-03
-6.342726019785950575e-02
-1.121575055201697313e-01
2.494384927367050003e-03
-6.884994889148325636e-02
-2.405049874734763865e-02
9.091378734383316618e-02
-2.364694280763389791e-02
1.100887432345553502e-01
-3.460797158517470856e-02
4.280688573123812846e-02
9.940005450436835421e-02
9.499599717919707254e-02
-1.053613553057349966e-01
5.601288615998228915e-02
-4.163853263888241119e-02
-7.611431973217677727e-02
-8.102668163768755871e-02
4.426107251721372177e-02
1.476885675848466258e-02
-1.092307388532838819e-01
3.760841846431820651e-02
7.703931475315572985e-02
1.134997319818378397e-01
6.257709527669395866e-02
-9.717100816875005875e-02
-1.613387931460042585e-02
6.838827149916321124e-02
-9.435345299824596244e-02
-8.571182094315765720e-02
1.175826277430762901e-01
7.969959701358839479e-03
7.662434113881359810e-02
6.277545777343052080e-02
1.029727396938038414e-01
-7.660681811200174829e-02
3.004380736618065748e-02
8.520167939314006456e-02
-5.828057949646806707e-02
-7.312255676784233660e-02
-9.284378761766241828e-02
-1.088314512885816925e-02
-4.996608862220248796e-03
9.808897429822029113e-02
1.086997622856658435e-01
4.038506877912875770e-02
3.679485714081523473e-02
9.298259397390203074e-02
5.547552356680356817e-02
2.963418331609592865e-02
5.772932362446168281e-02
2.919327232551793827e-02
4.846979025015946824e-02
-1.054064055573145087e-01
-2.189842279708787212e-02
7.157874814816099496e-02
-6.574564654759852689e-02
2.154649136216856605e-03
1.223106121129763401e-03
-1.210151339633814827e-01
2.685818151265082984e-02
-6.043711494182155836e-02
6.690664490233204365e-02
1.096796013323027424e-01
-6.212448844815168097e-02
-4.065627552083328489e-02
-2.723844427261826618e-03
8.476885571803318212e-03
1.105812810140834324e-01
8.329218096173880703e-02
-1.744153823706532172e-02
-4.667870216655463367e-02
8.383617114055912090e-02
-4.494088497279642019e-02
1.107528672385413721e-01
5.032557587875266698e-03
3.278047492399689677e-02
-6.975029879775394848e-02
-3.699627369243844305e-02
-6.242540536917139810e-02
-8.025183655255171966e-02
-4.400134250308329609e-02
1.100359766136038420e-01
1.073082264555952903e-01
1.072925650215497545e-01
-9.590465449545453047e-02
7.487478008799615219e-03
-7.662130338124765669e-03
9.530033696665292375e-02
6.263049800407183287e-02
3.203657388220038094e-02
-1.152211971491674536e-01
2.846330279477430822e-02
8.742058354601481285e-02
-1.106771838523856744e-01
-2.727969751073653585e-04
1.008751360405071573e-01
8.188131229375915365e-02
9.890021243576263554e-02
-3.679442944331848958e-02
-3.409431821491822751e-02
1.094135404478901452e-01
2.441540084603837160e-02
-1.161732421413241428e-01
-1.165529917413665045e-01
-5.464575317492758461e-02
-1.397148855846618368e-03
-1.118320668079455515e-01
1.054164620344406056e-01
1.275606507050033589e-01
8.188286703142103051e-03
6.790021907803561740e-02
9.580989758618030372e-02
-1.579081353379022806e-02
-4.124958159311380851e-02
1.065878888712980671e-01
-6.216701796791921503e-02
-4.727761496682313797e-02
-3.063763651137926119e-02
6.035984775345991371e-02
-9.354737939715115913e-02
-9.302535789380114717e-02
7.193637796557574016e-02
1.140038325765270477e-01
-8.585495306136731175e-02
-6.345584950979819838e-02
-4.763463274913726231e-02
-1.958684631874261367e-02
-1.046758430290442438e-01
7.134964636265177240e-02
8.117807883454321305e-02
7.517386202592303557e-02
-6.035743810995655018e-02
-1.973861803698553560e-02
8.158095774547038936e-02
9.705820373370453724e-02
-1.058664844054583720e-01
-5.913503627923108463e-02
1.107294251469021773e-01
4.151599408518484580e-02
8.123376136493390409e-02
6.443208182781909321e-02
-4.328011872864393622e-02
-3.276920553319032092e-02
-3.559970931459116583e-02
3.763373863308724920e-02
-6.185070310357062943e-03
-1.073010947611538757e-01
-4.412483452911798720e-02
-5.168075676662020612e-02
1.466815549176630692e-02
-3.549811818326458618e-02
-4.291962133472432273e-02
9.130755082382246979e-02
4.141332357552072324e-02
5.900518605422228058e-02
6.944963044491263282e-02
1.042414491694023532e-02
5.180173531225008149e-02
-2.514381012113845945e-02
-2.543736976855478366e-02
1.133496234784335532e-01
8.849301034567452762e-02
5.233071982349375012e-02
1.184915537093025606e-01
-8.617635631989974121e-02
1.130634050792668349e-01
1.214288095157433148e-02
-3.083014905281023996e-02
1.137733651530859202e-01
9.868785876798502610e-02
5.309288806249974450e-03
4.093096304070674950e-03
-1.128536924911234807e-01
-6.192573810390192973e-02
5.954822364500923088e-02
1.710443565966932727e-02
-1.043994679857400826e-01
8.161289443613568839e-02
-8.165962863090828194e-02
8.963256800690769244e-02
6.697670686131794449e-02
-8.687786272345501826e-02
7.441653522414898130e-03
-1.140449463437061689e-01
5.638636450961380039e-03
1.097781024546928552e-01
-6.510764783405723066e-02
-2.042583892621042257e-02
5.540595005973198220e-03
-6.990503531119456049e-02
1.920813777425597370e-03
5.929657808104191880e-02
1.641796268578666479e-02
-5.809093553307002888e-02
5.815438835251416499e-02
1.133179719465198382e-01
-5.438566364226524175e-02
1.519300631292460312e-02
1.131663731558653768e-01
1.151459120709189682e-01
1.183397672943981294e-01
7.498531685443649009e-02
1.154753351696391067e-01
1.095250545747628312e-01
7.647407828660590656e-02
-5.754549216818893170e-02
-6.009449522520271536e-02
1.076718280353944346e-01
-8.750800424664978427e-02
-7.174840290091556716e-02
2.601388841307727962e-02
3.276628401690467873e-02
-2.460206462546387154e-02
3.914512773225339165e-02
-7.401020202230215728e-02
7.548673164028235627e-02
1.034923851887098456e-02
-9.672981131109167907e-02
-4.323109908788063532e-02
-2.886103759297562604e-02
1.077183291921306324e-01
-9.116278667782640177e-02
1.612521536468465577e-02
2.962125691514913561e-02
5.211965150486153053e-02
5.547273676442616291e-02
4.544855994856607934e-02
1.134531903298648288e-02
6.076887409334941204e-02
9.369163955039049030e-02
-1.997007087109903267e-02
2.242748507749699888e-02
6.684457677475397208e-02
5.347653935715818152e-02
6.222061766860196436e-02
-8.530436744742176530e-03
-6.418164792576547262e-02
-6.137015623727165581e-02
-3.166359698333981454e-02
-8.349810041564616203e-02
-1.312855519211426035e-02
-1.289154078438184761e-02
9.915213190446788005e-02
9.338775480889464908e-02
-8.262321228598641654e-02
-5.965935817794453672e-02
-3.771305015024179613e-02
5.703691001474445188e-02
9.028220240505946403e-02
-9.338195578580721357e-02
-2.354665199855520905e-02
6.475428245566287877e-02
7.987557944361549367e-02
9.068100396809106178e-02
3.094086727637048936e-02
-4.104319831106311572e-02
-8.283420110385654456e-02
-1.025135376793870068e-01
1.056621949435682800e-01
-1.134070520567675294e-01
1.114239594847325765e-01
4.225534254132322365e-02
-1.068321583438152922e-01
-6.976548865636077526e-03
-9.578046267337619879e-02
-2.959012979049018346e-02
2.586443860232348624e-02
-9.623741095242233090e-02
-4.397899996536797085e-02
-9.467221726819428917e-02
4.505093934950044759e-02
-8.664336515249580761e-02
1.480567056398697165e-02
-4.716280777169138544e-02
4.841450388864128318e-02
9.299669450276927540e-02
4.910366110899055253e-02
9.726409102028318876e-02
6.505793736144302453e-02
1.461874081860102363e-02
1.668161063316240741e-03
-2.061995720853841002e-02
-8.268684007106535949e-02
6.874992733828622082e-02
-5.010925163667931392e-02
5.790723336964873069e-02
4.146021718784954208e-02
9.726308704447594877e-02
7.315494306439059014e-02
-8.527231977778958194e-02
-6.069998688969922840e-02
1.057407871682503331e-01
9.502054789806613222e-02
-7.536197295247643035e-02
-7.340215918263816308e-02
-9.306395766864039576e-02
7.070463850926024529e-02
1.102875156990813649e-01
-7.137539197191615503e-03
-1.164553374980688283e-01
-7.906943443394150173e-02
3.111649954099438009e-02
-8.418279541499384955e-02
-9.529133914639903447e-02
-8.996244736137974651e-02
6.020406489221703794e-02
3.978272321102685471e-02
-3.786103969889027809e-02
1.402200289309391695e-02
-9.818805684827970615e-02
-1.689895339385628914e-02
6.581091289835882792e-04
4.849559212911981609e-02
9.279163869566665890e-02
1.182007743292781271e-01
2.866334532782955150e-02
5.924138737542169325e-02
2.901653399350779400e-02
7.472026022794217570e-02
8.062205814672036841e-02
3.554467359526617635e-03
1.534097207622426261e-02
-1.459112510462975618e-02
-7.711480888190987149e-02
-2.403444068105650266e-03
7.390285105659259723e-02
-1.109786994276282940e-01
-4.155101071607756463e-02
5.586207411327898803e-02
3.157233285099489417e-02
4.518193158949877775e-02
6.473591424385194415e-03
-7.533716055865664896e-02
-3.407671611088955443e-02
1.265754884298771719e-02
-8.581078867444665026e-02
-9.744334772425451707e-02
-1.014681505276769785e-01
6.270243837367617257e-02
-5.620084042154756959e-02
1.138014088599522411e-01
6.536420187766907308e-02
-1.105963214200476191e-01
-5.347461287527168622e-02
-5.963331777310477977e-02
-2.022896010261739791e-02
-1.542094756506335457e-02
1.083266609864450281e-01
-1.447128604085484715e-02
-3.217145212359755202e-02
1.173050050189527044e-01
1.066726750965968362e-01
-3.980832835327843822e-02
7.894227157534874917e-02
-6.066035946268574786e-02
-1.892177567770389826e-02
-9.829967504806852441e-02
-1.115037457697164169e-01
-9.934628653174597257e-02
-2.106459406163700698e-02
8.196286941591246489e-02
-1.126100110824618528e-01
-1.056729472064890651e-01
-7.367358846416204032e-02
2.049048870438020115e-02
-9.753683462113502123e-02
1.034343622295538778e-01
-7.348479706948073120e-02
8.753420083333637858e-02
3.159649419556014027e-02
2.495229638338177652e-02
-6.515316427550907341e-02
1.170430639107125637e-01
-4.390650594147152419e-02
7.726183970609814926e-03
-1.112010086401380160e-01
-1.167476945831188162e-01
6.213588865708057074e-02
-7.195490091113698750e-02
-1.222852236651709480e-02
1.022950411520361369e-01
1.180622045252579383e-01
-7.736151277743014143e-02
-5.820358593898092986e-02
6.042254160865205559e-02
-4.672239001130944897e-02
9.927654590870091389e-02
7.742557811275068563e-03
-5.399044952971165934e-03
8.057477815893751560e-02
1.419690194338303103e-02
9.665294344264663273e-02
-3.119837155276177203e-03
2.436779137632293091e-02
-4.711339701657932949e-02
-4.781539259440505812e-02
5.981855454895024238e-02
8.227753262077096286e-02
8.232129213455609273e-02
3.101236766087326138e-02
-9.482228615831037738e-03
-7.697548498647037440e-02
5.123186311461043474e-02
1.944282207903972812e-02
2.844999844814300252e-02
-6.604574033301147118e-02
2.566471283937949918e-02
-5.717925007969668766e-02
-1.142369629668062991e-01
2.730242883753396937e-02
-7.281388977033921572e-02
-4.499065428143698281e-02
3.780166269037022603e-02
8.004419635432960187e-03
1.061809026399310879e-01
8.911516451294582142e-02
3.360136258191605274e-02
8.598172560565976730e-02
-7.234666017735226495e-02
9.933430340840575246e-02
9.837376934254256355e-02
8.305559145868819659e-02
-8.798180635032208652e-02
5.863529749959223158e-02
-1.128957540890310335e-01
2.744642940507889539e-02
7.610351613753449374e-02
-5.374859393619045404e-03
-9.121155467162692099e-02
1.624885671441126181e-02
7.312819988754028222e-02
9.662219680972906899e-02
-4.012122411858384113e-02
1.186394753398276741e-01
1.169476652041247650e-01
2.386882156647492439e-02
8.463481421236773022e-03
-4.530292331569980846e-02
2.295064031784400244e-02
6.028907229607257529e-02
-6.054898778725315706e-02
-3.304107841596891360e-02
-9.201411918866177209e-02
-1.726245094751159212e-02
6.912749887736298338e-02
8.557440745390530734e-02
6.886707347824327918e-02
-1.082226229081963281e-01
1.014633996783170962e-02
8.092868855010741658e-02
7.295957595399260587e-02
2.382807078781986124e-02
-8.564808333518486583e-02
5.741346560862113299e-03
7.047786691821490701e-02
-1.440453839018700569e-02
1.201788434468827396e-02
-1.695374053402922201e-02
-8.716223578028230168e-02
-7.973699390948725541e-03
-1.189201763409272333e-01
-8.068134805134155596e-02
8.815316998687360017e-02
4.356730206574555703e-02
-8.102172388383836743e-02
-7.792280064423234842e-02
3.263386195984026988e-02
7.358742311254055923e-02
3.249757094840863281e-02
-6.132394697655271787e-02
-6.710155268507276075e-03
-9.521411792597909984e-02
1.015981303300631522e-01
-9.800542221786894600e-04
-3.911330328225327141e-02
-9.447634124414006074e-02
-4.964412068395690492e-02
2.821603797865198521e-02
5.972050775270560524e-02
-5.726093074414305428e-02
-8.668166150663046687e-02
1.032464163124685863e-01
1.104524987361331229e-01
-7.245427528518290361e-02
2.158706355054772295e-03
5.022525906080011621e-02
3.440198500033148088e-02
-9.294516980564453135e-02
4.824900881815365888e-02
-8.637044152848442902e-02
6.078537341347171885e-02
8.091482935673974253e-02
1.094264926009225342e-01
-5.383772022128562734e-02
1.992158055554397664e-02
-9.132262874177921042e-02
7.650486707706743994e-02
-1.153220327733860684e-01
3.947529596840872873e-02
-5.120454767681031916e-02
-8.182559030960599722e-02
-1.141532930455246148e-01
-2.117957374417595018e-02
-9.111264867280323074e-03
7.787801732492981299e-02
-1.102629405660925654e-01
2.264918452303307447e-02
1.104922087020936659e-02
-8.399052405946191846e-02
-8.073509824176593186e-02
-2.895457900558737196e-02
6.946419949608675232e-03
-5.520143570506497177e-02
-1.066401558934920307e-01
-9.214807019420309967e-04
-8.284165389331837187e-03
8.531092300219639268e-02
1.104420982347858599e-01
-6.684795670938692425e-02
-6.429782573569363391e-02
-7.505285235629628737e-02
7.045722442869956081e-02
7.500882323732989410e-02
-1.543188540594404683e-02
1.004261432055807320e-02
5.671367865833914362e-02
-2.551095662727761657e-02
7.482398147410870837e-02
-8.040169459848164890e-02
9.180280894862104246e-02
9.346416497205423113e-02
-5.728119567941825779e-02
-3.604627527103327483e-02
-9.232865293121350625e-02
1.362761406322838750e-02
3.695313677452824463e-02
1.934082557959485374e-02
5.993712610383806344e-02
9.439172832318390438e-02
2.858097301088929898e-02
-1.182830646699697813e-01
-2.580325166662066592e-03
4.929490766869437657e-03
-9.041279939037998037e-02
4.859969107089452678e-02
6.080436961195305468e-03
2.600762766552080010e-02
-1.191020622347695457e-01
8.493806887150008589e-02
-4.524914119306782528e-02
-8.692306338686200951e-02
6.642945182360338041e-02
1.030076180249861889e-01
1.921926832479803685e-02
4.405822004165171890e-02
-4.963220824033241774e-02
-2.618474698694624528e-02
4.455826482094640134e-02
-5.440510043146002360e-03
-7.463343657757277871e-02
-7.951400377392710273e-02
4.092199857794113355e-02
1.150001043664550249e-01
-2.475931552146399400e-02
-8.835725468208356637e-02
8.880696523409907506e-02
4.748763123520426815e-02
8.720693881529889557e-02
8.766658204448232738e-02
-7.197286154801267599e-02
-6.349212008321201972e-02
-5.100688824512492059e-02
4.423034016340003649e-02
1.731431768327269458e-02
7.201658355071803574e-02
6.826601898288625625e-02
6.621732428889234856e-02
4.645347394592302948e-02
5.744299413538127980e-02
8.622949257338290152e-02
5.243690720810384454e-02
7.212609708183738422e-02
-2.264028667845214421e-02
6.904970826240488212e-03
-2.871102530885161902e-02
-1.802909957124161633e-02
1.472102436154744745e-02
-4.456708645409916680e-02
4.728036700907865125e-02
8.215857341577456618e-02
-6.688257240104175660e-02
1.050180260795461062e-01
1.311034564257445656e-04
3.320303820740467399e-02
3.186563527061861412e-02
-9.263290358752281073e-02
6.295735298919331868e-02
1.155392652964412625e-01
-8.088813786335474765e-02
6.509073507371405942e-02
-1.039235840272021011e-01
-6.152114444358893625e-02
-1.195136230652194959e-01
1.110536863639654259e-01
7.981290526301934585e-02
-2.104443396520932000e-02
7.678112090652783328e-02
4.345461086682042562e-02
4.578767751009768516e-02
-1.767094519610920220e-02
7.488704766075243713e-02
6.146460564842991248e-02
-6.200593736250747251e-02
-7.683685837529101448e-02
7.202595886450753951e-03
-9.319549755351824727e-02
4.941546282878703927e-02
4.751455458858607622e-02
-9.191339284125971121e-02
2.405842985531257000e-02
-3.199781706190495817e-02
-8.948118951921510411e-02
9.634398567160623594e-02
1.103304081137323200e-01
-4.696674098146744192e-02
1.606537385753660160e-02
5.925895112415821564e-02
-4.473601618706948141e-02
-5.889653093147225599e-02
1.138985197756351986e-01
7.512860724199138529e-02
-8.661551901409922372e-02
-3.970808378067252481e-02
-2.039636693167698814e-02
9.669420670257897199e-02
1.065647957640636495e-01
1.138695569018714632e-01
3.218216784960710453e-02
-5.530901487170890307e-02
8.409414069362826372e-02
-1.064129154309880060e-01
9.577996593950588444e-02
8.731784327550534686e-03
1.147491762814951619e-02
-5.231985436308335402e-02
-7.275312901227634632e-02
-1.991194809624848017e-02
6.458683197211886363e-03
9.602207193632149307e-02
-8.796466514789222368e-02
-2.197929285107038874e-02
-2.748849323538028744e-02
8.627809521294793615e-02
1.066877342456806418e-02
2.228310465115185962e-02
4.826996959155392675e-02
1.004060297167042905e-03
-3.077136430731786457e-02
2.080500805899826444e-02
-2.877918267174584682e-02
-4.427077484232305737e-02
-7.457411832585374503e-03
-4.200843658262942704e-02
2.994882540589670697e-02
-1.757784618264547714e-03
-5.737012211962454894e-02
-1.017482559539805015e-01
2.222932182974645537e-02
-3.229076736783822316e-02
-1.769323304608343486e-02
6.230239135354840446e-03
6.614009199685351448e-02
1.635637845046199884e-02
-1.026460879772592011e-01
3.938842110505456212e-02
1.160306590779206504e-01
1.300625296196087910e-01
5.264232037676610382e-02
1.136275965538068311e-01
-3.695503180027291668e-02
1.048616473016640016e-01
3.053425946113918002e-02
6.031284619255954105e-02
-2.745141805405746510e-02
-2.248443685980187554e-02
-8.281096587639100171e-02
8.945545812394677110e-02
-9.778089778847479097e-02
4.771816525268807868e-02
-1.425175116425892244e-02
-8.643544795795327085e-02
8.841712656280398264e-02
-1.182457215748139723e-01
-6.751034367741730324e-02
-8.956970347188895898e-02
-7.949983644902354485e-02
-1.052155086178472032e-01
-1.070569521127366086e-01
8.016694291739767664e-02
2.535428430479901366e-02
3.714494934187178438e-02
-6.790389381339227703e-02
-9.322543864931091134e-03
-2.454233193965494469e-02
-1.085333792217853671e-01
-4.438764954195029838e-02
-6.099595247112832991e-02
6.357185568419072841e-02
8.054826088629943315e-02
9.920678295473875016e-03
-3.718273880298312434e-02
3.402272969794448761e-03
-5.539075732029382498e-02
5.474133978478654822e-02
6.932692359975849150e-02
4.848905566968751690e-02
6.544484093182401097e-02
-4.550102332879148864e-02
-2.345467581957888167e-02
-6.521402701247808187e-02
-7.830340773772669072e-02
-3.220919775351652886e-02
-9.523490092669897877e-02
3.797458773677796912e-02
3.274580099459409310e-02
5.379067303526308824e-02
-8.740803268541284810e-02
-6.503517102880632117e-02
2.907153165038922973e-02
6.883354132623488442e-02
-1.024345378584646665e-01
-5.340243076344790979e-02
-3.615284345887242318e-02
-6.684699773077579232e-02
-1.066929995139351967e-01
-9.424773651972589983e-02
-1.345072421654812736e-02
8.009058227672087582e-02
1.212857095007783131e-01
8.415803841920437012e-02
-1.034230411194693167e-01
-3.556429517686904990e-02
-1.071028664017629889e-01
2.181664747692497300e-05
-1.026352050469329230e-01
-7.283327321535282284e-02
-3.240788568818351451e-02
-1.069006553408309579e-01
3.667304739002340969e-02
6.371944411211043213e-02
1.786964191481023355e-03
-1.915570330725382617e-02
-2.082972036224767232e-02
1.066430219210741798e-01
1.112410574450973209e-02
-1.025596935931247233e-01
-5.108457258041350368e-02
7.361867120941108233e-02
7.015320755677730002e-02
-6.850113911749949880e-02
1.862029228952813420e-02
-1.010775334178693613e-01
-1.101259425531199293e-01
3.083281687839730875e-02
2.682255682165326366e-02
-7.973340852458610239e-02
-3.307869267973156252e-02
-1.247042533819042905e-02
-4.948810384734547013e-02
1.258723318481088163e-02
-9.593367478316738861e-02
-3.782819703571589642e-02
-1.067221069242436787e-01
-2.007624466834113247e-02
1.015354755804678405e-01
1.030346420698494969e-01
4.941195562462451923e-02
-3.275488812517900195e-02
-9.963055392854242021e-02
1.007374622999823166e-01
-1.030436045959184505e-01
-1.094944656933329596e-01
2.698872758159560209e-02
6.790299764929325077e-02
-1.237384266671338016e-02
-2.695425208165693441e-03
-4.726766056793870602e-02
-1.094226813060145548e-01
1.533924854560138502e-02
5.050492570674284393e-02
-6.339478669988518611e-02
1.127297171392167979e-01
-2.147548437264937618e-02
-5.865014185841944949e-02
-1.571563034534165237e-03
5.304919737807330116e-02
-7.801804989885065267e-02
-6.542275195820555778e-02
-7.218273732688119948e-02
-3.887664272289308165e-02
-3.617396704466842999e-02
6.148534455132520504e-02
-1.744808607865580563e-02
-6.710796231150294167e-02
1.044244853766320286e-01
-1.163583269447681229e-01
1.247184959489754108e-02
4.244041109088723257e-02
4.570645131291323909e-02
-3.532727503084379800e-02
2.528662847399949440e-02
-4.088059216523014239e-02
9.046241132096601023e-02
8.986299611006373644e-02
-1.117143474484176696e-01
3.484187952036663788e-02
4.780234402530907437e-03
-2.835097440817405459e-02
-4.857768490418243323e-02
7.587902623272897717e-02
-3.337367522633175737e-02
-2.005509101887198095e-02
3.774720017959363322e-02
-4.461186309903494157e-02
1.134468550428094358e-01
-1.164059697462997700e-01
1.124090840278553216e-01
-4.316068664469075583e-02
-4.607985853658719266e-02
-1.601796560157015686e-02
4.252761692880709793e-02
-3.898399728325182417e-02
-7.993594269710951189e-03
-2.808049278769887778e-03
2.869052118545099492e-02
3.528905565876123973e-02
-5.874661220564188907e-02
-4.413916652190744139e-02
-3.399285225512859582e-02
2.524661602352238146e-02
-1.414134952011852908e-01
7.755914723594999061e-02
9.728719256918288982e-02
8.410910219046011105e-02
-1.039654258191064114e-02
-1.048214528445440968e-01
-4.085026196528349085e-02
-1.008819668892840804e-01
-1.007837844088965706e-01
-9.490294349630261361e-02
-5.214833136092913296e-02
9.134671629886018801e-03
-1.186835300352466829e-02
5.928662109443912087e-02
-7.900214193093658965e-02
3.388695914836223344e-02
7.157566546959089060e-02
-5.577022439249956082e-02
1.124774109950923799e-02
-2.142823731228732376e-02
-7.483919100741918962e-02
5.608604874185021960e-02
1.030782298654620704e-01
4.902263869764340865e-02
-9.292721235549092351e-02
9.445033702183063679e-03
-3.880639829751603848e-02
-9.190037762748715089e-02
3.035458506324536718e-02
-3.170637339851114372e-02
-1.074208411806328312e-01
4.676939049508960916e-02
8.280972842183885463e-02
-9.705970208620059991e-02
6.333661822144506792e-02
7.437979863634758271e-02
-9.063622902152335820e-03
1.073560673898697887e-01
-9.542934284627768715e-02
4.167334133423065273e-02
1.037500212549685580e-01
4.979157297063618870e-02
-3.715184883833443086e-02
1.423568810333723962e-02
7.718682397584589183e-02
1.077154237329827347e-01
9.330727467323633728e-02
2.520666410391125128e-02
1.093695096747212825e-01
6.807724777126532290e-02
-4.999830785949041512e-02
-1.185042289234646690e-01
-1.200217328884385926e-01
5.551355699982984948e-02
3.137575233941565511e-02
-3.413138036053876834e-02
-7.594526209753615920e-02
-6.979891011779081056e-02
-9.935325544444284854e-03
-7.482886832954784018e-02
8.134898401000913160e-02
-5.646453022172349262e-02
7.056632166787014937e-02
-3.914993815223895973e-02
3.047925340281353382e-02
-9.993322438461852558e-03
4.576035692240835312e-02
1.671985267515711110e-02
-2.530582071455182366e-02
-4.061813112556805772e-02
9.858464553001820840e-02
7.499294903435060888e-02
-3.047480985984559951e-02
-2.226587375423028092e-02
-1.299403407095555199e-02
7.806203987089209428e-02
6.323914504545835591e-03
4.689212338136241991e-03
9.676734454526654539e-02
1.167539141171811540e-01
1.264323904990519686e-02
-1.038406224655372828e-01
3.217425952277418177e-02
-4.226620713973950477e-02
1.178024263689116460e-02
-1.371995083915160049e-02
7.332154415222338906e-02
7.799402026526790210e-02
-1.058021753992861719e-01
-1.137894897364234714e-01
3.813133863912310934e-02
8.384207734834047201e-03
4.435757162890314326e-02
-1.088401917644455791e-01
-7.163769811225015327e-02
-1.008930225285483567e-01
-1.042336260512065488e-01
9.410782050021765377e-02
4.295825754393872709e-02
-9.443690788605771380e-02
5.573633587250568198e-03
-9.422805575565385006e-02
-3.623112434268803417e-02
6.265673070120973687e-02
3.551542823409665952e-03
-1.680780954092948865e-02
1.015559980245386434e-01
-1.001093171075611299e-01
4.213654965265219154e-02
-1.184847621552228697e-01
-9.052749006402895093e-02
3.730255085227195816e-02
-2.175591582816460701e-02
8.632137887143614963e-02
-6.361342419966451237e-03
-5.487996640651567753e-02
7.780810715855022985e-02
4.904447073154596243e-02
-7.537558335907532103e-02
5.473199788977577140e-02
4.090080783580410384e-02
4.838062143864911568e-02
-1.817494273155999956e-02
-7.561252229889704746e-02
9.976420342794249663e-02
-2.531267736059568049e-02
1.189248259382451600e-01
-1.161130479753077066e-01
-7.428349340776722876e-02
8.019091053153147575e-02
1.058803514516965805e-01
1.112114382828319342e-01
5.835110267798231803e-02
3.255445813664702148e-02
8.373741675572067555e-02
7.219293340107746544e-03
6.979204583227190117e-02
-2.831221599221694484e-03
1.044148234455464924e-01
-7.757741288160883986e-02
5.918454926465057525e-02
-1.117502901534917076e-01
-3.359206456164101628e-02
3.089312108568586374e-02
-9.664463533753209212e-02
7.657835742337823492e-02
-1.071769362157166117e-01
8.571822990996083580e-02
-1.704846777788552106e-02
-5.530903405155388614e-03
3.338155916762123449e-02
3.183807450797762617e-02
3.475073924929285296e-02
4.176694322937339610e-02
8.950946454707948974e-02
7.197530727984799426e-02
-1.112489198807850715e-01
4.370690701869096167e-02
4.988848261495160315e-03
-1.163047345609791172e-01
-3.944875099762007453e-02
5.946113551509253636e-02
4.396474158322907777e-02
1.019031054029176792e-01
1.037757745745193361e-01
1.789597785160965820e-02
-5.440711180283974019e-02
5.838560012453224840e-02
-1.199169284204363271e-02
-1.573871045937538446e-02
5.754729469297958921e-02
9.189457777247359016e-02
4.433148511940582931e-02
-1.120154680091483418e-02
-4.423054209794927139e-02
1.542694350239040904e-02
-1.173574760629551988e-01
6.703450300856507449e-02
-1.943056738767112712e-02
-4.377920434539309125e-02
-9.595410125375467003e-02
-1.635347881051215507e-02
-8.626153873326543320e-02
-1.154185231062970773e-01
1.102816028209235716e-01
-1.096979557963796981e-01
3.710217113770669997e-03
6.666695169612961436e-02
-1.775226235684188025e-02
3.013302507935026672e-02
-1.017152654798464950e-01
-3.270584353048420568e-04
5.556615252950084655e-02
4.097726311140748728e-02
-6.888928489262016730e-02
8.727575351870928144e-02
8.897452824050230968e-02
2.197070922544628116e-02
-1.047250959096481943e-01
-5.789010555346850440e-02
-8.855577675661401027e-02
-1.099395844624348473e-01
-1.170472721098236302e-01
4.294368282984482171e-02
9.505675557327853732e-05
-1.144572558880075225e-01
1.304947241022402088e-02
-1.146693143189216335e-01
-6.513340470853144770e-02
9.373040640605079243e-02
-1.173851374662624597e-01
2.196347214459148239e-02
8.696050087020501529e-02
2.976534580445548001e-02
-2.528798463547114045e-02
-1.455869804053036738e-02
6.731429754059113646e-02
-9.780685033578047360e-02
1.127483299809545897e-02
-1.996712497816147472e-02
7.384858823936649164e-02
1.141522389768412776e-01
-9.686789202774477581e-02
-2.128043549365569650e-02
-7.557588434289376489e-02
8.822189502282534734e-02
-7.962677297852613356e-02
-1.215756381656928203e-01
4.496811478873923712e-02
6.325772041115933220e-02
-1.056522791687292406e-01
2.916585657426925410e-02
9.702462462621543049e-02
-6.125226016473273721e-02
-8.815732138021789566e-02
-8.404802972402862071e-04
5.989991932087732063e-02
1.044098121500697668e-01
-3.396436452269449568e-02
-1.126162043304076849e-01
-4.195522095364088988e-02
-4.119150482876229868e-02
2.026245359167936147e-02
-4.411137408498718576e-02
1.126493755372893896e-01
-4.405196437877121479e-02
-2.399425702232429666e-02
-4.134894538310318612e-02
1.061178250837402359e-01
-2.579081091364468850e-02
4.981735125718717017e-02
2.725750203437475941e-02
-6.262079503436535077e-02
-1.277120422400429903e-02
4.875477910735497781e-04
-1.067182345003205718e-01
-1.242383617013232272e-01
-2.441373055684384341e-02
3.378060874580467859e-02
-5.072751279108478339e-02
8.174613594425091112e-02
1.159362472830858908e-02
-8.813709799124217620e-03
6.074261923963980569e-02
-9.051969304930743143e-02
-5.235614933640795297e-03
1.105219004671896127e-01
2.127436612037020627e-02
-1.529212642854523886e-02
-5.669695138335630047e-02
-7.363025554333805893e-03
5.695491122336750200e-02
4.948073348067227048e-05
-1.108868544064623290e-01
7.961092349304833837e-02
-1.185258739655221660e-01
5.601385676173975536e-02
-3.489882238225679167e-02
8.645080259645492038e-03
-8.868901616265628673e-02
5.595936068138113867e-02
-2.277544860019713527e-02
8.629509699446364160e-03
-2.553328166620277145e-02
8.418951233126151235e-03
9.870592829838843729e-02
-1.205612684844331456e-01
-6.725862158690684711e-02
5.295262914019598782e-02
1.484563851663044109e-02
-2.026410890225825365e-02
6.590126712695143496e-02
-1.099397516902286681e-01
-2.676068189144002393e-02
-9.098814314069211817e-02
7.489709366196332929e-02
1.084237156954955816e-01
-8.982375148650320607e-02
-2.311689376051962244e-02
4.569978377062732661e-02
-4.058249199928429599e-03
-9.160113176360118459e-02
5.627598437356216149e-02
8.343371523851066118e-02
-1.063742445350726873e-01
-7.896422571559082171e-02
-5.558543216281343520e-03
1.463200673399896526e-02
4.510715504481464799e-02
1.123811696923936870e-01
9.426971664341071699e-02
-3.383892333816311548e-02
9.204380430013808789e-02
-9.592433596946760288e-02
-1.127632424136766204e-01
-1.035539385660295547e-01
3.023032292221311881e-02
6.570305099029620510e-02
-1.080013787769455447e-01
4.555116464639087648e-02
-9.198378783881937248e-02
-9.833135629531135347e-02
7.640073597494592694e-02
9.756921331136646225e-02
-8.128694393035061638e-02
2.800555901535040082e-02
-8.613983100362557210e-02
-4.332383135322493556e-02
2.267070905341312878e-02
-7.470324848952799093e-03
7.499047474936484936e-02
-9.331301818033801987e-02
2.938958435544671358e-02
-1.089017660066379650e-01
3.532250303616569359e-02
-7.369673590653040562e-02
-8.986635170322428146e-02
9.326529872090029427e-02
2.459163290362758117e-02
1.063566174219434807e-01
8.156330897910783750e-02
-2.158628597684582665e-02
-7.364479375615137768e-02
1.618982149567676360e-02
6.744161528581318898e-02
-8.685369881497980588e-03
-1.076277148461672051e-01
-5.196186116268070032e-02
4.498262245234713186e-02
-2.792767679490303252e-03
5.070992761357105000e-02
-7.076053175790836258e-02
4.648787786772600600e-02
-1.057747280886747465e-01
-5.204596771362386687e-02
-2.259621996481395514e-03
7.592639866813355454e-02
3.999447744204551874e-02
2.535959378509825696e-02
-2.370563585731194287e-02
6.038219586212732054e-02
-2.552067007339383145e-02
9.253709073640231653e-02
-9.044987990533538691e-02
5.809344743706167796e-02
2.713008481132477348e-02
2.621819181887173611e-02
1.181025618411501998e-01
-8.811998277558148740e-02
-6.269608694587709696e-02
7.913861332971224016e-02
7.780403603044885874e-02
-5.580032008859358433e-02
2.855473203864027781e-02
-3.124756322693588925e-02
-4.155785425205041350e-02
-7.663807346373180396e-02
-6.640375462665507045e-02
-2.661781087804211340e-02
-9.341867319846829110e-02
-1.106694413891043914e-02
7.222083773136167562e-02
-4.464926462353036030e-02
1.170536048664611306e-01
-4.393165406744781176e-02
1.185810895836553747e-01
1.049280696079919750e-01
-7.335979850069537789e-02
6.375078605972304968e-02
2.742775352486526846e-02
8.644573391106172289e-02
7.470019800189418857e-02
-1.160090895750778700e-01
1.816969913309421022e-02
-9.101808636433356137e-02
1.174984656410063694e-01
1.018766776171698973e-01
4.837906910872969563e-02
2.834860712959539480e-02
-2.114131064567387544e-02
-9.409125548668649530e-02
-1.055957442079429459e-01
-8.765056143105737219e-02
1.181699531192168112e-01
1.094119476599597074e-01
-8.558723065346855730e-02
4.910190274090357743e-02
-4.651839250924789254e-02
-7.621337859265753245e-02
-7.395715080366421779e-02
-7.451820996197447422e-02
3.316508520726849096e-02
-1.885674677234089325e-02
-3.025333783119255743e-02
-8.208429559933362596e-02
1.111213710617447031e-01
6.995917947401135428e-02
3.655222960862070970e-03
1.086782988058059146e-01
-8.958629615317993677e-02
-1.087209349243780654e-01
2.380789607260615399e-03
-1.016134027757638336e-01
-4.138355851409200592e-02
-1.132099273057626670e-01
4.349313250463937575e-02
1.935963031385893630e-03
-1.007605039734683038e-02
-5.925103058887985774e-02
-9.285720122157549439e-02
-4.563231125311031922e-02
-3.756525496976768907e-02
6.429640310255653468e-02
-1.194447639671038647e-01
-5.935812210209989032e-02
-1.169653314669476946e-01
-1.098544675236695217e-01
9.048405291719061050e-02
-1.146466889523234667e-01
-3.128249727956791681e-02
3.662641421676040426e-02
-1.350309041411079138e-02
-1.095882801809910795e-01
-1.017203937438544009e-01
-2.061494141079384460e-02
8.527388003445407483e-02
-1.005029139408610689e-01
-5.692692234916339050e-02
4.993856791810256240e-02
-4.206437293164581176e-02
9.266074009301902836e-02
2.449608033508780813e-02
-4.263458912390303960e-04
-1.115891324565269210e-01
8.599282591607280979e-02
-8.265996236135475170e-03
9.156752626756203828e-02
5.581475625757501696e-02
-3.463500657251147169e-02
-5.041264674292655901e-02
4.677569379177533293e-02
9.064190716820894056e-02
2.436217120014244272e-02
-4.661440083135870438e-02
-8.711584730386879097e-03
7.157056281724254176e-02
-2.968970765582615995e-02
-4.456986410839235135e-02
-1.078550679683211028e-01
-6.362420422786428664e-02
6.609170378567535975e-03
1.063282000773464325e-01
1.169442925571782255e-01
-7.252904386984093676e-02
-7.457154113720844413e-02
2.321723570742487489e-02
4.911418089240211782e-02
-2.264595234364804796e-02
-9.125913186760552243e-02
3.208945092036903646e-02
-2.106061054726105636e-02
5.893009459805665512e-02
5.956655040667076240e-02
-4.527459403487722571e-03
2.001745825205371310e-02
9.375303582957839055e-02
3.520642592394227638e-02
-7.534803218253247059e-02
-1.154833428040420579e-01
-1.149414659894649748e-01
-3.662408167620007093e-02
-6.146158823865668919e-02
1.639937789802292309e-02
6.307286059943181811e-02
3.702932549642127397e-02
-6.454296253289198981e-02
9.733700325518603036e-02
3.555144356518882137e-02
-9.026396384213490609e-02
-2.206434501192449521e-02
7.911091012854165605e-02
-1.129118288988053831e-01
1.160990005512390760e-01
-4.230355483050915466e-02
5.668667081530897114e-03
-1.182398911455192769e-01
-3.412962374388909398e-02
9.659261799500893156e-03
-8.100084015225975098e-02
-8.627441211443993840e-02
-7.262771695184611076e-02
7.999186958697723782e-02
-8.258294633047201516e-02
5.253113188862910780e-03
1.015831032979021692e-01
1.617740720539011939e-02
-6.504143393282339758e-02
-1.679384549536892465e-02
5.963800113747608905e-02
1.063865256337508808e-01
1.188192331991747147e-01
-4.250594951577503500e-02
-1.035216645553808379e-01
1.178764857425008278e-01
-1.121632917548464337e-01
-7.956773845424622293e-02
-7.783584202399689012e-02
-6.357622650002316134e-02
-7.439014003817770448e-02
2.360511874596612353e-02
-1.060203826275728373e-01
-6.243575048916533837e-02
2.197956524509974557e-02
8.939590776336435451e-02
1.009924400705781433e-01
-2.061185214276376951e-02
3.648809101383637676e-02
-5.289248528845168044e-03
-7.341072800779743779e-02
-4.484549305492899901e-02
2.699135238331626732e-02
1.207145242814567504e-01
-4.590096508546342297e-02
-3.740613099635517469e-02
3.494441684228404704e-02
-2.921853432698589929e-03
4.666742195504262891e-02
4.930991204190567079e-02
8.616660961744573854e-02
-1.867170280102174729e-02
-1.144490671773844143e-01
-1.484781948292510610e-02
5.545182342204835885e-02
2.254750914731915024e-02
9.051823530903227444e-02
-5.139206208467143877e-02
-8.683839383639009590e-02
-2.755324321045087357e-02
2.218372835040527055e-02
5.792700705720033733e-02
-5.297570006708860607e-03
9.853664683958382464e-02
7.350350152728150899e-02
1.215843242469184654e-01
-3.193612552130386389e-02
1.497644159093396328e-02
8.982901072409121834e-02
-1.458294040154618602e-02
-8.835176628938844201e-02
-6.316396556613207425e-02
9.631854074626904072e-02
5.528700699128163976e-02
6.685792117254472054e-03
-4.648898054608009006e-02
-6.183312394211688129e-02
-1.386902062375159651e-02
6.336318890189997222e-02
-5.156122134547470870e-02
-1.130572883780457498e-02
-1.182490313543076849e-02
9.959745883203179051e-02
-3.900042531313951955e-02
7.340166699705925890e-02
3.179780522522216574e-02
2.988514219275278938e-02
-1.005510539142811938e-01
-1.420241014145254450e-02
-4.364785871984128152e-02
9.086187667463049844e-02
-8.734055194397354061e-02
2.667860197044939416e-02
-8.952661686996404855e-02
-2.946864273159889927e-02
-6.025702510525527550e-02
-4.399039715131784073e-02
-7.896120221948589590e-02
1.107999943196291831e-01
7.282845972776738619e-02
8.165411487932068557e-02
-2.986861036388490862e-02
1.106673247740350419e-01
-1.629306578084895388e-02
5.628985054647604562e-03
4.736752413898121655e-02
-7.062302562748319634e-02
-3.043864138394035412e-02
9.398612354980087624e-02
-3.692693847511684807e-02
-2.362256394102837595e-02
-1.001481208929182742e-01
5.284998025474799133e-02
-4.205137871571835301e-02
-2.451815734260641769e-02
-1.606641975677242790e-02
4.678246452816542389e-02
-1.036758438633917333e-02
8.736772323295399767e-02
-4.988477049800220386e-02
6.241494186932713267e-02
-3.648840011070213912e-02
-6.501633546489243853e-02
-3.841452705794300843e-02
8.886536359009659936e-02
-8.579728852967120900e-02
9.949770335710313163e-02
-5.303624404682374949e-02
-7.861218022899676625e-03
-1.260049285212594128e-01
-9.665645345491147289e-02
-7.145546749826243993e-02
-6.982560854803895878e-02
-6.772599405797023742e-02
9.562722898465959853e-02
6.802973558120846420e-02
4.630932481792055661e-02
-9.572509037630354267e-02
1.008068487240393633e-03
-1.580956753654487804e-02
-8.023997114940036035e-02
6.244551769326327911e-02
3.369575975221063280e-02
2.663141959078720380e-02
-2.196860970825985707e-02
-9.169187245481916215e-02
-9.329712282831616188e-03
1.116653992787007138e-01
1.125978597405055681e-02
1.000081869422511649e-01
9.569224377913171375e-02
7.588811503271868097e-02
-2.110080442232132800e-02
1.219470827297658155e-01
7.764248943447749074e-02
1.269961578158897500e-02
-2.275556274997254588e-02
7.802727118945650131e-02
-4.324651286960423668e-02
-9.324511257528415864e-02
-9.211240500874526282e-02
-2.625711173409787241e-02
-1.200070653797559971e-02
1.105489161074256210e-01
-5.068796464886790587e-02
-1.190610923235800728e-01
-9.242661745819370778e-02
1.128296648179250017e-01
-1.002616752837911900e-02
-9.530702725215368931e-02
4.687895434853921878e-02
-1.983910141488990156e-02
9.699080613700922227e-02
6.121731069746911419e-02
8.318238525195668920e-02
6.628697516657983124e-02
-1.427718909626012576e-02
-6.969146470132890625e-02
-3.428622765226824187e-02
2.092938409609030118e-02
-4.746642725894498899e-02
-8.205960519883259696e-02
9.020582491624846988e-02
-7.340843824014178787e-02
-1.099930043872478919e-01
-1.042933802633179557e-01
-7.719945844701198157e-02
-3.059621421425681720e-02
8.073556032514560277e-02
4.901669330066771302e-02
-9.130027226878574542e-02
4.228813886227499735e-02
5.582892373964800509e-02
-2.301303993259159084e-05
-5.022199045302494502e-02
8.980526777526723348e-02
-5.892349780598842360e-03
5.277557370603736669e-02
-1.014762973919583304e-02
-3.038189677852851101e-02
1.148302217830033528e-01
-1.005047959119026099e-02
1.964950389720357751e-02
2.515915158737063936e-02
6.411466272706993486e-02
1.419745405626911955e-02
-1.810060345157567946e-02
-9.257825113561686525e-02
-6.608096928731413411e-02
9.692025534183458524e-02
-5.587951117491468667e-02
-4.573011115609303123e-02
-3.070722983837194039e-02
-8.167914391822450604e-02
-6.958084695395337638e-02
1.012951642901153970e-02
2.834691884881655743e-02
-1.148407598619300141e-01
-8.813766827536427539e-02
8.233953298267898679e-02
-1.086179743743205944e-01
-8.257372765875366997e-05
-6.289546548942141768e-02
5.047940417524068163e-02
-8.634562087371840111e-02
6.174460781092029615e-02
-4.062747427672708939e-02
-6.130038311390789696e-02
9.754078062015507367e-02
-4.924628436536041681e-02
2.658110642014855501e-02
-8.576419271256867372e-02
7.414915886208114926e-02
4.004963504369207089e-02
-6.748961434426282990e-02
-4.336792434981472620e-03
7.693996254112224487e-02
-7.185371659469658168e-02
-4.939717741101662396e-02
-8.532212620193448116e-02
9.690803029599216745e-02
1.641035702183488501e-02
-6.922614950143862744e-02
-8.194256556035288408e-02
8.821388289082046641e-02
-9.241907435957981420e-02
-1.634917754041474366e-02
6.059636601272583994e-02
-1.061116928524250685e-01
-3.566661844443884399e-02
-7.238954222455801224e-02
-9.485354012754990127e-02
1.349241859093332739e-02
-2.900738447154910249e-02
8.325904189108183917e-02
-2.421597756405467761e-02
-1.098431473280521570e-01
-5.833800731509995036e-03
-9.600980372623121872e-02
-5.613889506853394704e-03
7.221976345363115279e-02
2.523077947990387190e-02
-8.076757991223333655e-02
-1.220544736653243062e-01
1.522275877406418197e-02
-1.397940437911713019e-01
-8.401744818886626442e-02
-4.352918526797790177e-02
4.216342616741129701e-02
-9.348376533137349453e-02
5.448504181307867178e-02
-2.491056816143092864e-02
8.801677087420507750e-02
-6.345751481936915891e-03
7.320631875034958047e-02
-1.108838772779868337e-01
-5.354027532687139629e-02
1.053603958703282356e-01
6.161969083375542361e-02
1.479081532064031521e-02
-6.657392979577562986e-02
2.064937287680699424e-02
-1.904352685598528425e-02
8.542710001812052478e-03
-8.224269487937758971e-02
1.276139481662650135e-02
4.492620238351057588e-02
-8.366045126888926875e-02
-1.079425025169694213e-01
6.728276466751707818e-02
-2.326332853321257457e-02
3.288219831739857407e-02
-9.376332124163472281e-02
-1.608761237948491685e-02
-5.983182980645597449e-02
-2.505673015153115149e-02
-1.268486038407061756e-01
-5.380406977243253064e-02
-6.786629925687528986e-02
5.887415261430459235e-02
-2.361042370441131938e-02
1.174805644528381827e-02
-1.221492516164819804e-02
-4.658500924064120502e-02
-1.494164369524659391e-02
8.292706271412920993e-02
2.869007655845372262e-02
-8.168035549329288880e-02
4.667603020258034863e-02
6.907339644474015661e-02
-4.853767592600549685e-02
1.027928423032718891e-01
-5.776569404028893823e-02
-8.804139701832658371e-02
3.381309331231941492e-03
-8.267292349194586831e-02
-8.688968442672843906e-02
4.808952778797579569e-02
3.798674356360007970e-02
-8.274769677102507270e-02
4.732980787423095824e-03
-6.346059985708518703e-02
-4.346294687005080454e-02
6.539766784754927342e-02
-8.829010525048386349e-02
-4.173601594517747926e-02
-3.555561794073811704e-02
-7.092433561394945185e-02
-1.328113666753262707e-02
-9.579508059009336773e-02
9.403164955189997898e-02
6.977604073635523818e-02
9.790623560499232825e-02
-1.150590367550305242e-03
2.495015738656253083e-03
-3.546087556585168082e-02
7.790036200979214009e-02
1.599949506397463361e-02
-1.509053752213643414e-02
-1.078806656217497495e-01
-3.546024450072096657e-02
2.481112730769540267e-02
1.110855218739396563e-02
-5.870493347099891429e-03
4.984720420948125091e-02
8.147686474546204927e-02
1.404744139214313299e-02
-9.701913995813518654e-02
3.188347877600527375e-02
1.036975957436513940e-01
-4.223517570091330636e-02
2.883427866959130045e-02
6.260590674594987415e-02
2.391198479888833814e-02
3.049532751970127423e-02
7.897342704376154876e-02
-7.697531584162023302e-04
-1.257593477687956283e-02
5.272183270383001136e-02
-1.134616895536425391e-01
8.837927233592814125e-02
-9.930613162066839750e-02
-1.117888331082763156e-02
8.061572743438802369e-02
-6.561332151750520758e-02
-4.674734783642457009e-02
-1.030280842815028269e-01
8.938258950916324339e-04
-2.989529436654812453e-02
9.542391220870564961e-02
1.542093566939188760e-02
-9.086389455583220726e-03
-2.279131243592185177e-02
-1.032023574886202638e-01
1.098240514181153399e-01
-8.248134217350083786e-02
1.469564424049466661e-02
2.592029037203174777e-02
2.456229148021784117e-02
-2.714998080700244468e-02
5.513711139349197071e-02
-2.668644109100061501e-02
7.471332584972148472e-02
-1.027938723719396263e-01
3.186788713055546673e-02
9.274985318543313428e-02
-1.023366864739862214e-01
1.809213665617765907e-02
2.394574816498426170e-02
2.864426883426016146e-02
-3.726877144721454926e-02
7.103405607415007317e-02
-7.875375057120198585e-02
1.207878333291019859e-02
2.168189308513538555e-02
2.546906286445252410e-02
-5.408012295862983654e-03
6.278604870047320430e-02
4.048070732249967052e-02
-1.004082645490727982e-01
2.035508369164645143e-02
-4.782262797727810516e-02
-5.001377963549379774e-02
-9.017376118755138226e-03
-1.165163486792365199e-01
1.962318786764925826e-02
8.847778332882372254e-02
-7.099414170525694678e-02
9.152579935383355070e-02
3.442285700199777289e-03
-1.370640221601027685e-02
-1.176195785530734644e-01
-1.043365710081540776e-01
-5.573952321180103420e-02
-4.660400319102139810e-02
-1.138801730382104499e-01
-9.962944988114738609e-02
7.222706951073559756e-02
8.292205111471560863e-02
-4.839979937170587991e-03
6.511925845774865773e-02
2.243797805429060752e-02
-4.660591429408734304e-02
-8.422549218286964900e-02
-5.134402089329340169e-02
5.750183645356087003e-02
5.336911779786724513e-02
-5.787953805001307128e-02
7.256006837357249772e-02
8.697054765870136650e-02
-1.232312258753110682e-03
-2.369764981440621726e-02
7.757525836135752140e-02
-9.280371734267961470e-02
1.097104961418942232e-01
-8.136637350558038884e-02
-8.242719068341812505e-02
1.036030635602813443e-01
-7.601481177623216345e-02
-5.253801472035578811e-03
2.216551072118523591e-02
7.729429005049068269e-02
-6.979974481739380059e-03
-1.195950932861730293e-01
9.642759719982962885e-02
7.661170503054220982e-02
-1.010105175048532505e-01
-9.744652253440642953e-02
-5.459579597206816459e-02
3.352341979426357726e-03
-9.576266634777402809e-02
1.848340749372045372e-02
1.577049682735267916e-03
6.866075073246108440e-02
1.407620884313902105e-03
-1.207298764259317897e-01
-8.976209406025376092e-02
-1.375684298704747503e-02
6.871727325676497966e-02
2.427197878052998053e-02
1.038220738047142683e-01
-7.821185782777660689e-02
-4.156418855559174119e-02
6.976968042985973173e-02
-4.662300354983191231e-02
3.224972721116625696e-02
8.228175306161562841e-02
3.809659528721213995e-02
5.992397283966433008e-02
3.807492513181880839e-02
4.549958645289426534e-02
2.377005007499708236e-02
5.866936239001675074e-02
-1.821748898821825332e-03
-8.575674672210560623e-02
-4.579004997563491247e-02
9.944395429971999989e-02
-3.892761464338896638e-02
-1.107530968263347876e-01
-1.212251520172853148e-01
-9.421362360107937706e-02
2.453786483316778774e-02
-8.936654560239499362e-03
9.546708223223974998e-02
-7.172868189601035172e-02
2.069358282338250657e-02
-9.208643253315909605e-02
9.340293353960307798e-02
-9.189934678173375393e-02
-5.875741939281088101e-03
-6.407043181521245023e-02
-8.385039950670861164e-02
8.435832360445282008e-02
7.954186182439865194e-02
-1.458526226235847163e-02
-8.898121105097261951e-02
-7.239384539088658532e-02
-1.096860558931554847e-01
-2.013748310203667107e-03
-1.174542971569217664e-01
-1.054590458667837433e-01
-1.863290931620714339e-02
5.198806195884783654e-02
-9.513133958021580128e-02
1.242473251775095926e-02
-9.328301315274467598e-02
-1.017912466521783826e-01
-2.423184529385513652e-02
4.458733642074297343e-02
-1.199481299930803130e-01
-7.227024250818606110e-02
-9.570596461917996178e-02
-7.889902033951645688e-02
-7.032843945497851967e-02
2.438515907399501498e-03
-1.106855913681640408e-01
1.411795844061127479e-02
-9.938926218944172525e-03
7.387805305839389991e-02
1.166314909804228202e-02
-1.366735896561032011e-02
1.112599082272645451e-01
-6.561420106030679822e-02
6.122545003979869283e-02
-1.212256064720319548e-01
-1.071589184801823025e-01
1.096388474728191564e-01
1.129229349515271791e-01
-8.635040442942668037e-02
-6.930643069955776114e-02
-6.394992297350508836e-02
7.331311170897446272e-02
2.187595373500945614e-02
1.062864112919879450e-01
6.175826065577923185e-02
-2.345735466149643719e-02
-8.039644169790105543e-02
6.919500172520566539e-02
-9.021907279996890794e-02
6.896959061315452444e-02
-3.178884964513649380e-02
-5.858874063556970824e-02
-1.210170139078997065e-01
-6.897160438883048750e-02
1.566048561265956721e-02
-3.734360898704708331e-02
1.325663301945518568e-01
5.896789662389179815e-02
1.058096486756121279e-01
-5.801078072897693227e-02
-6.268035291322046620e-02
3.061439667263077258e-02
-1.069265343232361221e-01
-1.056342901012630453e-01
-6.657428932466122329e-02
-8.904331146662471108e-02
-1.884824747834272854e-02
-6.961232829891669804e-02
-3.389224062023332793e-03
8.096418252696116480e-02
1.035136492121653262e-01
5.731890736815550835e-02
1.027655273534685831e-01
5.260324723360550181e-02
5.478713169117308684e-02
3.855335163142650790e-02
2.646834784180256139e-02
-3.685339134648053794e-02
-1.105720344978932401e-01
-3.578107351235044337e-02
-1.127461713829964879e-01
-5.161055250327233751e-02
1.429424048733897272e-02
8.001203344156458674e-02
3.264342177894234698e-02
8.519262816544996564e-02
7.098465368735384917e-02
7.008939148858429891e-02
-8.547638629831952328e-02
-9.094776895595587871e-03
-2.397354566321551611e-02
-6.216668662751873714e-02
-1.069573900037805586e-01
-7.417327809252928505e-02
3.219175687067991898e-02
-4.547868501008186376e-02
-4.282734408215428668e-02
-6.925674006764524770e-02
-1.113494245934140703e-01
-1.003752793379263271e-02
3.136500053673628441e-02
-6.527417532586010651e-02
-8.045996627797324940e-02
7.206392397282576634e-02
-1.049625914638037394e-01
-1.724733570187908516e-02
9.677327582503025827e-02
8.053360264891067100e-02
8.462162562682880307e-02
4.341401077902094785e-02
6.497582216632397795e-03
1.096143116590612837e-01
-4.775677312377647754e-02
-3.972551612174930052e-02
8.583390186932808585e-02
-4.523190548314557496e-02
5.560157473435080322e-02
4.356717477065997352e-02
4.494400610416984104e-02
6.468734962477663830e-02
5.022313242087830809e-02
5.943690495236467024e-03
-1.186950619484836017e-01
-9.189809035967237694e-02
1.176168873189704055e-02
-8.005171030405709709e-02
6.641951746601278128e-02
3.700247164423850228e-03
6.560998504576344426e-02
-6.981143381384809221e-02
-2.020748950987744791e-02
-6.176583692915914997e-02
2.022056624172217584e-02
1.111895834484637885e-01
-7.169934252325503576e-03
4.469260799002831158e-02
4.932263862318907871e-02
8.423273083220340907e-02
9.130098655780022332e-02
-4.655312879503254592e-02
-2.915533575044358672e-02
-1.373073425683169792e-02
-1.576551897300501603e-02
-4.025318722292613172e-02
-3.458853606545626846e-02
-4.829295342557126530e-02
-1.078608367293460435e-01
-5.858211204195547944e-02
2.985785198433626997e-02
-4.404206538895154982e-02
1.049514536096032430e-01
-4.949942238023993801e-02
1.129046744113991335e-01
8.237936848692174741e-02
8.243548708305084571e-02
-1.365256368165449754e-03
-4.636737345638818064e-02
-2.021067542255741006e-02
8.432576332589965251e-02
6.419917920602408179e-02
2.622927014671071547e-02
-9.311466482403744915e-02
-6.541466756449834663e-02
-1.013778444700536713e-01
4.229710681363910846e-02
-1.009408750713117059e-01
2.420468848476422380e-02
-1.171657814916676893e-01
-2.371260920162665542e-02
1.203119939269874789e-02
2.324976407567192274e-02
-8.306601531136892369e-02
2.413888447292932005e-02
2.324644872341545890e-02
1.100607902937609656e-01
-3.557902901672614637e-02
-6.743261277494140560e-02
-1.187074659249229974e-01
-3.653287309595897037e-02
9.518991185616790252e-02
-9.488953501926300493e-02
-1.160306898552293103e-01
-1.078433082065809040e-01
-1.984478220156989797e-02
1.183029150176270750e-01
8.001648979346957791e-02
4.450367512942201426e-02
3.956790698699661629e-02
-4.422740035351781923e-02
-1.124148960321986329e-02
3.066584738445527186e-03
1.144291501891904483e-01
9.088055913422461718e-02
9.143547011829795956e-02
-4.219703079007910279e-02
8.923396915518830991e-03
8.209130804124607772e-02
-8.261219426689110634e-02
9.851845282480810317e-02
-7.999585242823553655e-02
1.153807329207105076e-01
1.140407285235111035e-01
-1.129415343711056771e-02
1.631664079581269730e-02
8.696916519848026106e-02
1.152771670712110647e-01
5.944128416597285747e-02
-5.452377817562388540e-02
5.330606444235066327e-02
-2.788363146051885469e-02
6.087549299181552187e-02
-1.003357978878634954e-02
8.216530150855205772e-02
5.216867123389822697e-02
2.032557731332914133e-02
3.656073677169031921e-02
-1.063633364719931140e-01
2.820348243822055900e-02
1.000721315665813876e-01
-8.050818611918141021e-02
6.878777559081063198e-02
2.328514747297106419e-02
9.469571318634827095e-02
1.138673031404798947e-01
-1.089292110491015333e-02
8.424897208917586644e-02
-5.259337520463540361e-02
-1.142264257985314141e-01
-2.917052330043974628e-02
-1.129768390357236418e-01
-6.953199981734789481e-02
-4.089134173248672871e-02
-1.452685102839395247e-02
-1.049591663768252026e-01
-6.232030331683030555e-02
7.937958896830588085e-02
-6.230498277202575763e-02
1.133782479874721194e-01
3.336847720433026160e-02
3.577092179232092828e-02
7.467007617411977605e-02
5.983470225087441502e-02
5.595249893091952531e-02
-3.410348377109655854e-02
-4.369737134679108070e-02
1.190640370332128883e-01
-3.506972422701877534e-02
-7.190070954270603998e-02
3.600241574847194703e-02
-5.866715829642632149e-03
-9.376441530600121421e-02
-7.521681753102285595e-02
-8.515392272782798533e-02
-6.173088523141821715e-03
3.002252917477236244e-02
-6.730008564112921476e-02
-9.525990179250960754e-02
